900 100 21
0.0234604 -0.0598363 -0.0147355 0.0817839 -0.00505426 -0.0494589 0.0639581 0.0545555 -0.0534346 0.0396969 -0.00735216 0.0666704 -0.0904098 -0.0932166 -0.0764778 -0.0505193 0.0815529 0.0355183 -0.0924554 0.0447347 -0.0948396 -0.123923 0.00115386 0.102349 -0.0871775 -0.0853396 -0.112402 -0.0230799 0.0733105 0.0861333 -0.0530781 -0.0438901 0.108505 0.0505481 0.0781688 -0.0641661 -0.0880149 0.0662061 -0.00546083 -0.0327223 -0.0228227 -0.0540757 0.100415 0.0897085 -0.0124369 0.0684948 -0.0605473 -0.0395783 -0.0277662 0.0664616 -0.0897547 0.0180215 -0.0289538 0.0295827 -0.0458216 0.0121441 -0.0593369 0.0259423 -0.0199214 0.0617215 -0.0463872 -0.0906316 0.0341476 0.0441103 0.0592127 -0.0377264 -0.0297264 0.00260893 -0.114109 -0.0459948 0.0686399 0.0388279 0.0326182 -0.0933141 0.0607412 0.0568487 0.0626126 -0.133738 0.0414576 -0.0831503 0.0269434 0.0590609 -0.0750074 -0.0826303 -0.0247389 -0.0854271 0.00909914 -0.00338491 -0.0104605 -0.0797645 0.0469419 -0.113895 -0.021696 0.0612982 -0.0401443 0.0619744 0.0826314 0.0707696 0.090508 -0.00720062 0.0792406 -0.0983787 0.0530908 0.0120056 0.0713104 -0.0979773 -0.0158582 0.0392751 -0.115771 -0.13579 -0.0927168 -0.118606 -0.0894382 -0.0206624 0.00324517 -0.0519143 -0.0247217 0.00526885 0.0853151 -0.114506 0.0168744 0.00480319 0.0213079 0.000159639 0.0446016 -0.00924015 -0.114465 -0.0767477 -0.100962 -0.00905266 0.0565423 0.0281097 -0.034208 0.0188461 0.0149439 -0.0968493 -0.00742853 -0.0983564 0.0445512 -0.063278 0.000420776 -0.0317467 0.000475994 0.0107858 -0.0969903 0.0382569 -0.0223414 -0.100158 -0.116754 0.0391335 0.0313032 0.0719812 0.049917 -0.0653024 -0.128749 -0.0324708 -0.0740471 0.0905578 0.0172754 -0.00994208 0.0285951 -0.0271873 0.0751227 -0.0383252 -0.0954285 -0.0295137 0.0833282 0.00350625 -0.0212371 -0.110138 -0.125756 -0.112571 0.0677093 0.0112678 0.0563392 0.0630164 -0.0214664 0.0614455 -0.00747786 -0.0167264 0.0362572 -0.0418693 -0.058358 -0.0782464 0.0663386 -0.131225 -0.0652416 -0.052386 0.0796515 0.0314338 0.0204543 -0.0379626 0.107304 -0.0923612 0.0692053 0.0387676 -0.0883986 0.098986 0.0250292 0.0829635 0.0543972 0.0235947 -0.0295163 0.00172215 -0.0530421 -0.0706495 0.0140928 0.00538259 0.0253547 -0.0143982 0.0049405 0.028675 0.0199549 -0.0501639 -0.0887757 -0.121961 -0.0507057 0.000656642 -0.0671673 -0.00964256 -0.00549911 -0.092644 0.0832353 -0.00144905 0.120007 0.00891896 0.0140309 0.0606203 0.0971352 0.0183855 0.0589661 -0.0766923 0.0413454 -0.0373357 0.0101373 0.0569257 -0.0329493 0.0273021 -0.0746952 0.0499073 0.063348 -0.109944 -0.0454857 0.0494502 0.0718436 -0.0990289 0.00775584 -0.0381769 -0.0098648 -0.0872437 -0.0872294 0.0859834 0.0232152 -0.00981136 -0.063462 -0.0697682 0.0925567 0.0968704 0.0833856 0.0840924 0.0564219 0.00239267 -0.0417261 -0.0803596 0.0798353 -0.0576337 -0.0225792 0.0855097 0.000179976 0.0423537 -0.089991 0.0873411 0.0294657 -0.117148 0.00939438 -0.0395214 -0.0922284 0.0160695 -0.029609 -0.113016 0.0260401 -0.0662467 -0.00414349 0.078794 0.0654649 0.0218874 -0.00513705 -0.00716074 0.00967501 0.0911099 -0.0350393 0.109591 0.0111351 0.0203685 -0.0385797 0.0305687 0.0961482 -0.000680798 -0.113517 -0.0514051 -0.0169451 -0.118811 0.0583298 -0.0838108 -0.0934577 -0.114778 0.0159628 -0.144091 0.0641856 -0.00875836 0.0978433 -0.104268 -0.0477006 0.0477141 0.0777431 0.0399499 0.00599919 0.00821585 0.0940996 -0.000198246 0.0592073 0.108242 0.0709604 0.051948 -0.047223 0.0382869 -0.10921 0.0926055 0.0389838 0.0082628 0.0431099 -0.079138 -0.0122829 0.0629014 -0.132022 0.0399916 0.0129274 -0.0867942 -0.091348 0.0122696 0.0823097 0.0617938 0.116204 -0.0407621 -0.0165399 -0.02449 0.107818 0.00584718 0.0985881 -0.0461957 0.0215578 0.00267704 0.105128 -0.0164029 0.027049 -0.0288117 -0.0459808 -0.0242897 -0.0332036 0.0688763 -0.114219 0.0668172 0.00984698 -0.026947 -0.113596 -0.0869336 -0.0674571 -0.0400286 0.0726852 0.0341154 -0.086722 0.0897011 -0.0845436 -0.0280162 -0.00090414 -0.06234 -0.0784297 -0.0978805 0.103459 -0.0330062 -0.0168316 0.0252055 0.0931389 -0.108814 0.0943272 0.000656413 -0.00279069 -0.0974488 0.0752862 0.0653025 0.0832705 -0.0379066 -0.0686516 0.0682463 0.0772194 -0.129278 -0.00359071 -0.120796 0.0243197 0.0655251 0.0702367 -0.104527 -0.0649164 0.0119929 -0.0580038 0.103235 0.0211257 0.101603 0.0148937 0.0592827 -0.0585705 -0.0449771 0.0946741 -0.0744043 0.0980113 0.0983926 0.00172088 -0.118174 -0.0048432 -0.0181074 0.0353883 -0.0857488 -0.00984282 -0.025465 -0.0174863 -0.129193 -0.0701936 -0.0807977 0.0285871 0.0133932 0.0897045 -0.0764697 0.0686116 -0.109755 0.0903997 -0.00399243 -0.048178 -0.0577024 -0.0344409 0.0649732 0.0392769 0.0615004 0.0772456 0.0124212 -0.00826045 -0.0725804 0.00503398 -0.094852 0.000674393 -0.0997988 0.0595189 0.097677 0.00148422 -0.0861259 0.065424 -0.151184 -0.0283382 -0.13823 -0.0393271 -0.0702084 0.0278689 0.0252911 -0.116258 -0.0533951 -0.0835056 -0.00955688 0.0332752 -0.0145965 -0.0981104 -0.158439 -0.111375 0.0270946 -0.0453893 0.0502713 0.0339782 -0.111532 -0.022679 -0.00559118 -0.0259395 0.0852641 -0.0776733 -0.0292099 0.092244 0.110914 -0.041475 -0.0916847 0.0616072 -0.0922732 -0.131902 0.00738921 -0.116454 0.00250387 0.0412526 -0.0942646 -0.0809974 0.0204838 -0.0963314 -0.116155 -0.00042202 -0.11986 -0.101378 0.0327439 -0.0876637 0.0842622 -0.0559406 -0.0833714 0.039188 0.0249433 -0.030742 -0.101897 -0.056038 0.081054 -0.0863237 0.0749673 0.0651392 -0.0350459 0.0788259 -0.0163485 -0.0850463 -0.104541 0.0343166 -0.0396814 -0.0739354 -0.106666 -0.0924743 -0.109672 -0.0803947 -0.150947 -0.1288 -0.165122 -0.129237 0.032014 -0.0403021 0.0244168 -0.0597367 0.0536831 -0.0424556 0.0901816 0.0180828 0.0444321 0.0258055 0.0845795 -0.082323 0.0434717 0.105986 0.0572654 -0.0462323 -0.0454363 -0.0617333 -0.0329239 0.0773449 -0.0691274 -0.0359131 -0.0558733 -0.0340884 0.0168038 0.0165746 -0.0829468 -0.106712 -0.087993 0.0413449 0.0666782 -0.0286349 -0.0513592 0.0417193 0.0439154 -0.0184936 -0.0768535 0.0748961 0.0355717 0.0431124 -0.0423204 -0.00111518 0.109989 -0.0246799 0.0314622 -0.093196 -0.11425 0.00672689 0.058678 0.0211425 0.0681443 0.0620028 0.0931613 0.0104722 -0.0819653 -0.0764642 -0.0797996 -0.113165 0.0132771 -0.107152 0.0604419 -0.0291609 -0.0306642 -0.0919526 -0.115328 0.0844274 -0.0923662 -0.106128 -0.0199654 0.0639129 0.0958715 0.0833275 -0.00290223 -0.0185043 0.00578527 -0.00229342 0.0956526 -0.0493934 -0.0234993 0.0783017 -0.000902375 -0.0569881 -0.0737203 0.0254206 -0.0385931 -0.075117 0.0197399 -0.0763201 -0.0250459 -0.0173284 0.037601 -0.106763 0.00481926 -0.036455 0.0910644 -0.00232827 -0.0486031 0.00734851 -0.00197574 -0.0492844 0.130414 0.100732 -0.0480218 0.110817 0.119248 0.0924873 -0.0052703 -0.0598328 0.118099 0.0377457 0.0244518 0.108492 -0.0988324 0.0520416 0.0621032 0.105719 0.0673011 -0.031728 0.0395598 -0.0235462 -0.0879117 -0.0292225 -0.0305516 -0.0879569 -0.0802412 0.09219 -0.071107 -0.0747181 -0.0060034 0.021899 0.117693 -0.0567856 -0.0434128 -0.0435171 0.0613558 0.130464 0.0018371 -0.00784428 -0.0450898 -0.00986505 0.0649406 -0.052883 0.130381 0.0817373 0.0534828 -0.0229999 0.127775 -0.0458326 0.0164893 -0.0831415 0.0797849 0.105721 -0.10712 0.087388 -0.0844296 -0.0138468 -0.047512 -0.103931 -0.0754469 -0.0460131 0.0701137 -0.0608184 0.0880087 -0.03501 -0.0842278 0.0589105 -0.059528 0.1229 0.0748558 -0.000678976 0.109498 0.0293654 0.0254854 -0.011798 0.136641 0.122077 0.0492116 0.0210938 0.138864 0.113107 -0.0600551 -0.104475 0.0112981 0.034388 0.0867836 0.010656 -0.00321203 0.0871656 0.0876061 0.0843006 -0.107658 0.0120538 0.104941 -0.0332063 -0.0294886 0.12471 0.100085 0.120921 -0.0714086 0.125517 0.0371175 0.0919374 -0.0530435 -0.00333259 -0.0113914 0.0106173 0.137955 -0.0101962 -0.0419542 0.00830473 0.115168 0.094031 -0.0173159 -0.102176 -0.0190818 0.00804248 0.0162219 -0.0775444 0.104857 -0.00277813 0.110912 0.00206607 -0.0573338 -0.0274782 0.0924557 -0.000500165 -0.085622 -0.0493871 -0.0248011 0.0133459 -0.00891889 -0.0466517 -0.0188246 0.0366022 0.0905187 -0.0012704 0.0705306 0.0520526 0.0631927 0.10184 0.0863007 0.112141 0.101338 -0.00237377 0.115847 0.00324897 0.0456335 -0.0853597 0.117244 0.10634 0.0798476 0.0177346 0.0877748 -0.0522147 0.0499614 -0.079248 -0.0918019 -0.0599835 0.0592199 0.124771 0.117554 -0.042278 0.11021 0.127936 0.0251193 0.148693 -0.0308428 0.0829567 -0.0563857 0.0636254 -0.0381444 0.0530269 0.0518541 -0.0568274 0.0127219 0.0488788 0.0513653 0.0598368 0.0273083 -0.0729657 0.0680339 0.0018816 0.0790002 0.0756114 -0.0252131 0.120634 -0.0655801 -0.0625432 0.0674745 0.122718 0.076341 0.0921763 0.0302648 0.00271657 -0.0414647 0.00430749 0.0285979 0.101059 0.0550001 0.0727313 -0.000370489 -0.00273185 -0.021892 0.0520804 -0.0819484 0.0280814 -0.0476524 -0.0609168 0.0525977 0.0412353 -0.0150509 0.0787629 0.10269 -0.0943465 0.0462436 0.091467 0.0863928 0.0101449 -0.0533282 -0.0763237 0.0107925 -0.0542882 0.044343 0.0545872 0.124231 -0.0346341 0.0382683 -0.0266638 0.103262 0.0736547 -0.013877 -0.00243426 0.0942839 0.00128169 0.0964096 -0.0134503 0.0991839 -0.0564618 -0.0471941 0.0526451 -0.0690809 0.0857241 0.0294869 0.0307132 0.069176 0.0668976 0.0818326 0.0135791 0.00158873 0.0424805 0.0886882 -0.0699658 -0.0903219 0.0448236 0.113706 0.0198022 0.0265133 -0.0447336 0.146719 0.122023 -0.0338766 0.0649705 -0.0115507 -0.0664827 -0.0539513 0.0924451 0.0269169 -0.00249726 0.0773512 -0.0252892 0.0580512 -0.0827804 -0.138499 0.0461914 0.01875 0.0444794 -0.0436058 0.0931828 0.059961 0.106406 -0.0122924 -0.00911229 -0.0937121 -0.0163832 0.0323338 0.00662186 0.10802 -0.110878 -0.0156218 0.0567384 0.00427248 -0.0804751 -0.156722 -0.143271 -0.0545228 -0.119918 -0.131447 -0.106881 -0.140854 -0.0852742 -0.031545 -0.102794 -0.0904596 -0.0747099 -0.0591801 0.0211947 0.0059587 0.0176083 0.0998548 -0.0984901 0.0910878 0.0579818 -0.112845 0.019558 0.0048998 0.0549871 0.0635878 -0.0590783 -0.0555764 -0.0072373 -0.125531 -0.0947676 0.0588985 -0.125142 0.0566344 0.0389928 -0.0855066 -0.109311 -0.0871577 0.0317048 -0.107663 0.0536243 -0.0168986 -0.127745 -0.126406 -0.083458 0.101959 -0.0914639 -0.0586189 -0.000356678 0.0915566 -0.0116458 0.063816 0.00925972 0.00703735 0.0422625 0.0175543 0.0786312 0.0607808 0.0657895 0.0632929 -0.105943 -0.0619534 0.0301455 -0.119967 0.0500183 -0.0129494 -0.0534155 -0.0122814 0.00384503 -0.136963 0.00460362 -0.0440351 -0.121264 -0.00745928 0.00368735 -0.0364352 0.0963189 -0.0403926 0.118904 -0.0515994 0.110016 0.0432812 0.122115 0.0242551 0.0484746 0.115989 -0.0524452 0.0732924 0.0856576 0.0587901 -0.10003 -0.082383 0.0725386 0.0260106 -0.119522 0.0426679 0.0541253 0.063586 0.00242977 0.0042609 0.0982478 0.0130227 -0.111132 -0.0671459 0.107638 -0.0124319 0.129838 0.109408 0.148579 -0.0350655 -0.0454095 0.0630251 0.137672 0.0209666 -0.0625608 -0.0735636 -0.00574355 0.109414 -0.0323843 0.0256841 0.0253987 0.0790542 0.0723073 0.0107648 0.0419361 -0.0178073 -0.0657804 -0.0475677 0.0287111 -0.0947691 0.0627747 0.0757316 -0.00877481 0.0684426 0.0856762 0.02299 0.11421 0.0241778 0.0758537 -0.0559764 0.0493005 0.12589 -0.0477653 0.0598845 -0.00828762 -0.0295673 0.0555248 0.0670849 0.0713262 0.113538 0.106805 0.0773523 -0.0906262 0.087706 -0.0121886 0.00526198 -0.117887 0.0332174 -0.0425379 -0.11097 -0.0302258 0.0539121 0.0353329 0.0824113 -0.0440668 -0.0589567 -0.00564187 0.0278113 0.142011 0.146317 0.0107859 0.124765 -0.00871328 -0.0116549 -0.0495586 -0.0487364 -0.00796052 0.00591982 0.0439909 -0.0789656 -0.00881756 -0.0381274 0.091022 -0.0709793 -0.081911 -0.0114694 0.0126898 -0.0854895 -0.0387704 -0.0285966 -0.0961472 -0.042717 0.00659349 0.0391179 0.0137762 0.0589838 -0.0403715 -0.0129553 0.117985 -0.0155415 -0.0682761 -0.024483 -0.0369928 0.057881 0.135129 -0.0441418 0.0711239 -0.0607579 0.0792278 0.122016 0.108526 -0.0813332 -0.0539807 0.0705957 -0.0442445 0.100542 0.0510262 0.0821782 -0.0360034 -0.114521 0.0532052 -0.0826907 -0.0789037 0.0039189 -0.0703284 -0.0932566 -0.0134377 0.0631033 -0.0955409 0.0578368 0.0314441 -0.051213 -0.0950103 0.00819373 -0.0724909 0.0817634 -0.0710284 0.000217347 -0.0193877 0.11307 -0.0515707 0.095231 -0.0438548 -0.0129684 -0.093424 0.0586662 0.0801763 -0.0427791 0.00886301 0.0933782 0.0389234 -0.133213 -0.0307269 -0.0968862 0.0179553 -0.0834522 0.0578721 -0.0978623 0.0172453 -0.106511 -0.0576736 0.047586 0.0547853 0.0458851 0.0192487 0.0192996 -0.0252361 0.10487 -0.0103424 0.0751964 -0.0948396 0.105369 -0.0108519 -0.048643 -0.0826387 -0.00109641 -0.0873906 0.0708363 0.0297326 -0.032193 0.0449311 0.0359659 0.0630909 0.0580814 0.0405196 0.00318619 0.0689892 -0.0210148 -0.115641 -0.141759 -0.0188842 0.0452617 -0.00784143 0.0622796 -0.0372424 -0.0720276 0.0832283 0.0878396 -0.0376908 0.0191564 0.0192137 0.0303054 -0.0275196 -0.0468832 0.0426057 -0.0806521 0.0218495 -0.0416838 0.0891281 0.0140391 -0.127612 -0.116213 -0.0757812 -0.0615052 -0.0812214 0.074296 0.0282433 0.0132948 0.0331277 -0.0350963 -0.0438509 0.0324903 -0.0702183 -0.0481401 0.0737272 0.00305556 0.0136874 0.00843145 0.0956356 -0.023546 0.0908093 0.019536 0.115167 0.113307 0.106948 -0.0953037 0.000852353 -0.0434325 0.0792817 0.0564191 0.0591062 0.00735255 -0.147384 0.0728514 -0.0360907 -0.00936912 -0.0425893 -0.02898 -0.084159 0.0271347 0.0617127 -0.0642516 -0.0980119 0.0598085 0.0544184 -0.00678586 -0.0362979 0.0179522 0.0123821 0.128381 0.12392 0.0772019 0.00677788 -0.0469283 0.0273029 0.101227 0.110119 0.0585647 0.00941638 -0.0724833 0.0406714 -0.0881763 0.0141424 -0.100534 -0.003984 -0.032427 -0.100023 -0.125647 0.0587578 -0.0922642 -0.0371401 -0.156175 -0.0932332 0.0355959 -0.0748474 0.0795881 -0.112392 0.00211478 -0.00508958 0.143357 -0.0467095 0.0732232 0.121491 -0.0378846 -8.11244e-06 -0.0346144 0.104133 -0.0344608 0.0142545 -0.00342038 -0.0553069 0.0264965 -0.132361 0.0258909 -0.124743 -0.133932 -0.121038 -0.119452 -0.085231 0.0394539 -0.027654 -0.00479757 -0.11986 -0.113989 -0.0936062 -0.0338893 0.0416375 -0.0554882 -0.0311771 0.138453 0.032606 0.119549 0.0858556 0.0866978 0.114994 0.0928952 -0.0212501 0.0469131 -0.028007 -0.032688 0.00409249 -0.0121318 -0.0701598 0.068223 0.0334323 -0.00871062 0.042563 -0.0696489 -0.122398 -0.00847098 -0.0550234 -0.0436053 -0.0743905 0.0569304 0.0428622 -0.0382084 -0.0633714 -0.0596226 0.105919 0.00617916 0.0870765 -0.00622975 0.149105 0.0123797 0.109108 0.000914338 -0.0710643 0.132204 0.0981214 0.0513082 0.0390819 -0.0329046 0.0562377 -0.141478 -0.00510948 0.0182753 -0.0534875 0.0565518 0.0224178 0.0439766 0.0356836 -0.0279239 -0.108101 -0.12797 0.0206984 -0.00142831 -0.00590316 0.0358561 0.0793973 -0.0420593 0.0898808 0.172979 0.0578011 0.0363749 -0.0619876 0.00262628 0.0361027 0.0607001 0.10581 0.0271307 -0.0941189 0.0974454 0.0469095 0.0823422 -0.020513 -0.0438413 0.0401617 -0.0445164 -0.0634385 -0.097067 -0.0320205 -0.139786 -0.0939936 0.00772622 -0.077307 -0.107184 -0.105588 0.106166 -0.0551195 0.0796328 -0.0392256 0.0952925 0.130225 0.00471892 0.139752 0.132906 0.0247526 -0.0587384 0.0370211 0.088977 0.0853033 0.00569118 -0.102026 0.0400973 -0.00176644 0.0598835 0.0186765 0.0741776 -0.000485638 -0.0640077 0.0345829 -0.0341341 -0.0019253 -0.0689897 -0.117008 -0.121212 -0.0984928 0.059399 -0.0378853 0.0653123 0.0784922 2.5757e-05 -0.0599125 0.0707018 0.133696 0.0141065 -0.0279988 0.0479815 0.123407 0.0932259 0.0693173 0.0439066 -0.0504055 -0.107472 -0.0977116 0.0535046 -0.113905 -0.0586342 -0.120605 0.0252877 0.0081907 0.018205 -0.0410701 0.0426211 -0.0697303 0.0638091 0.0263197 -0.0739881 0.0568174 0.0825327 0.0457331 -0.00642961 0.0287292 -0.0926724 0.0895979 -0.0606021 0.107944 0.106111 0.0443396 0.0521624 -0.0891939 0.0227913 -0.0320084 0.0858877 -0.0289628 -0.130712 0.0487211 -0.115719 -0.14527 0.0108983 -0.0888934 -0.0176627 -0.0118779 -0.0753894 0.0264198 -0.0149111 -0.0403241 -0.109478 -0.0613484 0.102603 -0.0550054 0.0865862 0.00108505 0.0949637 0.0271787 0.0326321 0.0340029 -0.0576531 0.0518781 -0.056363 -0.0465907 0.0506109 -0.0494078 0.013406 -0.0825363 0.0664171 0.0456244 0.0474658 -0.059588 -0.0694867 -0.042686 -0.104074 -0.150806 0.00870317 0.0503547 0.0706024 -0.127878 -0.0210841 0.0808705 0.00163715 -0.0483374 0.0710883 0.0388949 -0.104769 0.0277708 0.0119574 0.00431219 -0.0336284 -0.0916745 -0.0201527 0.0892351 -0.00612723 0.0734485 -0.0623989 -0.112369 -0.0725369 -0.0502256 -0.0170573 -0.122172 -0.0460652 0.00669115 -0.158714 -0.0528364 0.0364921 -0.0985435 -0.121105 -0.0528209 0.0531912 0.0198298 -0.0412699 -0.0684331 0.106672 0.0580389 -0.10023 -0.0390587 -0.00463805 -0.0258915 0.00739229 -0.0262204 0.0670667 0.0557085 -0.00986574 0.047627 -0.102114 -0.0308567 -0.0141237 -0.0734287 0.0267454 0.0410752 0.00443177 -0.0444403 -0.0728406 -0.0568223 -0.00186466 0.031642 -0.110122 -0.00778955 -0.11792 -0.0652156 -0.0862393 0.0554943 0.032041 0.0201816 0.0261601 0.0611013 0.0245493 -0.094067 0.112573 0.103079 0.0489031 0.091001 -0.0911569 -0.089099 -0.10511 -0.0704003 0.0246878 0.0546268 0.0512848 -0.0593563 -0.0552503 -0.0423242 -0.0271128 -0.0638198 0.0232912 -0.0506974 0.0979586 -0.102929 -0.0426241 0.0734474 -0.0117821 -0.0482644 -0.00420008 0.0218625 -0.0896767 0.0173465 -0.0625838 0.025209 0.0457527 -0.0370036 -0.00575613 -0.0465469 -0.0529625 -0.100754 -0.0685269 0.0952154 0.102877 0.0578329 -0.0248267 -0.0992896 0.000635277 -0.125225 -0.0262263 0.0729804 -0.023519 0.073786 0.0343537 0.0713996 -0.0379027 -0.0343162 0.0284976 -0.0340227 0.0643922 0.0228872 0.00693894 0.0701494 0.0905483 0.0036129 0.0911511 -0.0827742 0.085263 -0.0385745 -0.0944144 -0.0414415 -0.0679952 -0.0797581 0.0355774 -0.0769854 -0.00626506 0.0530366 0.0831097 -0.00812357 0.0721649 0.105581 0.00633515 0.0475108 0.0687671 0.0806076 0.128413 0.117035 -0.0309925 0.0206111 -0.0796779 -0.00506694 0.102164 -0.0426344 -0.0661347 0.0950318 0.01227 -0.0576336 -0.115649 0.0474795 0.073162 -0.0410817 -0.025102 0.112536 0.0549986 -0.0140606 -0.0116981 -0.11073 -0.120891 0.0686631 0.0326282 -0.0141517 0.0942096 0.114837 0.0856238 0.0762708 -0.0317655 0.131501 0.043639 0.0655094 0.00443302 -0.0847054 0.0480679 0.0358634 -0.0927013 -0.0737665 0.0474165 -0.0582042 0.00878529 0.0156879 -0.0381258 0.0918525 0.0866973 0.0709385 -0.0264583 -0.0327424 0.0665631 -0.0382729 0.088574 -0.0903639 0.0942648 -0.0133021 0.0368599 0.0349881 0.0951474 0.13319 0.0897498 -0.0784209 -0.0394287 -0.0240022 -0.0731607 0.0367338 0.0410403 0.00335123 -0.07165 0.0528567 0.0115899 0.0142106 0.06271 -0.0715732 -0.031495 0.00450487 -0.00404743 0.0648322 -0.0167952 0.0993163 -0.0855275 -0.0545677 0.0580295 -0.0516572 0.0920508 0.122671 -0.0827895 -0.0311496 0.134364 -0.0444197 0.070262 0.025058 0.119026 0.011333 -0.0278695 0.0601413 0.056434 -0.063077 -0.110649 0.00893484 0.0334583 0.0280696 0.0662876 0.0849371 -0.0218357 0.047089 0.0173976 0.0403826 -0.0633451 0.0635977 -0.0643699 0.0233131 0.0490747 0.0732477 0.129828 0.03423 0.00753589 0.00511337 0.0739188 0.0202351 0.0871997 -0.0335101 -0.0541464 -0.114776 0.0825269 -0.0767703 -0.0930006 0.0519408 0.0849334 0.134818 0.0848869 -0.01142 0.078531 -0.0342257 0.114265 0.121431 0.00836548 0.0219262 0.139452 -0.012753 0.132067 -0.0670954 0.0208036 -0.0216924 -0.0843401 -0.0255739 -0.0502719 -0.000533907 -0.0248103 -0.0712458 0.0333388 -0.10056 -0.118258 -0.0558103 0.0375361 0.0731881 0.00319577 0.0815862 0.0490078 0.00274456 0.08286 0.145598 -0.0639816 -0.0596697 0.0473528 0.088125 0.080497 0.0209183 0.0901149 0.0220698 0.124618 0.025789 -0.076584 -0.00601841 -0.0291582 0.0547183 -0.0921685 0.0312936 0.0736905 0.061815 -0.0891197 -0.0419312 0.00965466 -0.0685239 -0.0148785 0.0057037 0.0842461 -0.0712462 -0.0261458 0.107992 -0.0587182 0.116527 0.102366 0.0306017 0.0848699 0.0284897 0.0310126 0.00560459 -0.00856993 -0.078345 0.0149316 -0.0392314 0.0455704 0.0416622 0.0123729 -0.00736099 -0.0628945 0.0061883 -0.0275939 -0.0546721 0.0737517 0.00897049 -0.063547 0.0110002 0.0754702 -0.0233368 -0.103368 0.0948885 0.014109 -0.0124491 0.0434971 0.00449496 0.0354573 0.00734113 0.14475 -0.0416677 0.125444 0.0947837 -0.0914472 0.0699953 -0.0678628 0.0501305 0.0461184 0.0876045 -0.0295167 -0.0661446 -0.0615951 -0.101225 -0.0202297 -0.0407401 -0.000554909 -0.11637 -0.0346395 -0.0919838 0.0891311 0.0560966 -0.0860172 0.120824 -0.05148 0.0209858 0.0727182 0.0880538 0.0964276 0.0187012 0.0375516 -0.00267918 -0.0110444 -0.0197144 0.105332 -0.0111703 -0.105778 -0.0524652 -0.073332 -0.000265677 -0.0527493 -0.0807426 -0.00783874 -0.104601 0.0674173 0.0588638 0.0207961 -0.049431 -0.0100258 0.0924834 -0.110428 0.023577 -0.0532968 -0.0077257 0.0404847 0.0466746 -0.00321445 -0.0684631 0.0131935 0.0769795 0.00113774 0.115072 -0.0279826 -0.0841034 0.0424296 0.105394 0.0610345 -0.0751122 -0.0885949 -0.0986247 0.0349257 0.0118071 0.014023 0.00906419 0.0964075 0.0759069 0.0675042 -0.128097 -0.114775 -0.0329841 -0.0128671 0.0760527 -0.0836845 0.0675085 0.0595406 0.0163533 0.0185502 0.0301562 0.129488 0.0618193 0.0271417 0.0994624 0.0825666 -0.0260143 0.121872 -0.026867 0.0671348 -0.0960908 -0.0794568 0.0538971 -0.0478786 -0.0990597 0.088386 0.0197293 -0.0748574 0.0920867 -0.0797021 -0.0495116 0.0284495 -0.0549936 0.016537 0.111112 0.0945862 0.0364817 0.117184 0.0126441 -0.00338248 0.14055 0.0514508 0.0608918 -0.0641882 -0.0162239 0.0130989 0.138062 -0.0765733 0.111332 -0.0410304 -0.102597 0.0421402 0.111734 0.00694013 -0.0171815 -0.0365492 0.0141421 -0.019562 0.116764 -0.0681931 -0.0880454 -0.0850445 0.102593 0.0930481 0.0560149 0.0590756 0.0243941 0.0677177 -0.0269441 0.115232 0.056417 0.13873 0.00228145 -0.0548232 0.0542072 0.0765474 -0.0329127 0.105251 -0.0392315 -0.0150816 -0.0955061 0.00207454 -0.0121287 0.0780026 0.0707745 0.0136874 -0.0421039 0.0158324 0.0709396 0.111601 0.112458 0.117508 -0.08424 0.122479 0.0739781 0.0791236 -0.110366 -0.0737729 -0.0456258 0.0573278 0.0661921 0.0720738 -0.0508542 0.0414572 0.0140008 0.103 -0.0186963 0.0629622 -0.0569115 0.0436452 -0.119714 0.088657 0.0697601 0.0179961 -0.082192 0.0144671 -0.0372533 -0.00142377 -0.0552614 0.0736715 0.105733 -0.0837086 0.0304611 0.0359863 0.073034 -0.0943676 -0.0619471 0.0285785 0.0661526 0.0693318 0.011706 -0.0214263 0.0907439 0.0871069 -0.0442756 -0.0820138 -0.0810406 -0.0279832 -0.0576951 -0.00530522 0.0714266 -0.0210998 0.0488017 -0.0889662 0.0526079 -0.0844689 -0.0269133 0.0818417 -0.0557382 0.0987137 -0.0612322 -0.0556667 -0.0143082 0.0242328 0.063751 0.0727491 -0.0465503 -0.109138 -0.0176905 0.0516187 0.00170594 -0.0149085 0.011268 -0.0597478 0.012902 0.0843215 -0.0927752 0.119381 0.0451576 0.0656818 0.0480534 -0.0459731 0.0739667 0.0848553 0.0321869 0.0124614 -0.0985371 0.0235339 0.117471 0.0800248 -0.0910041 -0.106091 0.0277462 -0.0917493 0.0391518 -0.040229 -0.0555313 0.0351917 -0.0645636 0.0910446 0.137005 0.0487918 0.0902327 0.0310226 0.0795898 0.0233567 0.0213448 0.0775115 0.105219 -0.0843621 0.0489643 0.030018 0.0796546 -0.0228576 0.00216461 -0.104199 0.00327808 -0.0635863 0.0564053 -0.0367074 -0.057189 -0.0105073 -0.0101815 0.0195798 0.0236352 0.0388866 -0.0789055 0.0338035 0.00322407 -0.0378319 -0.0507007 -0.0317155 0.0417705 0.00198506 -0.0177343 -0.0496184 0.0663352 -0.0533956 0.0802766 -0.0599891 -0.0186844 -0.00305976 0.0514785 0.0539791 -0.039188 0.0810931 0.0393996 -0.00984746 0.0585618 -0.0620235 0.0836058 -0.0261949 -0.0308984 0.00496068 0.0585671 -0.0477663 -0.124151 -0.0215802 -0.062142 -0.0461317 0.0490793 0.0829664 -0.0670058 0.023964 0.0353603 0.00648447 0.114665 0.0986829 -0.0166585 -0.0651068 0.0250022 0.0690005 -0.128371 -0.0416103 -0.0807899 -0.0306146 -0.103722 -0.0630468 -0.0755737 -0.0269147 0.0606616 -0.0688433 -0.0840525 0.0278582 0.0448711 -0.00165596 -0.0234204 0.0739678 -0.0139948 -0.0690129 0.102562 -0.0393026 0.0796774 -0.0702458 0.114054 0.00815565 0.0739435 0.0263889 0.0958357 -0.0866366 -0.118121 -0.1168 -0.128899 -0.0138111 -0.0363006 0.0546619 -0.0134644 -0.00776442 -0.125991 -0.122831 -0.0381344 0.0778804 0.0658987 -0.0530249 -0.0888703 -0.119963 0.00700055 0.0194347 0.0247622 0.0840318 0.0992978 -0.0334764 0.0313748 0.0699392 -0.0777903 -0.0713511 0.108907 0.0194035 0.0334545 0.0424095 -0.0677254 -0.076493 0.0777272 0.0610818 0.0405283 -0.0401222 0.00407412 -0.10415 -0.00616621 -0.0753311 -0.12099 0.0577434 -0.0994766 0.0689273 -0.137389 0.0534895 -0.0217296 0.0458966 -0.013136 -0.0981668 0.00765404 0.12276 -0.0956755 -0.0788212 0.0176532 -0.0605763 -0.0400638 0.084981 0.0576386 -0.0682751 0.0347364 -0.0571822 0.0176315 -0.0533852 0.0262031 -0.0166225 0.00628873 -0.0395484 -0.105431 -0.0421231 -0.100156 0.0285838 -0.0427069 0.0494494 0.0215978 0.082898 0.0102213 -0.105535 -0.10779 0.0140354 -0.0898803 -0.09612 0.0979872 0.0573187 -0.0148179 0.0774855 -0.0431268 -0.00627427 0.0355725 -0.0925372 0.0643862 0.0454419 0.029142 0.102076 -0.0779943 -0.0558031 0.00861206 0.0247825 -0.016207 -0.0996323 -0.0991431 0.0236463 0.0689365 -0.062643 -0.139669 -0.022974 -0.12353 -0.0509271 -0.0602027 0.0134823 -0.0766564 0.0988882 -0.0903766 0.0142926 -0.00740424 -0.0514276 -0.0650204 0.0880433 -0.063372 -0.0863379 0.00993762 -0.0310102 -0.0381097 0.0540017 -0.0635369 -0.0591326 -0.00852157 0.0459036 0.0170659 0.0862767 0.0608609 -0.0745243 0.061311 -0.0770989 -0.0931167 -0.00107775 0.0395182 -0.0735475 0.0765681 0.0522424 0.0461998 -0.0870118 -0.0043779 0.0578803 0.0819443 0.0339141 0.0932702 -0.0591952 -0.0288669 0.0631911 0.044181 -0.0505837 -0.0719193 0.0470345 0.134757 -0.0361774 0.109952 0.116146 -0.0351746 -0.0264089 0.0202464 -0.0330034 -0.0118997 -0.0260006 -0.0685887 0.0257617 -0.0260545 -0.0731799 0.0943352 0.0409231 -0.0209589 0.0232555 -0.0967724 0.0674465 0.111875 0.0204257 0.0754743 0.0670445 0.112055 0.0351306 0.0888901 -0.095474 -0.0160047 0.0547108 -0.077559 0.126373 0.0750949 0.125463 0.0767516 0.122649 0.123882 0.00609358 -0.068929 0.0813591 0.0619644 -0.0381858 -0.101839 -0.036217 0.0700613 -0.056445 -0.01846 -0.0976116 -0.0053344 -0.0898496 -0.0685714 -0.057367 0.0202901 0.0620786 0.0669755 -0.0736235 0.0681171 -0.0244925 0.0845123 -0.0792183 -0.0472531 -0.0172837 0.0374546 0.0526232 -0.00343637 -0.0898256 -0.0952939 0.0375327 -0.108931 0.0467464 0.0484943 -0.022913 -0.0969777 0.0451918 -0.0117245 0.0315214 -0.0921315 0.0120183 0.078323 0.0762683 -0.00727994 -0.02927 0.102852 0.0548577 -0.0301553 0.0315467 -0.0708303 -0.0594678 0.0445928 0.100488 0.0252208 -0.104137 0.0232763 -0.0767728 0.0213616 -0.0665184 0.00531704 -0.0424095 -0.115783 -0.103167 0.0142582 -0.0894737 -0.127301 -0.0236536 -0.0213233 -0.0398925 -0.11365 0.0647367 0.0137753 -0.0342564 0.101352 -0.0764 0.0656406 0.0465972 0.0293008 0.08796 0.0596753 -0.0355113 0.042268 0.0699448 -0.0742769 -0.00437957 0.0105298 -0.0728399 -0.0443463 0.0077785 0.0563711 0.063001 -0.00464374 0.0612046 0.039283 0.0240476 -0.0261188 -0.116054 -0.0922598 0.01451 -0.0209505 0.0310906 -0.128085 0.0532837 0.0230157 -0.0181394 0.0876881 -0.0706928 -0.126463 0.0748755 -0.12471 -0.0130921 0.0143224 0.0661221 0.00785182 -0.0266515 -0.144161 0.081783 0.0508596 -0.00706315 0.0776589 -0.0252395 -0.0297963 -0.0962016 0.0197078 -0.108436 -0.0567953 -0.0751053 0.0238714 -0.0611318 -0.132072 0.064997 0.0319147 -0.00669352 0.0076202 -0.0523197 -0.111268 -0.110532 -0.0835361 -0.0932014 -0.0292564 -0.00201927 0.0335906 0.000957462 -0.109021 -0.0560943 0.0577266 0.073209 -0.0508864 -0.0469286 0.0704256 -0.0896689 -0.0186059 -0.0288261 -0.0846057 -0.162201 0.0211571 -0.151233 -0.0932969 -0.0661346 -0.0544201 -0.148436 0.0649744 -0.0689231 0.0814239 0.0363905 0.00518209 -0.0816783 0.0661782 -0.0631488 -0.135734 -0.0319372 -0.0883956 0.0601456 -0.120659 -0.135418 -0.017821 -0.0760073 -0.086017 0.123304 -0.0206531 0.0898104 -0.0831724 -0.0916348 0.0134576 -0.122223 0.0204759 -0.103966 0.0603946 -0.10154 -0.111564 -0.12571 -0.121984 0.0713839 -0.0229455 -0.00232997 -0.0354054 0.0916945 0.0741062 0.0164262 0.0325594 0.0644071 -0.0737625 -0.150763 -0.0787477 -0.108365 0.00954795 0.111128 0.0293259 -0.0875995 -0.0459857 -0.0163653 0.0564688 -0.0414823 -0.0405535 -0.00164391 -0.0714007 -0.0808422 -0.0850652 0.0121801 -0.130435 -0.0886498 -0.100319 0.0304537 -0.0959167 0.0049602 -0.028859 0.0475538 -0.086605 -0.0160152 0.025506 -0.132101 -0.0336951 0.0110324 -0.0830227 -0.00312678 -0.0932132 -0.0212735 0.0539791 0.048095 -0.101184 0.0538743 -0.0677587 -0.0460662 -0.0837288 0.0622998 0.0677009 -0.0899398 -0.0563166 0.017031 -0.0385677 -0.132201 -0.0516988 -0.106599 -0.0478323 -0.100571 -0.107211 -0.0071713 0.0690865 -0.121288 0.00381746 0.0211232 -0.0379078 -0.028977 -0.0117136 -0.0156402 0.0378032 -0.0561685 -0.114063 0.00777664 -0.00662894 0.0428865 -0.123194 -0.0690616 -0.077809 -0.086126 -0.0976375 -0.028924 0.0849466 0.00711463 0.0732679 0.0308054 -0.00855718 -0.0930282 -0.122952 -0.00622201 0.0541658 -0.127451 0.00603891 -0.0313381 -0.0284444 -0.0264703 -0.0871486 -0.0632318 -0.0751755 0.0720338 -0.073814 0.0677704 0.0191847 -0.0921092 0.102979 0.0930721 -0.0963075 -0.00666122 -0.0409903 -0.130711 -0.0124946 0.0263016 0.0747864 -0.0771777 0.00561952 -0.0353986 -0.0195466 -0.0790022 -0.0136512 -0.147265 -0.148891 -0.112808 -0.13685 -0.00303593 -0.0217553 0.0159066 -0.100332 -0.0396477 0.111371 0.0374761 0.087805 -0.0428364 -0.082199 -0.083844 0.0629268 -0.104806 -0.0664443 -0.106224 0.0504112 0.0301229 -0.0797205 -0.0871346 -0.0972571 -0.134838 0.0415314 -0.114103 -0.0188562 -0.123149 -0.0716027 -0.108307 -0.00627018 -0.115512 0.0326579 0.0868957 -0.0100056 0.0971333 0.108801 0.066154 -0.0313848 0.00736817 0.11033 -0.0792586 0.0508952 -0.0989487 0.0803718 0.000289912 -0.037133 0.00682156 0.00835117 0.0302342 0.0602152 -0.117766 -0.098266 -0.0306619 0.0122716 0.0442541 0.0224246 -0.0222302 0.0286986 -0.131781 -0.0636809 0.0206905 -0.0287856 -0.10046 -0.0526821 0.0847199 0.0530441 0.0148975 0.116369 -0.0473546 -0.0312227 0.0890993 -0.0942472 0.0718924 0.0714749 -0.106391 -0.114267 -0.0111715 -0.101151 -0.0284525 -0.0352846 0.0416452 0.0789472 -0.0648654 -0.0539977 -0.0635923 0.0553416 -0.0838743 -0.0389408 -0.142945 -0.0862306 0.0577967 0.0952955 0.0562175 -0.0985672 -0.0316174 -0.0071676 0.0212156 0.0455124 -0.0602856 -0.0113242 0.114014 0.0865349 0.0973673 -0.0180989 -0.042846 -0.0309173 0.0508034 -0.0980986 -0.0962161 0.055017 0.0814748 -0.117634 -0.0308695 -0.0708366 -0.00880207 -0.0459372 0.10353 0.0244602 0.0444632 0.0505922 -0.0676346 -0.0406861 0.0596736 -0.0527397 0.0329288 -0.0463926 -0.0706395 -0.0739982 0.0539385 -0.0810799 -0.0336021 0.000605786 -0.0859656 0.00998305 -0.0603449 0.0219015 -0.0386039 0.0423997 -0.0112454 0.0752002 0.0696021 0.062182 -0.0335207 -0.0753203 -0.00693679 -0.0804751 -0.0506766 0.0463658 0.0683785 0.013802 0.00920384 0.0916848 -0.0678513 -0.0432145 -0.0747829 0.0693518 0.0919539 0.0603714 -0.0127232 -0.0569574 -0.032972 0.0694769 -0.0132021 -0.114569 -0.102762 -0.107248 -0.124712 -0.0943024 -0.00433815 -0.0667261 -0.0721334 -0.00760733 0.0386963 -0.0820278 0.0720434 -0.0297821 0.003231 -0.115166 0.0784177 0.085927 -0.103626 0.0993172 -0.0214221 -0.0650713 -0.0869281 -0.039861 -0.0359655 0.0700049 -0.10132 0.0267788 -0.0104276 -0.109886 -0.0143655 0.00116944 0.0290625 -0.0976467 0.0770206 -0.0746248 -0.108426 0.0561839 0.0968317 -0.043595 0.0217413 0.052073 -0.0171138 -0.0429927 -0.0734897 -0.0747769 -0.0499745 0.0655404 0.0251806 -0.109822 -0.0601695 0.0219401 -0.0626705 0.0784638 -0.107442 0.043329 -0.0806722 0.0863624 0.058233 -0.066296 0.0313678 0.0724918 -0.0599858 -0.0278528 0.0602366 -0.0861093 -0.0456588 -0.0421803 -0.0146736 0.0654873 -0.114978 0.00422517 0.0676281 -0.0968244 0.000223732 0.0102317 -0.00422583 0.0414715 -0.122396 -0.00173171 0.0539415 -0.0987584 0.00077001 -0.090004 -0.0808751 -0.0514025 0.0907794 0.0462471 0.0506885 0.104185 -0.0990227 -0.0217546 0.080757 0.00200306 -0.0124968 -0.033975 0.0637223 -0.11154 0.0314426 0.0308356 -0.0229766 -0.00542284 0.055004 -0.00910936 -0.0736734 -0.0580716 0.0168635 0.00561372 0.0407204 -0.0609583 -0.00252005 0.00763804 0.0533428 -0.128132 0.0742237 -0.0217027 -0.0651236 -0.10489 -0.0260683 0.055741 0.0505429 0.0918568 0.0318825 0.0131186 -0.0753201 -0.0283614 -0.0719619 -0.0470555 0.0522705 0.0189589 0.0354093 -0.117665 0.0457573 0.102463 -0.0243379 0.0380731 0.0695668 0.0636151 -0.0751548 0.0304581 -0.103055 0.06737 0.0375951 -0.00431194 0.021692 0.037245 0.0551545 -0.0850735 0.0382719 0.0107267 -0.0860192 -0.0396909 -0.0429675 -0.105883 -0.0708923 0.0304583 0.0399141 -0.100681 -0.031726 0.0804522 0.0208841 -0.0267497 -0.060618 -0.0922913 0.0966187 -0.0929934 -0.0509196 -0.0945363 -0.00360921 -0.112892 -0.0734473 -0.132195 -0.0438714 -0.0735333 0.0658782 0.022304 0.0768121 0.0330716 -0.0840321 -0.0284428 0.00246042 -0.0579264 0.0140581 -0.0493379 0.0159953 -0.0117636 -0.00379691 0.114446 0.0488358 0.0182228 0.0459258 0.0112254 0.0321834 -0.0097782 -0.0403191 0.073532 0.0577092 0.0436301 0.0820284 -0.0553907 0.0247518 0.0682574 0.00363975 -0.0256087 -0.0776126 0.0902762 0.045638 -0.000309031 0.0980229 0.0907638 -0.0789037 0.0676506 0.0502521 0.105583 0.0430268 0.129775 0.123665 0.0848463 0.10406 -0.00328703 -0.0259438 0.111034 0.0450254 -0.0757347 0.0822346 -0.0620942 -0.104129 -0.110209 -0.0557248 -0.0120662 0.0969084 -0.0708232 -0.122303 0.0587359 0.0207897 -0.0330748 -0.0450061 -0.0548236 0.119005 -0.0641453 0.0331336 0.1102 0.0436935 0.131 0.088102 0.140338 0.0181397 0.142754 0.0904345 0.00584454 0.0712602 -0.048677 0.0571257 0.0507864 0.105496 0.0682768 -0.108663 0.0660459 0.013758 -0.0268802 0.0445984 0.0390939 -0.0541182 -0.107564 -0.0468073 -0.00350848 0.0357165 0.0484961 0.122785 0.0960671 0.0946772 -0.0247663 0.140821 0.139388 0.142506 -0.0571699 0.147305 -0.0274932 0.0562596 -0.0568141 0.0215009 0.0373995 0.0908833 1.47308e-06 0.130435 0.110227 0.0247508 0.0153349 -0.0362434 0.117003 -0.0493481 -0.0578931 0.123359 0.0553411 0.0457862 -0.0477415 0.0760982 0.0668771 -0.0222255 0.120398 0.109391 0.0486114 -0.0222858 0.0308266 0.113339 0.055936 0.117518 0.0698346 0.0271609 -0.0159985 0.0348821 -0.0380618 -0.0295905 0.0689433 0.0779157 -0.0285193 0.0123988 0.039282 0.0059101 -0.00751604 0.0243553 0.108854 0.110277 0.0735409 -0.0345189 0.0578628 0.122832 -0.0191883 -0.0732215 0.0301292 0.100457 0.0549062 -0.00325619 0.0321702 0.113897 -0.0413182 0.0457867 0.0388897 0.0172485 0.0905979 0.0852735 -0.0341904 0.0713923 -0.084132 0.0311065 0.101438 0.0618917 0.053839 0.0374905 0.127565 -0.0326879 0.101073 0.0865977 0.110642 0.0797923 0.0444439 0.0590303 0.0594217 0.128309 0.0609395 0.0928938 0.0139427 -0.0793518 0.0558463 0.0180135 -0.0461059 -0.0156809 0.041003 0.0577564 0.0946677 0.016011 -0.0344959 0.058504 0.038655 0.0355293 0.0545894 -0.026094 0.0246346 -0.0553737 -0.0537298 0.0525099 0.0835509 0.0760839 -0.0704555 -0.0286069 -0.0462155 0.084019 0.0452156 0.084313 -0.0195276 -0.027837 0.132824 -0.0459016 0.0605662 0.119904 -0.0218964 -0.0254347 -0.0564859 0.131726 0.0399493 0.0362108 -0.0948596 0.0921791 0.0948612 0.111481 -0.0518411 0.0748566 0.0324121 0.04223 0.103029 0.096492 0.110559 -0.0664985 -0.0222741 0.138266 0.0452364 0.0772175 -0.0102497 0.0634276 -0.0635294 0.0483234 0.0187812 0.106912 0.0297003 -0.085814 -0.0644474 -0.0442399 0.112832 -0.0169065 -0.0725842 -0.0621401 0.0384497 0.0928124 0.0922155 -0.0261553 0.0202701 0.0356562 -0.0733329 -0.0444593 0.0999333 0.0644785 -0.0369562 -0.0546629 0.0217038 0.00686462 -0.0481309 -0.0508947 -0.0273355 -0.0985592 0.107331 0.0312078 -0.00532876 0.0250804 0.0966733 -0.0746427 -0.0538348 0.061429 0.0247423 -0.0352449 0.096551 0.0977869 -0.0195137 -0.0927445 0.0796032 -0.0679235 0.0678799 -0.0598872 0.010768 -0.0524671 0.0779244 -0.0231977 0.117321 -0.0691303 -0.0101454 -0.0458621 0.0553533 0.0730993 0.0550604 0.012866 0.101283 -0.0701638 0.00355676 0.00104383 0.0095617 0.0330215 0.0453939 0.015714 -0.0161836 0.0616407 -0.0350855 -0.0239582 -0.0249326 0.00293139 0.0163469 0.0697765 0.0582195 0.00747359 0.110545 0.0933879 0.0944516 -0.0473148 -0.00292495 0.114762 -0.0389437 -0.0161009 0.0790466 -0.0474657 0.0425794 0.0149625 0.010548 0.0616528 0.0796234 0.0668014 0.116793 -0.0616877 -0.0871876 0.0897502 -0.0885682 0.0511138 0.0161952 0.0259249 0.00455916 -0.0696418 -0.00131977 -0.117817 0.0965479 -0.0212254 0.0155373 -0.0182339 -0.0303175 -0.0414802 -0.0611302 0.0644605 -0.0706449 0.0698319 -0.115948 0.0890212 -0.0133761 0.0493212 -0.0262388 0.0248547 -0.0475491 -0.0541118 -0.0229107 0.0688738 -0.0271066 0.10287 0.112286 -0.0681896 0.0804526 -0.0715671 -0.121621 0.0282378 -0.0580458 -0.0397819 -0.0359576 0.0629804 0.0673356 -0.0632828 -0.0487218 0.0696606 0.0480086 -0.0572582 0.0350224 0.0515861 0.0242648 0.00253829 -0.117229 -0.0310513 0.0686291 0.0466044 0.0752308 0.0247755 0.0389187 -0.0962814 0.0831154 0.0775187 -0.0988184 -0.0175654 -0.0392337 0.046352 0.074413 0.0562885 -0.0880956 -0.0491424 0.0972744 0.038355 -0.0632723 0.0917272 -0.113937 0.0614495 -0.108674 -0.0554122 0.049573 -0.0219121 -0.110288 0.0135365 -0.0139589 0.0138157 -0.0995911 -0.0889365 -0.0691497 0.0635735 0.0156932 0.11366 -0.0424722 0.111878 -0.110758 -0.00112344 0.0508086 -0.108493 0.0747755 0.0677108 0.0312276 0.0515375 -0.0128411 0.0483098 0.0627855 -0.0022566 -0.0897294 0.0976719 -0.0770799 -0.0408136 -0.0375528 0.080497 -0.0209689 0.0211556 0.0242282 -0.0356443 0.0525728 0.0985362 0.0406274 0.100906 0.072229 0.0546395 -0.00791406 0.0179887 0.0623116 0.0441885 -0.0143015 -0.0664314 -0.0202305 -0.0248113 -0.0511427 0.0393187 -0.0830241 0.0644861 0.0189644 0.0155206 -0.117683 0.0116681 0.0515811 0.0925492 0.080479 -0.112579 -0.0182716 0.0504505 -0.073593 -0.0473532 0.0219874 -0.00886444 0.0740286 -0.0452895 0.0336187 -0.0877423 0.0213679 0.125467 -0.0143851 0.12281 -0.0303988 0.105873 0.112833 0.123957 0.0298808 0.0657196 0.0570055 -0.0302564 -0.0456797 -0.030096 0.0423465 0.086271 0.085898 -0.0326456 -0.113133 0.0803529 -0.0369418 0.00625298 0.00681052 -0.0162841 0.0926121 0.0398779 0.0954513 0.0321248 -0.0735909 0.029809 0.0807459 0.107661 -0.0813788 -0.0609852 0.0302435 -0.0639849 -0.0194231 0.0675944 -0.0571934 0.0742632 0.0204408 0.0629067 0.0794525 0.081223 0.0817143 0.0278805 -0.0310021 -0.0468156 0.079673 -0.0699624 -0.0189026 0.0979511 0.0363667 -0.0343138 0.0253553 0.0351922 0.0989158 -0.093278 -0.0888199 0.0692235 0.0897606 -0.0193031 0.0491665 0.130292 0.0598857 -0.019517 0.0197844 0.0575532 -0.0834307 -0.0135746 -0.00971897 0.0726213 -0.100117 -0.0914689 -0.119036 -0.0932106 -0.0536738 -0.034359 -0.0573727 -0.0974255 0.0829114 -0.0114667 -0.0227886 -0.0177949 -0.0502141 -0.028899 0.107622 0.0999884 -0.00196385 -0.0443756 -0.0077299 0.016354 -0.02462 0.0702083 -0.0653518 -0.0565106 0.0588638 0.068646 0.111406 0.0473458 0.068588 -0.0242728 0.0608821 -0.080029 0.102499 0.0178996 0.0173435 -0.014821 0.0985931 0.00771844 0.0968968 0.0635032 -0.0439953 0.0787329 0.0363449 0.0316916 -0.0640031 0.0593505 0.11016 0.0875255 -0.0773834 0.104598 0.00365852 -0.0880391 0.118737 0.072215 0.00646823 0.127691 0.0311553 0.0713039 -0.0894816 0.0644677 -0.11079 -0.0537653 -0.11014 0.00418589 -0.00222053 0.124319 0.0218133 0.126281 0.0711956 -0.00339941 -0.0356636 0.00281017 0.111608 0.0465981 -0.0862479 -0.0870307 0.0489923 -0.0595907 0.0327654 -0.0357293 0.0884484 -0.0472148 -0.0619662 0.0641828 0.00648304 -0.0811677 0.100896 0.0850753 0.0427644 -0.101103 -0.0241627 0.0961935 0.10851 0.0841127 -0.0472408 -0.0691671 0.0372396 -0.00345374 -0.00301047 0.0482843 0.0523055 0.0155452 0.0758181 -0.0358233 -0.0433682 -0.0568824 -0.0329993 0.0475362 -0.0193351 0.0610354 -0.13071 -0.0899554 0.0701059 -0.0834914 0.0114066 -0.0678709 -0.0939592 -0.0975191 0.0266471 0.0495885 -0.0993327 0.0388185 0.118911 -0.0642014 -0.0511041 0.100498 -0.0359046 -0.00825097 0.14171 0.0334095 0.0757617 0.0535259 0.099708 0.00278643 0.108784 -0.0504199 -0.0887097 -0.117847 -0.138268 -0.0325437 -0.0364545 -0.114308 -0.115078 -0.165561 -0.137475 -0.0672133 0.0299739 0.0650375 0.0348694 -0.0742945 0.0630044 0.0333043 -0.0723591 -0.0320067 0.0844274 0.115182 0.121557 -0.0126793 0.12145 0.107712 0.0613114 -0.0299797 0.12764 0.0227365 0.104184 0.0110472 -0.11817 -0.0117689 -0.028466 -0.049099 -0.153902 -0.14745 -0.114335 -0.104714 0.0168624 -0.0999269 -0.0240572 0.0487917 -0.121597 -0.0156297 0.0397435 -0.10822 0.0749784 -0.0662333 0.0727002 0.0752704 0.0598429 -0.0220175 -0.0669179 0.0683437 -0.0422467 0.0890115 0.129095 -0.0461386 0.0648087 -0.0287313 0.0819342 0.0347733 0.040196 -0.117574 -0.128852 -0.0281958 -0.0348273 -0.170576 -0.170465 -0.11687 0.00865659 0.0375866 0.0819256 0.0606552 0.0406183 0.0793046 -0.0353514 0.0133122 -0.0887047 0.03889 0.0541191 -0.0109518 -0.00123918 0.0759137 0.0772552 0.0509016 0.100937 -0.0558661 0.0756638 -0.00332445 -0.0567559 -0.0518059 -0.129063 -0.0237083 0.0507575 -0.111413 -0.143309 -0.10672 -0.0154035 -0.104645 -0.127863 -0.00073189 -0.043114 -0.119266 0.0451174 0.0293662 -0.067594 0.113581 -0.0212931 -0.0739059 -0.0317979 0.078211 0.00440742 0.0726421 0.132685 -0.0620381 -0.023308 0.108349 0.119395 -0.0216549 0.0799666 0.0189535 -0.0953788 -0.0987 -0.115125 0.0201543 -0.0587922 -0.109766 0.0417852 -0.0310784 0.0185705 0.0381703 -0.0609447 0.053307 -0.0747321 0.0258757 -0.0436995 -0.0863204 0.118712 0.00811059 -0.053345 0.0988365 0.0257654 0.05977 0.136146 0.132313 0.0250088 0.0937027 0.157736 -0.0155193 0.132054 0.0798224 0.0762525 0.0639266 -0.0573086 0.0311368 -0.120798 -0.00824887 0.0706834 -0.0724188 0.0774059 0.0716625 0.0993133 -0.0809347 0.0733853 0.00449205 0.0188865 -0.0746801 0.0857164 -0.0238725 -0.0498254 0.00896015 0.0756651 0.114466 0.0401328 -0.0523436 0.0434944 0.050284 0.113179 0.159141 -0.0279748 0.133274 -0.0559573 -0.0490191 0.0638768 -0.00873663 0.0190656 0.020829 0.0752296 -0.0168309 0.0108284 -0.0874038 -0.100333 0.039987 -0.0241947 -0.0164208 -0.0151092 0.0535139 -0.0356466 0.111811 0.0327893 0.108095 0.0548391 -0.0346301 0.11117 0.134507 0.06831 0.103984 0.149468 0.0288259 0.0889172 0.116824 0.0598728 0.0439438 -0.0794677 -0.0750315 0.0529914 0.0881654 -0.0745432 -0.047728 -0.064315 -0.0342202 0.107483 0.00323286 0.0746966 -0.0559942 0.0257752 -0.0360652 -0.010083 -0.0838044 -0.0764623 -0.0551503 -0.024416 -0.101403 -0.0474209 0.138954 -0.0673189 0.104839 0.136119 0.120807 0.0185399 0.0657438 0.0921775 -0.0310003 0.0737617 -0.0701474 -0.0870983 -0.0196965 0.111584 -0.00535326 0.0925877 0.065701 -0.0225997 0.0786842 -0.0640662 0.0117083 -0.0314613 -0.0897807 0.0868451 0.0414121 0.00478905 -0.113031 -0.0365452 -0.0606522 0.0577303 0.0337526 0.108865 -0.0237463 0.0773286 0.0956941 -0.0461343 0.0225606 0.0945985 -0.115344 -0.0655161 -0.0590344 -0.093927 -0.0547883 0.100303 0.0228813 0.0392661 0.0980915 -0.0264591 0.0237411 0.0485432 0.0395587 0.00446124 -0.0232996 0.038606 -0.0331708 -0.117103 -0.0559984 -0.129036 -0.069048 0.0322844 -0.0858723 0.0173006 0.081164 0.0776201 0.100706 -0.0656313 -0.0936287 0.0304085 -0.0783019 0.0204864 0.0212926 0.0878041 0.120401 -0.0531391 0.0251301 0.0186282 -0.0637887 0.0780312 -0.0213782 0.0153981 -0.0238551 -0.0405914 -0.070026 -0.00578378 -0.0514486 0.0297859 -0.0496864 -0.0717506 0.0108291 -0.0411387 0.0379225 -0.116554 0.0778153 -0.0450822 0.00739157 -0.12579 -0.0867187 0.0594965 -0.104235 0.0756315 -0.0510548 -0.0282527 -0.0506957 0.0667499 -0.0199111 0.0732804 0.109127 -0.0611012 0.0377806 -0.0611697 -0.0615664 0.0137219 0.0248748 -0.0843024 0.0727625 -0.0237763 -0.0873728 -0.00718577 -0.0310102 0.0610783 0.0106207 0.0456154 -0.0814365 -0.0143947 -0.0666687 0.0779497 -0.00613709 0.0152237 -0.0407554 -0.11591 0.0433152 -0.0059467 0.0639229 0.0704111 0.0594733 -0.0503688 -0.0544428 0.106978 0.00387518 -0.13921 -0.101134 -0.120461 -0.0413052 0.0693955 -0.0330385 -0.102362 0.0241535 -0.0327989 0.00334881 0.0698035 -9.15924e-05 -0.0481238 -0.0312027 0.0362652 0.0675804 0.0610234 0.0729156 -0.0867968 0.0196244 0.0662714 0.0367372 -0.0196313 -0.0650962 -0.0134367 -0.0648726 0.0602047 -0.0132621 0.0979518 -0.00439854 -0.0190889 0.0221393 0.0251234 -0.0485511 0.0575593 0.00808926 -0.0534699 0.024687 0.0445867 -0.0884713 0.0230625 -0.0553936 -0.0684248 0.0511972 -0.0359173 0.0694909 0.0694072 0.0060392 0.0648806 0.0266525 0.042774 0.0656749 0.0793223 0.00138596 -0.0300854 -0.0323667 0.0257575 0.0754328 0.080467 -0.0948152 -0.0737484 -0.0750929 0.0855737 -0.0689325 -0.0483587 -0.0954157 -0.0298847 -0.00669976 -0.0743902 -0.161473 -0.0195527 -0.0871142 0.0315241 -0.0707556 -0.115633 -0.134219 0.0384115 0.0783146 -0.0814798 0.0948042 0.0368963 0.0671393 -0.00212858 0.0137207 0.0822206 -0.0996492 0.0862465 0.0239438 0.0351291 -0.00415078 0.0695865 0.0568416 -0.0594229 -0.119281 -0.0079431 -0.10338 -0.109203 -0.0287746 0.00977357 -0.0587965 -0.15447 -0.010122 -0.0441575 -0.061631 -0.0059719 -0.104301 0.0459217 -0.0660723 -0.0727997 0.00250968 -0.096272 -0.0852493 0.0193096 0.0548177 -0.0975747 -0.0920452 -0.109754 -0.0119598 -0.0868859 -0.110536 -0.107185 -0.0746541 -0.0313562 -0.108934 0.0848202 -0.0204181 0.067508 0.019491 0.00648458 0.0742048 -0.00643942 -0.0249469 -0.103114 -0.116773 0.0213025 -0.0535175 0.0948617 -0.0104645 -0.0303382 0.0387837 0.0680412 0.0172213 -0.106677 -0.0544686 0.0105174 -0.0994527 -0.0152835 -0.0137278 0.0664519 0.024539 0.0127196 -0.0208652 -0.00280345 -0.0865555 0.0152777 0.0873022 0.0751241 -0.0145508 -0.0732549 -0.00111938 0.0788618 -0.0935761 -0.1145 0.0770402 0.0241625 2.24867e-05 0.0937264 0.0792721 0.124912 -0.0661319 -0.0192016 0.00607225 -0.0282681 0.0832369 -0.0152885 0.00764629 -0.0129731 -0.10133 -0.00404244 -0.138757 0.0439735 -0.012667 0.066322 0.0863366 0.0502797 0.0819077 0.0594364 -0.107882 0.0416013 0.0417459 0.0399793 -0.0350816 0.0472145 -0.0944826 -0.0427336 0.139874 0.0581248 0.0637325 0.0034701 0.0986759 0.0540754 -0.0153593 0.076231 -0.0578725 -0.0377601 0.0641949 -0.126077 0.0862287 0.0655404 0.0617643 0.0601677 0.0767787 -0.128186 -0.0364889 -0.121745 -0.0379613 -0.126818 -0.0928254 0.0423566 0.0645848 -0.131818 -0.08857 -0.0739243 -0.0905666 -0.0318102 -0.0560786 0.0901809 0.111541 0.0644889 0.110543 0.111304 -0.0890147 -0.0378338 -0.0815632 0.0616363 0.0152763 0.000714376 0.0638237 -0.116764 0.0619958 0.0644083 -0.0271719 -0.0114196 -0.0328474 0.0821046 -0.0988978 -0.0128101 0.0369214 -0.10396 0.0188584 -0.154542 -0.0609132 -0.123498 0.0771785 0.110833 -0.0717395 0.0173274 0.0609858 0.0922662 0.0774804 0.0118825 -0.115931 -0.0802043 -0.0228618 0.0728705 -0.0631319 0.0542671 0.0523801 0.0601577 -0.111676 0.0271028 0.092656 -0.103556 0.0184099 -0.0416962 0.0721368 -0.0568033 -0.0925319 0.024653 -0.0918963 -0.130591 -0.147662 -0.0153311 -0.123595 -0.0125254 -0.0122162 0.0333713 -0.0976223 -0.00254585 0.000805275 0.0430626 -0.00629034 0.0276625 0.0524231 -0.119741 -0.0944006 -0.0749625 -0.0995666 -0.135805 0.0148619 -0.106386 -0.0982727 -0.087746 -0.00784108 -0.129941 -0.117349 -0.0209026 0.0581025 -0.0925665 -0.0511792 -0.0588338 0.00581938 0.00481303 -0.0123621 -0.0365069 -0.0895604 0.113728 0.0366897 0.133509 -0.0108518 -0.0709157 0.0722127 0.141736 0.0604482 0.154279 -0.0403124 0.0503178 0.0339433 0.0435535 0.0835918 0.0339226 0.0940134 0.00756744 0.0380441 0.0156035 -0.0548733 -0.102107 0.0121054 -0.0247637 -0.0768141 0.0201611 -0.0132588 -0.0707323 0.0124561 -0.0889365 -0.0133112 0.0846944 -0.0213083 0.0206309 -0.0140055 0.0725404 0.0952148 -0.0573574 -0.0343501 0.11147 0.0504867 0.045482 -0.0418891 -0.040337 -0.00629264 0.0555176 -0.0254264 -0.0891326 -0.0780546 -0.00910521 -0.101847 -0.00235128 -0.0870678 -0.0841548 0.0576477 0.0816676 -0.0745891 0.0517793 -0.102838 0.0403581 0.0665223 -0.0233561 -0.0697499 0.0738044 0.0419092 -0.0329913 -0.0357331 -0.0433242 0.0027337 0.0162401 0.0184845 0.121781 -0.0795607 0.0768901 -0.103156 0.0952326 0.0576419 -0.101268 0.0475141 0.067476 -0.0377221 -0.0284545 0.0282006 -0.0777033 -0.042461 -0.12796 0.0726385 -0.0512043 -0.068206 0.0137875 -0.0453241 0.0335646 -0.0169214 0.0486919 0.122954 -0.0850907 -0.0271192 -0.0888127 0.00791478 -0.0560978 -0.000635792 0.043433 0.111865 0.0305941 -0.0804855 -0.0417835 -0.0391215 -0.0724591 -0.0257362 -0.117721 -0.117275 0.0510252 -0.136067 -0.0641376 0.0199564 0.0659492 -0.119066 -0.0419201 -0.0815858 -0.0149443 0.0570955 0.0443799 -0.0561391 0.0443578 -0.0698487 -0.0310601 0.0544015 -0.0355266 0.0277497 0.0771989 0.05369 0.107529 0.0763233 -0.00154648 -0.0599805 -0.128797 -0.0689929 0.0949904 -0.00768766 -0.111745 -0.0360546 0.056507 -0.123241 -0.00859168 -0.153332 -0.0505329 -0.0218234 -0.0464804 0.0617887 -0.0413047 0.0658311 0.00729184 0.094911 -0.110296 -0.057819 0.0989432 0.0211239 -0.0312498 -0.0686275 -0.0229423 -0.0750084 0.0923997 0.0761089 0.0487172 0.0157186 0.0501612 -0.0705171 0.0628303 0.0117004 0.00387055 0.0316234 -0.148346 -0.0509493 -0.00356538 -0.0529822 -0.0882727 0.0446627 -0.00125482 0.00530703 0.0642899 0.0432276 -0.130745 0.0781624 0.0610097 0.0648339 -0.0526364 -0.0523893 0.0727767 -0.0925921 0.012719 -0.0993833 0.088423 -0.010348 -0.000364555 -0.0143619 -0.119433 0.0303711 -0.0954621 -0.109031 0.0666099 -0.0898722 -0.117382 -0.0355623 0.032351 -0.129661 -0.0256797 0.0307563 0.0155914 -0.0506317 -0.0969183 0.0409596 0.0564713 -0.0312235 -0.106484 -0.0916131 0.0704889 -0.071873 0.0796697 0.0220172 -0.0934059 0.0302892 0.0101036 0.0614754 -0.0212032 -0.0258218 0.00102917 -0.115446 -0.0524723 0.020616 -0.047035 -0.046602 0.0895555 0.0356686 0.0464894 0.0934797 -0.00039893 -0.058937 0.0678628 -0.00524826 0.0683978 -0.0592834 -0.126119 -0.0216817 0.0375814 -0.00265993 -0.0352316 0.0334193 -0.0490251 -0.0212411 -0.0670399 0.0715624 0.0487524 -0.0563443 -0.0467547 -0.0783891 -0.0708641 -0.0672277 -0.0584035 0.125478 0.0988469 -0.0816681 -0.0454408 0.0721299 0.0278059 -0.084267 0.113336 -0.0573726 0.0544647 -0.020353 -0.0414364 -0.0525877 -0.0328356 0.0393731 0.0142385 -0.0803753 0.0737102 0.0481152 0.0807471 -0.0540989 -0.0507106 -0.11879 -0.117986 -0.0683659 -0.0733718 -0.0984485 -0.0478109 -0.00359801 -0.059387 -0.0549514 -0.0779695 0.0182828 -0.0411586 -0.0145745 0.078406 0.0532948 -0.0547972 -0.0196874 -0.051706 0.105262 -0.0532466 0.101726 -0.0502044 0.0165821 -0.108228 -0.00335692 -0.0499682 0.0134577 0.0202913 -0.0922222 -0.0465834 -0.105983 0.00386951 0.0338056 -0.0243142 -0.115493 0.0598793 0.0442414 0.000667844 -0.027324 0.0139861 -0.0801935 -0.0126812 0.0858501 0.0597091 0.0340965 0.0865237 -0.00754024 0.0749138 0.12939 -0.0701837 -0.0593355 0.019037 0.00908706 0.0283206 -0.0308943 -0.0994379 -0.0303793 -0.0727071 -0.0584215 0.0390482 0.0379354 0.0685009 -0.00184994 -0.0958252 -0.0205338 0.0107821 0.067576 -0.0624425 0.00230985 0.0848189 -0.102233 0.104202 -0.102134 -0.0222027 0.0920569 0.112747 0.0207965 0.107152 -0.0503938 -0.0903259 -0.00408288 -0.106677 -0.0200734 0.0512379 0.0292226 0.00687988 0.0818693 -0.0079687 -0.0619569 -0.0455804 0.0899092 -0.135756 -0.0688521 -0.137668 -0.0236537 -0.0824326 -0.0323637 0.077038 0.0994487 -0.00310592 0.075749 0.116666 0.0813896 0.121887 0.0386995 -0.0578824 -0.051064 0.00217854 -0.0748469 0.113003 -0.0279633 0.0423493 -0.0319803 0.00719754 -0.0124088 0.0346582 0.0648677 0.0677347 0.049626 -0.0254757 -0.0464536 0.0745256 0.0306313 0.0344051 -0.0392301 0.0745849 0.0189847 -0.0891436 0.0813609 -0.0047915 -0.0136018 -0.0590469 0.0784456 0.0263062 -0.0150031 0.134247 -0.00876452 -0.0518348 0.114935 0.0366804 -0.0954518 0.0250666 -0.0473939 -0.077436 -0.150046 -0.0494456 -0.00458571 -0.0590072 0.00590288 -0.123594 0.0241963 0.052477 -0.0537726 0.0675336 7.54659e-05 -0.0872557 -0.125433 0.0994244 0.105834 -0.069654 -0.0138498 0.12603 0.0138129 0.125447 0.149825 0.156011 0.0161442 0.1415 0.0733193 -0.0406936 0.0773823 -0.0137844 -0.082057 -0.0952828 -0.122316 -0.0219757 0.0420924 0.0629091 0.0128451 -0.118347 -0.0677903 -0.0551605 -0.0622916 -0.00985357 0.0530088 -0.0281488 -0.0435006 -0.0118168 0.0250738 0.0251115 0.0456344 0.118463 -0.0455853 0.152449 -0.0102782 0.0251995 -0.0038171 0.0938422 -0.0545351 0.0253367 -0.0380674 -0.0424492 -0.0173056 -0.00731715 -0.0154083 -0.0803439 -0.142766 0.0635568 0.0875864 -0.0423351 -0.0625137 -0.0393262 -0.084703 -0.00622963 -0.00108431 0.00115476 -0.0413256 -0.0886768 0.0604274 0.0610075 0.0688142 0.116112 0.0955677 0.0924767 -0.0407528 0.105846 -0.039371 0.0948469 0.0870168 -0.0667623 0.010332 0.11885 -0.0206411 -0.0187344 -0.0371416 0.0427679 -0.0502321 -0.0454129 -0.061908 -0.0901843 0.107513 0.0289919 0.0421296 -0.10032 0.0224603 -0.0561043 0.00968229 -0.0997264 0.0993484 0.117762 -0.0502883 0.0646596 0.044292 0.119158 0.0591862 0.147069 0.0641981 0.0246758 0.0596582 0.124538 -0.0324534 0.000784262 -0.05892 0.0796984 0.0973807 -0.125814 -0.0842377 0.0500181 -0.0327928 0.0591134 -0.0477003 -0.0834209 0.0766873 -0.107445 -0.092134 -0.138019 -0.117002 0.0157594 -0.103098 0.100418 -0.0589628 -0.00544863 0.0486823 0.110987 0.111511 -0.00939314 0.0335986 0.161666 0.124884 -0.0348262 0.118228 0.116017 -0.0948972 0.0868854 0.0537828 -0.0961922 -0.0618255 0.0228784 -0.0745667 -0.0654659 -0.0648263 0.0441917 -0.00127937 0.0567721 -0.00921519 -0.0754839 0.0618176 0.0592172 0.0678066 -0.0792678 0.095793 0.0796265 0.0746777 0.104292 0.0840657 0.100319 0.0924408 -0.00637873 0.0147631 0.129114 0.0644431 0.0343617 -0.0781808 -0.0687723 -0.0828504 0.0645913 0.0936117 0.0668882 0.0354707 0.0133782 -0.0148229 -0.026995 0.0213748 0.00297465 0.117288 -0.0904529 -0.0213025 -0.064524 -0.0254119 0.0967534 0.0217755 0.124087 0.168214 0.159713 -0.0104007 0.0656706 0.104539 0.0744686 0.140592 0.157013 0.053487 -0.0635186 0.065243 -0.0318473 0.078041 0.0172487 0.103132 -0.0447077 -0.104909 -0.017484 -0.0831988 0.0518911 0.0039708 0.109747 -0.00181152 0.0137577 -0.00445864 0.0747957 -0.0212003 -0.00739659 -0.0575344 0.0993188 0.0495867 0.0589105 0.131812 0.0811953 -0.033366 0.0957903 0.177371 0.0201477 -0.0440001 -0.0157615 0.112819 0.0529268 0.00550647 0.0746318 -0.0866583 0.0819414 0.0876268 0.0390884 0.0690161 0.0526443 0.030732 -0.0522958 -0.0184884 0.0232809 -0.0207178 0.0820593 0.0894734 0.023916 0.141817 0.077614 -0.0288726 -0.00383728 0.032058 0.17989 0.162628 0.140347 0.0309078 0.0102982 0.13143 0.0756595 -0.0393468 0.080934 0.066925 0.028138 -0.048222 -0.0458857 0.0645072 -0.0439687 0.106174 -0.0283675 -0.0252552 0.0273962 -0.0613379 -0.103355 -0.0505877 0.0954064 0.080303 -0.0173291 0.0513774 -0.0781951 0.0648759 0.0601667 0.0507357 0.161805 -0.0154914 0.141038 -0.0354265 0.129664 0.0643703 0.0539194 0.0498807 -0.0914057 0.0258847 0.0176742 -0.0880842 -0.0474773 0.0085085 -0.110132 -0.0197591 0.0442024 0.0767384 0.0162908 0.0843198 0.0719574 0.0314106 -0.0609223 0.049155 -0.0465013 -0.0813086 0.0167442 -0.0588443 -0.0229045 0.0937632 0.0621245 0.0667827 0.134472 0.0369107 0.0852086 -0.0872636 -0.0556866 0.0874622 -0.127593 -0.0900334 -0.00592921 -0.103398 -0.112049 0.0703406 -0.0167216 0.0466823 -0.017753 0.12638 0.0964729 0.0720098 -0.0367513 -0.0582821 -0.0413632 0.0553338 -0.0636163 0.00508847 0.070789 0.124978 0.0669998 0.0314358 0.0706045 -0.0547893 0.0871074 0.0957444 0.0665067 0.0657715 -0.0389017 0.019024 -0.000870225 -0.128391 0.0141506 -0.100102 -0.034045 -0.0138841 -0.0667337 0.0418763 0.0382099 0.0513922 -0.00579822 0.00720721 0.0623592 -0.0626353 -0.0412561 0.0217216 -0.0412188 -0.0368548 0.0673395 0.0562408 -0.0771426 0.12719 -0.0630366 0.120326 0.0504105 -0.0437417 -0.0262093 0.102552 0.0584486 -0.115697 0.0589256 -0.107584 0.0737185 -0.0598374 0.0341826 -0.0802569 -0.117773 0.0903282 0.0589251 -0.0457168 0.0983894 0.0519129 0.0699598 -0.098973 -0.126966 0.0234421 0.0589828 0.0067919 0.0188826 0.00509703 0.016431 -0.0228303 0.0474878 0.0040533 0.0253782 0.0518333 -0.0340138 0.0820774 -0.0599057 -0.0509386 -0.0159539 0.0123062 -0.0596154 -0.0235379 -0.0198824 0.0196004 0.105653 0.0120335 -0.0921204 -0.0906017 -0.0537333 -0.00774022 0.0179046 -0.115765 -0.0490986 0.057347 -0.0557019 0.0357511 -0.115789 -0.109672 -0.00342945 0.0138957 0.0672138 -0.0566718 0.0840916 0.0779791 0.102639 -0.0305683 -0.0789798 0.0125939 -0.0359438 -0.0404305 -0.0108036 -0.0655611 -0.0691814 -0.0203789 0.0746778 -0.0326044 -0.0841326 0.0344883 -0.083262 -0.0723719 -0.0369621 -0.108637 0.09703 -0.0351713 0.0890642 0.0292438 -0.0800921 -0.0288786 -0.0265263 0.0732703 0.101957 0.0806303 0.0514842 0.113062 0.00431832 0.0822645 -0.0774028 -0.0102325 -0.0606317 -0.0022293 -0.0223675 0.00813321 -0.0683186 -0.0524045 -0.0778259 -0.150486 -0.0507504 -0.0106757 0.0664425 -0.0237329 0.0567005 0.0217334 0.0485886 0.102079 -0.0571951 0.0938879 -0.00321261 -0.0698634 0.0223577 -0.0725896 -0.0118863 0.00093761 -0.0450152 0.0534515 -0.0122121 0.0349962 0.019496 0.0845948 0.0802777 -0.00348222 -0.0663386 -0.106079 -0.120287 -0.0387691 -0.13146 0.0588303 -0.147709 -0.114742 0.0929688 0.107565 -0.0594367 -0.110062 -0.0305388 0.0234605 0.0222079 0.0714849 -0.0370804 -0.0489498 -0.00368915 -0.0663762 0.0895119 0.104577 0.0688249 -0.0168486 0.078512 -0.0162631 0.0274564 -0.0181806 -0.110876 -0.0613976 0.0569278 -0.0327047 -0.0516485 -0.0247812 0.0141314 -0.15073 0.00536624 0.049632 0.00450225 -0.0834903 0.0295625 0.023038 0.00378191 -0.065212 -0.0469319 0.00328193 0.0374859 -0.00402425 0.0332953 -0.0437452 -0.0846141 -0.0219132 -0.0653741 -0.0432091 -0.0729532 -0.104181 0.0142022 -0.0174761 -0.0115883 0.0394573 0.114961 0.0819049 -0.0194449 0.084133 -0.114162 0.0578825 -0.0970168 -0.101783 0.00634329 0.0395832 -0.0139792 -0.0414441 -0.0931306 0.031401 0.0766377 0.0608677 0.0231879 -0.00394491 0.0252909 -0.106156 0.0677424 0.0249688 -0.0322304 -0.10053 -0.0779634 0.0269965 -0.00336991 -0.0198859 0.00286727 -0.0179077 -0.0182307 -0.0894537 -0.0959106 0.0998466 -0.00490581 -0.137907 -0.0114143 -0.130928 0.0695699 -0.0990297 -0.11714 -0.0461927 0.0676442 -0.00252766 -0.113512 -0.110272 0.0959786 -0.021141 -0.121395 0.0581155 0.0271841 -0.0203712 -0.0298755 -0.039031 -0.00777896 0.07822 -0.00579282 -0.0955343 0.108498 0.0634795 0.0419129 -0.0784501 -0.0121668 0.0818874 -0.0251594 0.0820843 0.0811125 -0.0511018 -0.0781634 -0.0825517 -0.0586607 0.0252149 -0.0856497 -0.111602 -0.130231 -0.0329069 -0.128633 0.0645209 0.0838167 0.0824517 0.00699045 0.0232612 -0.126092 0.0798143 -0.0895108 -0.0509258 -0.0851098 0.126537 -0.0879455 -0.0273565 0.0712482 0.0479655 0.0955567 0.0778166 -0.059845 -0.0318866 -0.0944847 -0.0546935 0.00300942 0.0958183 -0.0796715 -0.0901347 -0.00852465 -0.0406153 -0.028118 -0.150202 0.052599 -0.103167 -0.107053 -0.107278 -0.102544 -0.0523297 0.0739304 -0.084602 0.102797 -0.0161205 0.0371531 0.118097 0.144576 -0.0494621 -0.0817319 0.0656642 -0.0101585 0.0070038 -0.0131989 -0.0531357 -0.103178 0.0537311 0.029105 0.0758104 -0.0253509 -0.025221 -0.141437 -0.142811 -0.155091 -0.11752 -0.0471774 -0.0763807 0.0622662 0.0593703 0.0046112 -0.0858773 0.036018 -0.0681278 -0.00717145 0.116094 -0.00636586 0.0076042 0.0774295 -0.0453499 -0.0147234 -0.00108498 0.0554795 0.0591829 -0.0800525 0.106873 -0.0692719 0.0339604 0.0197166 0.0311713 -0.0611648 0.0540917 -0.0737225 0.064915 -0.0347163 -0.0121964 -0.0888769 -0.165891 -0.0760793 -0.0277185 -0.0299143 -0.0620363 -0.0721719 0.00592627 -0.0915787 -0.0152492 0.14484 0.158465 0.0676223 0.0765702 0.0281482 -0.0584396 -0.00372629 0.0798655 0.0814527 0.108741 0.0488968 -0.0853707 -0.0955357 -0.0439945 0.0167996 0.0393474 0.0200013 0.0275984 0.00440729 0.0246756 0.0275403 -0.118333 -0.0708324 -0.0977502 0.0410548 -0.0700539 -0.0186568 0.0781462 0.0221011 -0.045204 0.0239156 0.112022 0.141965 -0.0326736 -0.0645939 0.0543169 0.0659935 0.0130402 0.00950494 -0.0536754 0.0884358 0.0922425 0.0559708 0.0752541 -0.0941827 -0.0547198 0.0383318 -0.010926 -0.0925117 -0.0141502 -0.026864 -0.121204 -0.00739568 -0.11342 0.0991716 0.0967617 -0.0442064 0.00626656 -0.010856 0.096913 0.0320194 0.0525562 0.106445 0.117266 0.05463 0.0708579 0.107821 -0.0566311 0.0280177 0.0227914 0.0868024 -0.0588551 0.0596306 -0.102615 -0.0959749 -0.00348715 -0.0838643 -0.00360756 0.0360446 -0.0477626 -0.0144836 0.0328851 0.0706122 -0.0464376 -0.0848654 0.0925287 0.0925856 0.135395 0.0249741 -0.0341276 0.159568 0.0717651 0.00453452 -0.0355697 0.000592214 0.133333 0.048812 -0.0150152 0.111437 0.0322683 -0.0504277 -0.0239077 -0.121741 -0.0306627 0.0294601 -0.00606732 0.0721923 -0.106058 -0.0518083 0.00709347 0.0032459 -0.0212564 -0.0438992 0.072025 0.0599426 -0.0616992 0.133632 0.102559 0.0584257 0.0366879 0.0868193 0.0398062 -0.0399603 -0.00314014 0.070699 0.0919787 0.131642 0.0924243 -0.0135533 -0.0948838 -0.0737175 0.0801981 -0.0902725 -0.121704 -0.0440998 -0.0678856 -0.0385753 0.137642 -0.0561028 -0.0448942 0.0376532 -0.0385939 -0.0740412 0.125903 0.0345098 0.0567924 -0.0818832 -0.0812666 0.114271 0.0118986 0.0769923 0.111711 -0.0218207 0.0573096 0.0909064 0.0399177 0.0870507 -0.0852256 0.0692405 -0.0669878 -0.0907475 -0.080262 -0.0993618 0.00606168 0.0639748 0.0440875 0.127216 0.061911 0.140216 0.125847 -0.0536766 -0.017481 -0.0819549 0.00979946 -0.0201602 -0.0340137 0.105656 -0.0767525 -0.0498996 0.0567767 0.0562027 0.076863 0.0530288 -0.0103718 0.0909247 0.0853031 -0.0126844 0.105697 -0.072176 -0.0933997 0.0279063 -0.039703 -0.0818075 -0.101728 -0.0148718 0.190676 0.0328627 0.0791648 0.00238117 -0.0125672 -0.0517493 0.0877901 0.0208107 -0.0755577 0.00763827 -0.0947008 0.00411132 -0.0937593 0.0263996 -0.0851313 -0.0362118 -0.0451569 0.118931 0.109554 -0.069288 6.18642e-05 0.0152042 -0.0682449 0.0303134 0.0376192 -0.147486 0.0319466 0.0438843 -0.0112177 0.0233732 0.11026 0.0642078 0.167577 -0.0349852 0.0799019 -0.0172906 0.09307 -0.0505775 0.0866517 0.038402 -0.0696602 0.0881334 0.0278067 0.0870215 -0.100989 -0.0538334 -0.09692 -0.0731033 0.029764 -0.0675134 0.0324638 0.00498964 -0.0881289 0.0101499 0.0155907 -0.0235034 -0.0580441 -0.0373153 -0.127514 -0.0190254 0.0897742 0.0596569 0.0133012 0.131351 0.048723 -0.0836374 0.0906043 0.0452403 -0.0777959 -0.0158365 -0.140043 -0.0427327 0.0558189 -0.0248111 0.00364114 0.0292972 -0.0824903 0.0239575 -0.0671309 0.0513124 0.107375 -0.0414371 -0.0668113 -0.0741363 -0.101983 0.00925167 -0.113212 -0.131869 -0.145531 0.0183624 0.0604571 -0.0105415 -0.0222844 0.056448 0.101653 -0.057443 0.0300789 -0.104947 -0.080593 0.0107036 0.0303943 -0.0915248 -0.158321 -0.0246094 -0.0086805 0.0581101 -0.115639 -0.0461192 0.076884 0.00922587 -0.0453541 0.0321276 0.00898564 -0.100822 0.0230863 -0.0475128 -0.0920871 -0.124045 -0.107732 -0.0326365 -0.0545634 -0.0256699 0.140678 0.0377246 -0.000425163 -0.0809427 0.0135385 0.0378114 0.0272741 -0.158943 -0.0645772 -0.100375 0.0307776 0.0337377 -0.148521 -0.122932 -0.103401 -0.0149534 -0.0777541 -0.0460343 0.00598231 -0.0473266 0.0230097 -0.0527129 -0.119932 -0.0875868 -0.0183097 -0.0938369 -0.0947672 -0.0238611 0.0889321 0.12578 0.0323807 -0.0553707 -0.104477 -0.0944339 -0.114791 -0.108117 0.0132004 0.0022634 -0.144522 0.00339457 -0.0876115 0.0255139 -0.101787 -0.0550347 -0.0772383 -0.0919762 -0.0135761 0.00989013 0.0640282 0.0921056 -0.0639677 -0.111089 -0.116191 -0.0309495 0.0716933 -0.0113882 -0.027122 -0.0324394 0.0945791 0.119631 -0.0548937 0.0978005 0.0450742 0.0359585 -0.016497 -0.0632231 0.048447 -0.00719134 0.0738265 -0.104171 0.0279595 0.0791703 -0.00454066 -0.0748853 -0.0811939 -0.0526313 -0.0326124 0.0941067 0.0565376 -0.00981442 -0.0615603 0.096332 -0.00962424 -0.0796614 0.0516041 -0.0519926 0.0574763 0.0253555 0.0927116 -0.0676478 0.105031 0.0907485 -0.0329169 0.0615797 0.0626791 0.0171034 -0.0261562 0.0711341 -0.034992 0.0022094 -0.0590497 0.0334414 -0.0873114 -0.050061 0.0997888 -0.0058969 0.0524837 0.127128 -0.0865678 -0.0257068 0.0833868 0.0384988 0.0929748 -0.0795325 0.0624118 -0.0386352 0.055007 0.0673627 0.0594751 0.0387508 -0.0658895 -0.00398781 -0.0174996 -0.116311 -0.0151652 -0.0783426 0.102055 -0.113079 -0.114723 0.0320004 0.111702 -0.0746961 0.0662612 -0.0454424 0.0762387 -0.0328536 0.0108345 0.0564676 -0.00413909 0.0530531 0.0969617 0.0819244 -0.0614959 -0.038783 -0.0458047 -0.0659543 -0.0108002 0.01794 0.0631886 0.0305522 0.105756 -0.07461 0.0767144 0.0956726 0.0336166 0.0125592 -0.0619982 0.0871206 0.024451 0.0820679 -0.0495985 0.0380918 0.0516527 0.107877 0.155176 0.0150304 0.168995 -0.015277 0.0133845 -0.0868649 0.0982861 0.048716 -0.0888424 -0.0200526 0.0491666 -0.0429345 0.0299458 0.0292054 -0.0833505 -0.00651625 0.0313076 -0.0945923 -0.0350666 0.0851075 0.076173 0.112897 -0.0846228 -0.0836072 -0.0875883 -0.0504844 0.0424272 0.118731 0.127758 -0.000476935 -0.0172534 0.142555 0.0452419 0.141161 0.026804 -0.0699044 0.0551178 0.0898681 -0.0639694 -0.0820254 0.0730784 0.0761248 -0.0589331 -0.0937837 -0.0286088 0.0336133 0.031159 -0.0901184 -0.0531589 -0.0562049 0.0310974 -0.000265695 -0.0443483 0.112638 -0.0263537 -0.0491474 -0.0764104 -0.0431482 -0.0731407 0.120706 -0.0521223 -0.0377442 0.0715697 -0.0501909 0.00126694 0.0909545 0.135568 -0.0162704 0.0943781 0.00805463 0.0830991 -0.0347574 0.0894672 -0.00938416 -0.0555056 -0.0264955 0.0340238 0.011424 0.120842 0.0898179 0.0752729 -0.00301547 -0.0270491 0.0218248 0.0623674 -0.0115968 0.0733612 -0.0183846 0.042136 -0.0367081 0.00326752 0.0271428 -0.0320636 0.0191637 0.0674623 0.10735 0.104425 -0.0652528 -0.0588322 -0.0247652 0.12192 -0.0560095 -0.0170066 -0.04614 -0.0233852 0.129929 -0.00544914 -0.0269345 0.0731223 0.059085 0.00499766 -0.0222446 -0.0582165 0.109574 0.00189721 0.00791528 0.0542062 0.0865719 0.0536066 -0.034033 0.0774603 -0.0625103 0.14052 0.0682395 -0.0203371 0.0644962 0.0701944 0.127514 -0.0243631 -0.0266689 0.0261809 0.111397 -0.00378445 0.0719016 -0.0174527 -0.0304458 0.0649473 -0.103815 -0.0630694 -0.0840799 -0.00481933 0.0602012 0.0145503 0.013602 -0.0782103 0.0932202 -0.0773564 0.0875317 0.0249393 -0.127054 -0.0489537 -0.00144567 -0.0589859 0.055517 0.0270829 -0.0857763 0.00226678 -0.0265878 0.0703551 0.114957 0.0441441 0.0935516 -0.0489362 0.0899384 -0.0264879 0.0138422 0.0380363 -0.0392981 0.0791898 -0.0282726 -0.113156 0.069029 -0.05406 0.00751878 -0.0435299 -0.0438343 -0.11956 -0.103141 -0.111101 0.0147487 -0.134497 -0.0686245 -0.131383 -0.0185405 -0.0326904 0.0317627 -0.0838049 -0.0185645 -0.0017464 0.0785093 -0.0375705 0.0955028 0.083238 0.0778405 -0.0795282 -0.0647956 -0.0844435 0.067236 -0.0135045 -0.0652953 0.0612571 0.00452971 -0.0143573 -0.027624 0.0221714 -0.0753549 -0.1011 0.0150003 0.00679211 -0.0785068 -0.0830942 -0.0987746 -0.136687 -0.081724 -0.0849872 -0.0272951 -0.132246 -0.100161 0.0221381 -0.0790673 0.0223128 0.0388254 0.0316776 0.101602 -0.0265232 -0.0467038 -0.101026 -0.0907398 0.00825468 -0.024135 -0.0960756 0.018435 0.0872083 0.059197 0.0350193 0.0878628 0.0110877 -0.0821855 -0.0125177 -0.142069 -0.0693773 -0.0674562 -0.125526 -0.0519444 -0.08212 -0.0122406 0.0362503 0.102179 0.0793596 -0.0603018 0.124093 -0.076523 0.0455139 -0.0221102 -0.00340027 0.049861 -0.0428766 -0.0504312 0.00667537 0.0298587 -0.103606 0.0617619 0.0689555 -0.065627 0.0975168 0.0934069 -0.0911599 0.0496608 0.0452219 -0.143143 -0.146545 0.0630381 -0.130944 -0.00519077 -0.0991233 0.0368328 -0.123945 0.00858243 -0.0529339 -0.0668845 -0.0676584 0.0798285 0.111015 -0.0170467 -0.0641487 0.0406227 -0.135046 0.0348901 -0.0866084 0.0719829 -0.000771697 0.0662961 0.0872213 0.0980537 -0.116264 -0.103393 -0.0179529 0.0172843 0.026044 0.0421781 -0.129104 -0.0152154 -0.0665727 -0.0861937 0.0287946 0.06414 0.0806814 -0.074094 0.087907 0.0196853 -0.0794975 -0.0882573 -0.00785261 -0.0131547 0.00687613 -0.0231083 0.052144 0.033123 -0.00326542 -0.017965 0.0817373 0.0797808 -0.0841212 -0.0789524 0.0429413 0.0530956 -0.00792601 -0.0483249 0.0250478 0.0743782 -0.0619493 0.0219662 -0.138393 -0.152819 -0.020544 -0.0624665 -0.0388895 0.0449493 0.032501 0.0526467 0.0650256 -0.00294766 -0.0942538 -0.0334042 0.0410205 0.0788231 -0.13244 -0.134111 0.00102449 -0.0253204 0.0965629 -0.0167043 0.107159 0.0548082 -0.00512014 0.12602 0.11157 0.0702293 0.066015 0.0909993 -0.0761747 -0.131257 -0.0162465 -0.0294933 -0.00768818 -0.107337 -0.109268 -0.0493936 -0.0627062 -0.13386 -0.0217011 -0.0492473 -0.00371404 -0.0844442 0.0380528 -0.0711778 0.0855901 -0.0559933 0.0541562 0.114205 -0.0818065 0.108585 0.138544 0.0710219 -0.0464539 0.0521682 -0.0251179 -0.0158249 0.0884812 -0.0824571 -0.0580764 -0.0811556 -0.0855922 0.0194422 -0.0194511 -0.0190885 0.0118426 0.0256417 0.0368871 0.0361962 -0.0606548 -0.0974221 0.0330575 -0.0632656 0.0854799 -0.101079 -0.0232824 0.0765159 0.0189847 0.0132325 -0.0200799 0.136336 -0.0139023 0.0573094 -0.00516908 0.0616094 0.0270445 0.113189 0.0867982 -0.0125558 0.124888 -0.111689 -0.0967565 -0.00720344 0.0596663 -0.0714808 -0.109135 0.0347237 -0.0119881 -0.0418045 -0.0871069 0.0986751 0.0686656 0.0942339 -0.0392298 0.0581027 0.0130236 -0.043058 0.0715221 0.0588235 -0.0542769 0.0815684 0.0985428 0.14538 0.110035 0.129395 0.023969 0.0489518 0.0832957 -0.0282557 0.0470953 -0.0622437 0.0850937 -0.0317911 -0.113309 0.0114177 0.0261424 -0.105002 -0.0503025 -0.0644859 -0.0056657 0.0849404 -0.114676 -0.0411195 -0.0570878 0.0131086 -0.0975774 0.0905328 0.0280866 0.134582 0.108826 0.0985461 0.037207 0.011298 0.171241 -0.0245871 0.0300312 0.120598 -0.0455549 0.0870251 -0.00535639 0.0344163 0.0619576 0.0400563 0.0110237 0.0200528 -0.0268206 0.0277283 -0.0728748 0.0475546 -0.110433 0.0558968 -0.110928 0.000499028 0.0211757 -0.0357561 -0.0854063 -0.069841 0.0630386 0.0422705 -0.000970667 0.0242006 0.156208 0.0425567 -0.0440475 0.128225 0.0831267 0.133907 0.00585227 -0.0455383 0.130732 0.0140372 0.0294339 0.0199884 -0.100875 -0.0697959 -0.0208204 0.0272489 0.0354337 -0.0891614 -0.0959515 -0.0435391 -0.104314 -0.0701893 -0.0256572 -0.0447639 0.0112001 0.0394894 -0.0162868 0.0126977 -0.00441863 -0.0402826 0.0747356 -0.0460832 -0.00827829 0.0791518 0.10455 0.0264053 0.0816917 0.0719132 0.0629595 -0.0258689 -0.0953965 -0.00584565 -0.0982496 -0.0920259 -0.0481623 -0.106875 -0.0681456 0.0429922 0.0293862 0.0265152 0.0458768 0.0846595 -0.04561 -0.0477608 -0.0344382 0.0507728 0.030449 0.0269243 0.191668 0.186743 0.182602 0.0618444 0.0507155 -0.0318432 0.108634 0.14342 0.163895 0.0324139 0.015064 0.0264665 0.0755068 -0.0288979 -0.119271 -0.106146 0.0524974 0.040978 0.015451 -0.121607 -0.117604 0.0494762 0.0548374 -0.101059 -0.097132 0.00258861 -0.0522023 -0.0312289 0.0689284 0.170555 0.112197 0.166984 0.166262 0.0399488 -0.00533519 0.0500396 0.172571 0.155237 0.0846302 0.110878 0.0622677 0.0756781 0.0994327 0.0675053 0.0226508 0.0553257 0.0574582 -0.0126971 -0.122425 -0.0437313 -0.109982 -0.0976509 0.0360973 0.0392438 -0.00106732 0.0117538 0.0362274 -0.071765 0.0344973 0.181347 0.177464 0.16402 0.157119 0.00545934 0.0457552 -0.00122185 -0.0206421 0.137949 -0.0223636 0.144364 -0.0226043 -0.0597276 -0.0533252 -0.0555628 -0.0974092 0.0369098 -0.0343881 -0.0287067 0.000213728 -0.0269547 -0.0667925 0.0315118 -0.0841464 -0.113591 -0.0897591 -0.00343623 0.0954314 0.117511 0.0939716 0.081655 0.124584 0.204109 -0.0166194 0.033962 0.0814181 0.0123863 -0.0338863 0.121573 0.167938 0.174284 0.0667868 0.0141212 -0.0533681 0.109501 -0.0839636 -0.0302888 0.0640778 -0.0606205 0.0340218 -0.115295 -0.0236089 0.00988103 -0.0297329 -0.0908508 -0.0319774 -0.0868467 -0.0286652 0.00869731 0.132281 0.0875575 0.0149776 0.0755807 0.0867273 0.159915 0.105766 0.05023 0.0285545 -0.00240365 -0.00456788 -0.0253279 0.0872805 0.10946 0.0232529 0.115616 -0.0956504 -0.0534495 -0.0595556 -0.0401258 0.000864183 -0.0151153 -0.0558052 -0.0084657 -0.00304933 -0.00215898 -0.05427 -0.0207265 -0.0720142 0.0201861 0.144976 0.033408 0.11385 0.153502 0.0868545 0.0238295 0.103487 0.00376949 0.137158 0.0406295 0.0976636 0.122246 0.0822365 -0.0181024 -0.0491732 0.114978 -0.0256155 0.0962727 0.092218 -0.0288553 -0.145111 -0.0123919 0.0144713 -0.115593 -0.120611 -0.00833306 0.0924066 -0.105738 0.0497069 0.0319984 -0.051963 0.0124064 0.100602 0.0172853 -0.00390434 -0.0106355 -0.0458472 0.146913 0.121715 0.164925 0.0289409 0.0639605 0.0446342 0.046895 -0.0396669 0.00837056 0.101079 -0.0656693 0.0149707 -0.118887 -0.0553968 -0.138758 0.0198908 -0.00861964 -0.0637165 -0.107914 -0.0111555 0.0871113 0.0553963 0.0945326 0.0658001 0.0768337 -0.0201201 0.0705186 0.10216 0.0598302 0.0643576 0.121087 0.0225717 0.0323131 0.0480489 0.134477 0.0913777 0.00289852 -0.0513228 0.0139802 0.0696239 -0.108512 0.0482703 0.0442964 -0.0791727 0.0728096 -0.097765 0.0357121 0.0441962 -0.117883 -0.0150118 -0.109508 -0.0936894 0.0723288 -0.0108466 0.13741 0.039506 0.119064 -0.027992 0.0619761 0.0515596 0.0149512 0.069512 0.0319847 -0.0179547 0.0140711 -0.0494489 0.041027 0.0997393 0.0665839 0.0360951 -0.0521685 -0.0145724 0.0597126 -0.0841344 -0.070671 -0.0393292 -0.0785104 -0.123121 -0.135074 -0.0617068 0.0728506 -0.0490588 -0.0752673 -0.0256997 -0.0193285 0.11369 0.0404586 0.0350502 0.0108334 0.0367664 0.067661 -0.0758189 0.095617 -0.0786534 -0.0204569 -0.00943533 -0.045361 -0.0828048 0.0745642 -0.0308047 -0.121194 -0.0984259 0.0108116 -0.108856 0.0507472 0.00856845 -0.11587 -0.0851626 0.0658024 0.0880287 0.0292656 -0.0409265 -0.0526118 -0.070576 0.065939 -0.080356 0.0322071 0.0301578 0.0775496 -0.0507313 -0.0486363 -0.00432879 0.00680753 -0.0024868 -0.00652488 0.0467489 -0.0590985 -0.0518081 -0.105561 0.0965275 -0.0982957 -0.028876 0.0876449 -0.115339 -0.0871882 -0.0977537 -0.0169262 -0.0345916 0.0628822 -0.0449733 -0.0696304 -0.0368421 0.000237573 -0.0375245 0.0170429 0.065703 -0.0363428 0.0891471 0.0635601 -0.0731805 0.00863952 -0.112812 -0.0749822 -0.0886247 0.0856032 -0.0461689 0.0427317 0.0704993 0.0124165 0.102234 -0.00204089 0.015404 -0.115882 0.0779517 -0.0415474 -0.039691 -0.0724281 0.00318518 -0.0861973 -0.134847 -0.0379417 0.00132514 -0.0231742 0.0827331 -0.040811 -0.0466855 0.0477871 -0.0271909 0.102379 -0.104148 0.070685 -0.11041 0.0637254 -0.107059 0.00927494 -0.0171038 0.0196926 0.058066 0.0389501 -0.0251357 0.0268003 -0.044401 0.0205223 -0.0336308 -0.0608077 -0.0201773 -0.0800957 -0.126114 -0.00737699 -0.0574932 0.0581019 -0.00538351 -0.0409014 -0.0481989 0.101083 0.0300689 -0.038285 -0.0436778 -0.0424859 -0.122133 -0.0629834 -0.113223 0.0608439 -0.0136643 0.0941706 0.102216 -0.0798818 0.10242 0.0667643 -0.0410158 0.0683431 0.079337 -0.0147328 0.0287126 0.0115287 -0.012767 -0.0204945 -0.0862988 -0.0963495 -0.140271 -0.11374 -0.0804943 0.0177384 0.0612937 0.049198 0.0626394 0.0858855 -0.0162743 -0.0604461 -0.0763854 -0.136499 -0.10663 -0.0317397 0.078825 -0.104877 0.0881031 0.115113 -0.0413087 -0.000967509 0.0592963 -0.0513554 0.0509485 0.0621756 -0.0785106 0.0419929 0.00535343 -0.0953797 0.0253465 -0.0812062 0.0372806 0.0726331 -0.00421697 -0.0958142 -0.0847846 -0.100745 0.00129622 0.0612532 0.0717755 -0.076065 -0.00932071 -0.0850262 -0.089707 0.0703615 -0.0189731 -0.0768951 0.105787 -0.079488 0.122585 -0.0473271 -0.0565506 0.00446947 0.00239894 -0.0103645 -0.0532963 -0.00388792 0.0378989 0.0447053 -0.139732 0.00665737 0.0495856 -0.072601 -0.116913 0.0791598 -0.0206981 -0.0100957 -0.0103695 -0.00141862 -0.0213739 0.0255718 0.029274 0.0267021 0.0446136 -0.114756 0.0119897 0.0180565 0.0361625 0.0789588 -0.0610023 -0.00782965 0.107165 0.103909 -0.0696934 0.0166071 0.080435 -0.0827614 0.103186 0.118238 0.0390645 0.113719 -0.0280863 0.0474023 0.00460205 -0.031067 -0.108185 0.00847456 -0.024006 -0.0652492 0.0368057 0.055911 0.0790661 0.0584283 -0.113711 0.0940614 -0.0831595 -0.119181 -0.103775 -0.0520204 0.0861753 -0.0919651 -0.0557291 -0.0532626 0.123684 0.131169 -0.0258495 -0.0505015 0.0857431 0.127654 -0.0578154 0.0225386 0.0666434 0.0160825 0.0944286 -0.00184722 0.067837 -0.00474633 0.040294 0.0439246 0.0272084 0.0908887 0.0304457 -0.0662988 -0.0969882 -0.089698 -0.0423556 0.0740528 -0.000441765 0.03556 -0.0962057 -0.0288756 0.0900475 0.0669963 -0.0514583 0.00336405 0.0116461 -0.0551801 0.122941 -0.0704474 0.0603842 -0.0748767 0.0806007 0.0287504 -0.0131251 0.0265839 -0.107988 0.00067304 -0.114919 -0.0992186 -0.112308 -0.114291 0.013321 -0.0955944 -0.0213957 0.101139 -0.106222 0.0608626 0.0421826 0.031502 0.0639256 -0.0466281 0.0348084 0.0771941 0.0462183 0.1193 -0.092862 -0.0235684 0.0702013 0.0833642 -0.071509 0.102844 -0.11047 -0.0473313 0.070588 -0.0896531 0.0381167 0.0433897 0.0670595 0.111924 0.071825 -0.00159383 0.000553232 0.0961454 0.0801269 0.0376567 0.062921 0.0538591 -0.0912415 0.0574013 0.0295235 -0.092053 -0.100478 0.0734861 0.014218 0.0444835 -0.0528045 -0.102941 0.0138734 0.102443 -0.0669752 -0.0907472 -0.0740489 0.0517121 -0.0550605 -0.0858384 -0.0291608 0.020896 -0.0982883 0.0492373 -0.103745 -0.00486592 0.0582818 0.0781826 0.0373515 -0.084493 -0.0106864 -0.0748973 -0.098104 0.104888 -0.0139657 0.0733755 -0.0311032 0.0101684 0.0141102 -0.00974916 0.0996844 0.0539002 0.0176448 -0.000593216 -0.0862095 -0.106466 -0.0839548 0.0425569 0.0321431 -0.0784686 -0.05987 0.0833745 0.0251074 0.0112845 0.0986335 -0.0635872 0.105157 0.0623078 -0.093009 -0.0651082 0.102976 0.0960529 0.0225794 -0.100017 -0.0397669 -0.0731353 -0.0203157 0.0129744 0.0337014 0.0216678 -0.0252585 -0.0115474 -0.115961 0.000711257 -0.0489923 0.0966734 0.0863764 0.0472197 -0.0665184 0.043946 -0.102926 -0.072646 0.0806168 0.0248372 0.0708653 0.0524059 -0.0850924 -0.00678432 -0.0173403 0.0934017 0.0302584 -0.00436756 -0.0598966 -0.0444492 0.116799 0.00379603 0.0591957 -0.0716364 0.101486 0.0413646 -0.0701944 -0.118037 0.038483 -0.0147707 0.0233638 -0.00494728 -0.0702329 -0.110428 0.0048791 0.0165608 0.0936577 -0.000404878 -0.0644103 -0.0517154 0.0856086 -0.0817522 -0.0219538 0.00733463 -0.08227 0.0694021 -0.0362704 -0.0441595 0.0574408 -0.078346 -0.0505361 0.085339 -0.0609089 -0.095872 -0.101477 0.0168997 0.0823526 -0.0851844 -0.0249311 0.062063 0.0569921 0.0969206 -0.0621732 -0.0852141 0.0146117 -0.101398 0.0418013 -0.0731722 0.0938361 -0.077158 -0.00164281 0.122207 -0.0759528 0.0871082 0.0670782 0.0650229 0.0964539 0.0666268 -0.0411177 -0.0530878 0.0217512 -0.0585016 -0.0740968 0.0332417 -0.0821469 -0.00393935 0.0518001 0.0236969 -0.117826 -0.101512 -0.123622 0.0630887 -0.0889206 0.0698913 -0.0134499 0.103352 0.0673669 0.0971989 0.0922406 0.106355 0.0341168 0.0170459 -0.0576417 -0.0693837 0.0944017 0.0826392 0.1116 0.00876254 0.0391232 -0.0543728 0.0825017 0.0215456 0.0433354 0.016765 -0.0924817 -0.0136961 0.0970457 -0.0476072 0.0741973 -0.0982089 -0.0152084 -0.0914113 0.0160093 0.0662008 0.087039 -0.0409576 0.0782413 0.0720086 0.109777 -0.0149349 0.10443 0.0475951 0.102935 -0.00601296 0.0911767 0.0133638 0.052354 0.0474796 0.0974548 0.0279143 0.0473266 0.0492434 -0.103238 -0.0262286 -0.024621 0.0455748 0.0282025 -0.0975385 -0.0704307 0.000613091 -0.109949 0.0394779 -0.0299547 -0.0618147 0.0946981 0.0386098 0.0396914 0.0339482 0.11765 0.0655433 0.0857186 0.129867 -0.0341261 0.00031185 -0.0577932 0.0719359 -0.0100873 0.0111071 -0.0459338 0.022058 -0.0290369 0.0836553 0.0104537 -0.0526613 -0.0057683 0.0665848 -0.111646 0.0262928 -0.142207 -0.137189 -0.0571102 -0.0518591 -0.079764 -0.122076 0.00106405 0.00932782 -0.0519678 0.0996456 -0.0713452 0.0834011 -0.0771734 -0.040227 0.0369664 0.047285 0.137558 -0.0144481 -0.0876758 -0.096623 -0.032217 -0.0733896 0.0349654 0.0555362 -0.113741 -0.0275085 -0.126947 0.0806107 -0.128814 -0.113839 0.0227047 0.0561396 0.00140069 0.00909927 0.0900802 -0.0431786 0.112957 -0.0164986 -0.0859854 0.117787 0.0774207 -0.0678708 0.0188313 -0.00996379 0.0337953 0.134576 -0.0692665 0.100134 0.037548 -0.0467163 0.0511615 0.0643681 0.0441751 -0.0179442 -0.0382542 -0.0360688 -0.0538726 -0.0122198 -0.124162 0.0693918 -0.0285912 -0.0855955 0.0204856 -0.0687871 0.00459451 -0.0852029 -0.0275279 -0.0105584 -0.0217199 -0.0338659 0.127437 -0.0415833 -0.0319903 0.0119492 0.0879495 0.122934 -0.0662758 0.0407649 -0.0413639 0.0351179 -0.0291385 0.0583145 0.0728623 0.0557283 -0.0540553 -0.0198273 -0.0711486 -0.0482377 -0.130269 -0.0256276 -0.0458511 0.0673751 0.0654876 -0.097096 -0.0888543 0.0929546 -0.0244851 -0.0578518 0.0666606 -0.0601335 0.0979595 -0.0173123 -0.0208045 0.0710524 -0.0948836 -0.0358208 -0.0685916 -0.0179932 -0.0647625 -0.00185493 0.0598869 -0.00361638 -0.106967 -0.0322718 -0.0249055 -0.13275 -0.0107291 -0.0448831 -0.106682 -0.145226 -0.0306042 0.0373099 -0.0392451 0.0441584 -0.054535 -0.0629862 -0.0529108 0.0550054 -0.100597 0.0346502 -0.0437056 0.0351529 -0.037765 0.0307868 -0.0411055 0.0651281 0.0487334 -0.116583 -0.0628635 -0.114678 0.0552948 -0.046014 -0.109135 -0.0511702 -0.00259891 -0.0826757 -0.073137 -0.152316 -0.0734829 -0.0586717 -0.0969318 0.051635 0.00803749 0.0325163 -0.0547297 -0.0862091 -0.0664843 0.100594 -0.0606469 -0.0464197 0.0844601 0.0239235 -0.104275 0.046033 0.0201381 0.0648361 0.0529304 -0.0163064 -0.0564321 -0.156972 -0.0370312 -0.155066 -0.0923234 -0.142094 0.038573 -0.104562 -0.00456366 -0.0960722 0.0684381 0.0618619 -0.0500148 0.0754062 -0.0996049 0.0207747 -0.000515446 -0.0383253 0.0036216 -0.0458868 0.0722698 0.0343099 -0.0904672 -0.0410583 0.0217418 0.00641051 0.0621954 -0.0335682 0.00141435 -0.0762385 -0.0644119 0.0315658 -0.0575665 0.0158285 -0.0358387 -0.0840674 0.0791523 -0.0476332 -0.0653777 -0.105219 -0.0639376 0.0354174 -0.0907797 0.0627497 0.00882362 -0.0458652 -0.0611696 -0.083271 0.0692311 -0.037815 0.00604233 0.101958 -0.0202535 0.0586337 0.112267 -0.0345008 0.0670274 -0.0263585 0.0724962 -0.016005 0.0284204 -0.0177683 -0.0345591 -0.00708277 0.023083 -0.046466 -0.0237587 0.00810403 0.105277 0.102062 0.0126151 0.0604399 -0.0545521 0.0498991 -0.0668804 -0.0612846 -0.0083406 -0.0952609 0.0663196 0.0105985 -0.0944425 0.0679739 0.12386 -0.0269806 -0.064026 -0.0563209 -0.0926704 -0.0811377 0.0492292 -0.00931735 0.0965921 -0.118343 -0.0316875 0.0466213 0.0558012 -0.0242384 0.0948308 0.0234801 0.0902789 0.0231287 -0.0858334 0.0827486 0.0376385 0.00709207 0.0921928 0.031316 0.111434 0.0905857 -0.0918978 0.0992516 0.0484536 -0.00708172 -0.027652 -0.00813224 -0.0321797 -0.0718178 -0.076122 -0.0398438 -0.0882108 -0.0108596 -0.0623775 0.0393439 0.0934218 -0.0674088 -0.0627813 0.0547929 0.0775304 -0.076772 0.0644613 -0.019109 0.058092 -0.0932302 0.087398 0.0412984 0.0160579 0.0657334 -0.0198259 0.0870237 0.0361474 0.089014 -0.108588 -0.0231879 -0.00731156 0.0596276 0.120524 -0.0292064 -0.0395514 -0.0282181 0.0419427 -0.0192832 -0.0417327 -0.0346177 -0.0373549 0.0983529 0.0122272 0.0163657 -0.0924481 0.0709478 -0.0374798 -0.0231374 -0.0672472 0.0179242 -0.0660782 0.100356 0.0638782 -0.0125989 0.0133178 -0.054552 0.00922375 -0.100354 -0.0618974 -0.0381227 0.105911 0.0226515 0.0603521 -0.0112003 -0.0680823 -0.069067 0.0954053 0.0563542 0.000692646 0.0902128 -0.0906995 0.0563388 -0.0758959 0.0543158 -0.0903303 -5.53174e-05 -0.0369305 -0.0454551 0.00906531 0.0892477 -0.0828771 0.0287795 0.0697964 0.0923099 0.0606529 0.0820455 0.0707137 -0.0257977 0.0136858 0.0705566 0.0738201 -0.065147 0.106812 0.00385993 0.103456 -0.011139 -0.0165296 -0.0709226 0.00760217 0.108205 0.132374 0.00690056 -0.0725853 0.118081 0.122333 -0.0440103 -0.0424564 -0.00514723 0.0256196 0.0948921 0.00894609 0.0295968 0.0235051 0.00919194 0.011123 0.149706 -0.071072 0.0240977 0.103814 -0.0618317 0.114363 0.0043353 0.0241789 0.00253582 0.12114 0.074322 0.120846 0.0240338 -0.0429094 -0.0569469 0.128416 0.11178 0.117725 0.0915181 0.0635392 0.0244408 0.0931596 -0.0381516 -0.0593929 -0.0349581 -0.0959314 0.056443 0.102208 -0.0687725 0.0835687 0.000840551 -0.0185706 -0.0353967 0.0858826 0.0667291 0.0680856 -0.019025 0.0763886 0.0925942 0.112512 0.0696012 0.0743185 0.0317103 0.014623 0.00290983 0.040211 0.0933937 -0.0874048 -0.0979537 0.00793242 0.0164791 -0.0787151 -0.0115898 -0.0416785 0.0441688 0.0896494 -0.0246202 -0.0860979 0.0515157 0.104458 0.0413138 0.130666 0.0982337 0.136597 0.0677051 -0.064347 0.0321335 -0.00272491 -0.00389359 0.124458 -0.0398346 0.102841 -0.0101058 -0.0707095 0.106334 -0.0113231 -0.0647883 0.0314446 0.011108 -0.0381988 -0.0866098 0.0513884 -0.00205167 -0.0951426 -0.0320573 -0.0684918 -0.102205 0.0521847 0.0427414 0.136775 0.107007 0.117949 0.0774472 0.00873993 0.0557985 -0.0741342 0.0911116 0.132721 0.023973 -0.0562897 -0.00280796 0.0971925 -0.0176194 -0.0586866 -0.0555632 -0.0148566 0.014042 0.0331228 -0.0960599 0.0396756 0.0898923 -0.0542404 0.0345724 -0.079172 0.0577579 -0.113496 -0.0107317 -0.0830566 -0.0354293 0.0109103 0.078855 0.123218 0.0227711 -0.0701388 0.108465 0.0505843 -0.0443668 0.0169145 0.0481286 0.0264006 -0.0409564 0.0146675 0.0508547 0.0784468 -0.00981667 0.0227558 -0.0713028 0.110458 0.039439 -0.104983 -0.0660215 -0.0356011 0.0418923 0.0215831 0.0653797 0.00659666 -0.050732 -0.0573792 -0.0961946 -0.0349684 0.105423 0.00181936 0.127127 0.108039 0.056925 -0.0401056 -0.0593064 0.116714 0.128653 0.0753483 0.0315201 -0.0397174 0.0482588 0.0565695 0.119884 0.0794489 -0.091568 -0.0730474 -0.0331066 -0.0264184 0.0554278 -0.0870642 -0.0263427 -0.0152936 0.0705483 -0.0109785 -0.0298281 -0.0013657 0.0113853 0.0880673 0.000180781 0.0623361 -0.0198856 0.0730301 -0.0827715 -0.00911148 0.12054 0.0951202 -0.030056 0.102035 -0.00271771 0.0988394 -0.0181722 -0.101103 0.0132826 -0.111497 0.0827846 -0.0745526 -0.0251515 0.0789137 0.0814774 -0.0955478 -0.0459539 -0.130905 0.0833725 0.0784601 -0.00817538 -0.0965361 -0.00574187 -0.058398 0.0612466 0.0566524 0.0301558 -0.0610797 -0.00466555 -0.0495813 0.0235076 0.0496474 -0.00417295 0.116349 -0.065097 0.0122454 -0.0655999 0.0177463 -0.111333 0.00277991 -0.133369 0.0375403 0.00925541 -0.0176195 0.0759061 -0.069961 0.0756424 0.0229721 0.0599997 -0.040872 0.0696469 -0.0836395 0.0334721 0.0292885 0.00530334 0.0550211 0.0642691 -0.00832756 -0.00820855 -0.0464258 0.0154742 0.00795993 0.112053 0.0228828 -0.109539 -0.115271 -0.0372185 -0.0751096 -0.129514 0.0520533 0.0061528 -0.135843 -0.0484058 -0.109725 -0.105369 -0.0386198 0.015357 0.0364551 -0.121482 -0.122412 -0.0948736 -0.121101 -0.0949649 0.051534 -0.0417706 0.0848632 0.0561791 -0.0140747 0.0586828 0.107024 0.0250813 -0.063931 -0.0447746 -0.000858901 -0.0563397 0.0195229 -0.108357 -0.110126 -0.100951 -0.0479581 0.0677047 -0.0369641 0.0818546 0.00434957 -0.0358553 0.0139588 0.0048268 0.00694146 -0.076766 -0.113804 -0.0078402 0.00777758 0.017137 0.0609247 0.0392889 -0.0275374 -0.00247297 0.0138968 0.028961 -0.0486674 0.0977619 -0.0783724 0.0564983 0.11488 -0.0642969 -0.112213 0.0794852 0.0791068 0.0319083 0.0564824 -0.113014 -0.0345189 -0.0167607 0.0543101 0.0568761 0.0585565 -0.0644692 -0.0335851 0.123935 -0.00614695 -0.0700528 -0.0757085 0.0572185 0.0677537 -0.103602 0.0226877 0.0513401 0.0588099 0.126117 0.106395 -0.0894824 0.029351 0.0943776 0.00870709 0.059564 -0.0305567 -0.0353253 0.0756427 -0.0356368 -0.0242006 -0.0242766 0.0309009 0.0729676 -0.0251681 0.0990633 0.0236981 0.0143999 -0.00181203 0.0999869 0.0447627 -0.0206602 0.0788032 -0.0749685 0.0316667 -0.0857546 -0.0712123 -0.00201045 0.0508119 -0.0803552 0.0342254 0.0133487 -0.00921683 0.0687741 0.00131908 0.0376984 -0.0930878 -0.113457 -0.108652 -0.109124 0.015668 0.0770808 -0.0705354 0.0335842 0.0591427 0.140986 -0.0438418 0.0792161 0.158544 -0.0158968 0.139916 0.118473 0.0532073 -0.0319035 0.0372807 -0.00271016 0.121109 0.0489105 -0.0472593 0.0937734 0.0505773 -0.0345934 -0.0982685 0.0879449 -0.0547409 0.0627274 -0.108873 -0.00529519 0.0223977 -0.0160072 -0.00223436 -0.02352 -0.00391289 0.0528261 -0.0711435 0.0901831 0.0368249 0.140325 -0.0471608 0.080407 -0.0201755 0.084154 0.102488 0.108755 0.0224657 0.0528524 0.000446463 0.00961229 0.0853242 0.124959 0.0370592 -0.0990455 0.104128 0.0130918 -0.101369 -0.0436098 -0.0353487 0.0704815 -0.0461768 0.0185413 -0.0676117 0.0635029 -0.022304 0.0194214 0.139066 0.0190962 0.141819 0.120814 0.09029 0.0595418 -0.0113169 0.106734 0.0185223 0.0937434 -0.051158 0.0183451 0.0409939 -0.0560533 -0.0252756 -0.0383461 0.058707 0.0521514 0.0171002 0.0302376 -0.0762835 0.0991061 0.062825 -0.0876128 -0.0937311 -0.0412732 -0.0750954 0.0471054 0.027997 0.0951033 0.0934638 0.0621422 0.0148162 0.0911109 0.10067 0.0120519 -0.00271812 -0.0171823 -0.0425009 -0.00871664 -0.0861532 -0.100014 -0.113874 0.106345 -0.0708803 -0.0448317 0.0135395 0.0190495 -0.0315014 0.115627 -0.0542933 -0.068927 0.0228849 0.0747226 -0.0577547 -0.0408548 0.00135952 0.0767898 0.0404293 -0.0469883 -0.019371 0.0814757 0.101019 0.133171 0.0624671 0.0615165 -0.0126562 0.0173752 -0.0422721 -0.0998412 0.0854248 0.0232051 -0.0421647 0.0396112 0.0971361 -0.0790341 -0.0754205 0.067845 -0.0634226 0.052859 -0.0745819 -0.02454 -0.0480061 -0.0841211 -0.0671487 -0.0147003 0.0343365 -0.0364531 -0.0628549 0.110963 -0.0585444 -0.0170725 0.107461 0.0147793 -0.0471227 0.0556381 0.0586646 -0.046709 0.0678417 -0.115009 -0.0474516 0.0353668 -0.0220274 0.115631 -0.00992613 -0.0820955 0.00977874 -0.0138519 0.130214 -0.0314124 0.0195469 0.0353466 -0.0284658 -0.0874032 -0.0883778 -0.0590929 0.015937 0.0810646 -0.057854 -0.0271008 -0.0355021 0.0252357 -0.00585609 0.136328 0.0302979 0.0877008 -0.0416655 -0.0898877 0.00887103 0.0601434 0.00216265 0.0471849 -0.0511358 0.0560765 0.106511 -0.015014 0.101684 -0.0161747 0.00331604 0.121531 0.0343876 -0.0499606 -0.0184001 0.0137826 -0.0715895 0.0416295 0.0959881 0.0220375 0.0297144 0.0926972 0.066526 0.0922477 -0.0350196 0.0609716 0.0733922 0.068862 -0.0700794 -0.091467 0.0201177 -0.0596507 -0.0796843 -0.093794 0.054507 -0.072426 -0.00145043 -0.00757039 0.0925059 -0.0904471 0.111466 0.108934 0.125486 -0.0350753 0.0401289 0.039954 -0.0695462 0.0234134 0.0964111 -0.0525005 0.0252928 0.0754492 0.0650801 0.0281902 0.025726 -0.0573967 0.0347447 -0.108403 -0.0937405 -0.0357047 -0.0952789 -0.084657 -0.0288283 -0.119974 -0.0747866 -0.0480641 0.0536337 -0.0902876 0.122212 -0.0107012 0.0826846 -0.080601 -0.000855525 -0.0496845 0.0687763 0.00955677 0.0388867 0.022469 -0.0254047 -0.01135 0.0241198 0.0295454 -0.0550273 -0.0776719 -0.0105871 0.120001 -0.0505636 -0.0831384 0.0718502 -0.153693 -0.0420652 -0.16597 -0.0994954 0.0564095 -0.056719 -0.0779355 -0.0555025 -0.0466988 -0.0429179 -0.0688418 -0.105415 -0.0715668 0.0862765 -0.110903 0.0264595 -0.0909452 0.056227 0.0668076 -0.0831856 -0.0128291 0.0404517 0.0828136 -0.0898986 0.0022667 0.0962367 0.00313063 0.11691 0.0735513 0.0841699 -0.0433537 -0.150278 -0.0170983 -0.0935313 -0.132562 -0.0462145 0.0819412 -0.0649646 -0.0203619 -0.0977216 0.0815197 0.0594222 0.0949404 -0.0817369 -0.0863007 0.0626537 -0.00623183 -0.0738185 -0.103307 -0.117182 -0.0665933 -0.0861936 -0.00956337 0.0197476 -0.00714414 -0.0175008 0.0617244 0.0516114 -0.0151614 -0.00142379 -0.126631 -0.146525 -0.117872 -0.0975067 -0.1089 -0.0363466 -0.0397767 -0.000407851 0.132586 0.0870709 -0.053519 0.104213 -0.0812631 0.0300916 -0.00113002 0.000990923 -0.163285 -0.123455 -0.0305062 -0.107188 -0.139538 -0.105525 -0.0970665 -0.0557057 -0.0749798 0.0143895 -0.0497514 0.0824163 -0.0225353 0.0893884 0.0474352 0.047218 0.00348969 0.0595297 0.00160936 -0.0248579 0.0651181 -0.0166483 -0.0937157 -0.00314114 0.0215164 -0.0905257 0.0814675 -0.127952 -0.0597064 -0.11458 -0.0847372 -0.0936206 -0.0708262 -0.115492 -0.104733 -0.0876058 -0.0558051 0.0750756 0.0822469 0.0314133 0.0302658 -0.00962304 0.106148 -0.0212467 0.0716771 -0.0942077 0.084816 -0.0752068 0.0782429 0.115834 -0.0686436 -0.0874872 -0.0197784 0.0300335 0.0927791 -0.0513767 -0.0973632 0.0549003 0.00488545 -0.108927 -0.0997756 -0.114167 0.0760179 -0.0624299 -0.126729 -0.106886 0.000800625 -0.0887133 -0.0440374 -0.0698395 0.0225247 0.0467585 0.0795588 -0.0758956 -0.0274709 -0.0389576 -0.0727813 0.0792265 0.0752391 -0.0172889 -0.050747 0.024016 -0.024526 0.0339449 -0.0737475 -0.0676493 0.0140856 -0.0475999 -0.102695 -0.130327 -0.0267423 0.0713113 -0.00617603 -0.125148 -0.0783577 -0.0789901 -0.0489551 -0.0883581 -0.0756717 0.0377921 0.102297 -0.0523551 -0.0482447 0.042145 0.0560524 0.0188191 -0.0659515 -0.0512769 -0.0820748 -0.0604737 0.0178222 0.0983072 0.0617286 0.047663 -0.0451722 0.0155176 0.100765 -0.123707 -0.0221654 0.00104117 -0.000402395 0.0823292 0.0910031 0.0705628 0.0546062 0.0837877 0.0619938 0.0784951 -0.0116902 0.0182092 -0.0260146 -0.0655181 0.0474647 0.0772579 -0.0112327 -0.0719008 -0.0873914 0.0276098 0.0395386 -0.0861666 -0.0258807 0.00265553 0.0892991 -0.101391 0.0540109 -0.0613966 0.0538718 -0.0469401 -0.0142255 -0.0975878 0.0750651 -0.0482382 -0.0369798 0.0548617 0.107451 0.11177 -0.0949279 0.0325564 -0.0373595 -0.0739616 0.0371821 -0.00819322 -0.0872069 -0.0637434 0.006926 -0.00852824 -0.0908919 -0.0367592 0.0868519 0.0245087 -0.0519327 -0.0548526 0.0288139 -0.063497 -0.0623043 -0.0333143 0.0958546 -0.115787 0.0890056 -0.106863 0.024675 0.0203762 0.0240269 -0.000940967 -0.0288148 0.0675738 -0.0113474 -0.0940088 -0.0192743 0.0172379 -0.00324241 -0.0956069 0.0235856 0.0723297 -0.0184601 -0.100753 -0.0659975 -0.0687056 0.0573995 0.00827197 0.109877 -0.0264949 0.104145 -0.0393153 0.0321052 0.0113064 -0.102852 -0.108651 -0.104327 -0.103342 -0.0205487 0.0751429 0.037726 0.0733563 -0.0363233 0.0245404 -0.00854993 -0.0354356 0.0783455 0.0370267 -0.000129309 -0.106071 0.0125538 0.0188464 0.088567 -0.0349089 -0.0440804 0.055123 0.0109895 0.089573 -0.0439173 -0.0974347 -0.0769328 0.0223408 0.0459357 -0.026495 0.0554112 0.0204277 -0.114293 -0.0336722 -0.051791 0.0771448 -0.0278657 0.0706881 0.0107011 -0.101864 0.0466157 -0.0925999 0.044571 -0.0621598 0.0568544 0.0688399 0.0149128 0.0502392 0.0563423 0.0122269 0.105231 0.0222636 -0.0607946 -0.0870902 -0.089984 -0.0615691 0.109798 0.0719372 0.0190843 -0.0870322 -0.103855 -0.00336337 -0.0564717 0.0643503 -0.0609439 0.0987852 -0.0165341 0.0879363 -0.0611813 0.00592445 -0.0551158 -0.0334449 -0.108807 -0.0568222 0.0239182 -0.0284087 -0.052812 0.0865322 -0.0267552 -0.0584661 -0.0329612 0.0224346 0.10795 0.0469127 0.0802201 -0.0875729 -0.0201683 0.030247 -0.0886685 -0.114272 0.0866973 0.0828379 0.109996 0.00603858 0.112742 -0.0592311 0.115747 0.0435518 -0.00768783 -0.0403984 0.061178 -0.0537119 0.0924799 0.125184 -0.0776574 -0.0934611 -0.0997908 -0.0707962 0.0712596 -0.106359 0.012304 -0.00329304 0.026775 -0.0110641 0.0575844 -0.082811 -0.13083 0.0221101 0.0494932 -0.0856584 -0.0533501 -0.0948778 -0.0917615 0.121167 -0.0465054 -0.0823074 -0.044788 -0.0422199 0.0482033 0.0959866 -0.0164474 0.053595 -0.0686076 0.110457 0.0144283 -0.103169 0.0484629 -0.0913931 -0.121819 -0.0213156 -0.125955 -0.0968373 0.0464341 -0.0702165 -0.149689 -0.0268064 -0.0575969 -0.120155 0.0212372 -0.000580131 -0.015323 -0.0586076 -0.00251672 -0.0551776 -0.046315 0.0519953 -0.0248254 0.138605 -0.00575431 -0.0410534 0.135055 -0.0473219 0.0235331 -0.0510476 -0.0238137 0.0894865 -0.0399332 -0.0388027 -0.114163 -0.129646 -0.0172609 -0.133633 0.0435549 -0.0129366 -0.0412555 -0.0155236 -0.0696784 0.0767409 -0.0320866 -0.0387335 -0.0660149 0.0306039 0.0779305 -0.0165785 0.0647124 0.00585749 -0.033961 0.075622 0.0920627 0.137642 -0.0256494 0.0186474 0.0557525 0.00245317 0.140974 0.0141008 0.0778136 -0.00371514 -0.0331674 0.0652274 -0.021969 0.00203186 0.0143395 -0.0230326 0.0611341 0.0767037 0.0126921 0.0817097 0.0440752 0.108823 0.00141701 -0.0362921 0.149375 0.0408953 0.114168 0.15392 -0.0205723 0.0155687 0.0196611 -0.0324092 -0.0232834 0.1476 -0.0428813 0.0448634 0.144281 0.049677 0.0267428 -0.0327067 0.0200364 -0.0462965 0.0137675 -0.0334993 0.0880504 0.0495875 -0.0483633 -0.0597957 -0.104482 0.0870025 -0.0449163 0.0138497 0.107068 -0.0444769 0.0782962 -0.00628415 0.0186813 0.144596 0.151763 0.168661 -0.0134623 0.0112727 0.152223 0.151406 0.138217 0.151496 0.0791059 0.0891651 0.00725321 -0.0157343 0.00523733 -0.101983 -0.0544501 -0.111229 0.052635 0.0726979 -0.114603 0.0795669 -0.109637 -0.0152565 -0.0310643 0.0917779 0.045774 -0.0160245 -0.0453546 0.0911036 0.00878094 0.0608356 0.170744 0.0610973 0.00463004 -0.0361838 0.140086 -0.0487752 0.118091 -0.0082688 -0.0496154 -0.00564399 0.0108292 0.0280565 0.0930421 -0.0188686 0.0618578 0.0832942 0.0520984 0.0126213 0.0523299 0.0135905 -0.0897358 -0.0928457 -0.0513491 0.00843686 0.118773 0.0963487 -0.0524969 0.125785 -0.00809915 -0.0426381 0.0926433 0.11605 -0.030106 0.144824 0.0638911 0.0171027 -0.059694 0.0572898 0.0908075 0.105423 0.12096 -0.00634445 0.0358774 0.0966035 0.0844701 0.0035668 -0.0543867 -0.0369171 -0.0358491 -0.0780532 0.0109985 -0.0780608 -0.0222358 0.0113141 -0.0908626 0.0570042 0.117269 -0.0863885 -0.0394557 -0.0565786 -0.0596608 0.0829698 0.095191 -0.0647207 -0.0218613 -0.0866445 0.0106063 0.0385913 0.105756 -0.0843702 0.0810506 -0.0897008 0.00841724 0.0481123 -0.0273194 0.0532417 -0.0931004 -0.0444424 -0.0307902 -0.00294854 0.0604993 0.0454884 0.0129604 -0.0999283 0.0441718 0.0907205 -0.0295841 0.0403955 0.0791056 -0.0544688 -0.0763371 0.0173319 0.0533264 -0.072015 -0.0183067 -0.0546838 -0.0152779 0.0646357 0.043637 -0.0628828 -0.058487 -0.0148124 0.00733131 -0.0400376 -0.103342 -0.0336129 -0.0320211 -0.0543272 -0.090636 -0.0555658 -0.0918771 0.075157 0.0851308 0.0243419 0.0790555 0.0349014 -0.051379 -0.105892 -0.0937355 0.0554876 0.0384057 0.00594098 -0.0593402 0.0455341 -0.0641421 -0.045888 -0.0212825 -0.0170252 0.0223915 -0.0316412 -0.0288902 0.00261038 -0.0341402 0.0676298 0.0100214 0.0453504 -0.0937824 0.0560722 0.0741862 0.0293763 -0.108464 -0.078683 -0.0493592 0.107666 -0.0280117 0.114247 -0.107015 0.0935819 -0.0393908 -0.0259868 -0.0947316 0.0603266 -0.11653 0.0407002 0.00247765 0.012559 -0.0252894 0.0702298 0.0573065 -0.0877327 0.0419733 0.00426047 -0.00454872 0.034997 0.097749 0.0629344 -0.0451278 0.0621421 -0.0903362 0.0553812 -0.110303 0.06482 -0.0609153 -0.0951148 -0.0806933 -0.0118475 0.0817016 -0.125389 -0.130981 -0.042049 -0.0783289 -0.0768551 -0.00913698 0.0337062 -0.0871982 -0.120377 0.0608245 -0.0518895 -0.067598 0.0259702 0.10312 -0.0927743 0.0455577 0.0271185 -0.0923981 0.116044 -0.0531326 0.0413372 -0.0182022 0.0647088 0.0677501 0.00317555 0.00778 -0.0275811 0.059211 -0.0862697 0.0372339 -0.0702801 0.00468015 -0.0373654 -0.114215 0.00199467 -0.0292277 0.0531341 -0.0107383 0.0823342 -0.0796721 -0.0134323 0.0615482 -0.10096 -0.0320832 0.0293817 0.0376541 -0.00689834 0.0484532 0.00712174 0.0945509 -0.0581704 0.0945726 -0.133293 -0.0682046 -0.0699887 0.0314938 0.0156328 0.0195433 -0.0658354 -0.0170044 -0.0350432 0.0213496 -0.0611126 -0.00592195 -0.0618172 0.039497 -0.00895067 -0.0518812 0.0224886 -0.0294451 -0.00213203 -0.0311395 0.0260504 0.102836 0.0417056 0.0273327 -0.0540617 -0.0154794 0.0966215 0.0928394 0.115406 -0.0238072 0.0860908 0.0025086 -0.0898192 0.0137513 -0.0616805 -0.0531968 0.0910643 0.09136 0.00403437 -0.0906268 -0.0259816 0.0923783 0.0816516 -0.0176265 -0.088028 0.0612752 0.0252342 0.113815 0.120329 0.106259 -0.0259656 0.0996464 0.115923 0.0595116 -0.00991387 0.0205116 0.0284146 -0.0780011 -0.0475674 0.0453627 0.0295359 -0.0642725 0.0332506 0.0359361 0.0594961 -0.0118152 -0.069505 -0.0775976 -0.0699916 0.0546993 0.09545 0.092033 -0.0638662 -0.0808476 0.061559 0.0672909 0.00903853 -0.0525767 0.0829271 -0.0120305 -0.0256173 0.105431 0.101306 0.121728 0.029851 0.0477929 0.0700694 -0.0622931 0.00939605 -0.00518254 0.073011 -0.0681756 -0.0622389 -0.103854 -0.12489 -0.108899 -0.104961 -0.0503273 0.0242883 0.0525994 0.11147 0.0857339 -0.0247297 -0.0447292 0.0939212 -0.0355851 0.101476 0.0872356 0.0720367 0.0848403 -0.0602965 0.123349 -0.0977841 -0.00430322 0.0492175 -0.0677703 -0.0392649 -0.0132382 -0.0496692 -0.0651637 -0.0194489 -0.0816039 -0.0227008 0.0722131 -0.111368 -0.0500574 -0.121891 -0.0785833 0.111002 0.0720342 -0.0853916 0.0759551 -0.00824579 0.104852 0.0899586 -0.00904527 -0.0418196 0.13417 -0.0112061 -0.0669953 0.0140622 0.0750679 0.0559259 0.102087 -0.0333213 0.109406 0.0837666 0.132994 -0.0228112 0.118963 -0.0291008 -0.0722796 0.0147396 -0.0607666 -0.0709693 -0.0729824 0.0848146 -0.102134 -0.108798 0.043649 0.091913 0.111034 0.0549719 0.0775632 0.0781567 0.00785027 -0.0448385 0.0400301 -0.0578397 0.0831866 0.0783684 0.00588228 0.0899903 0.0689153 -0.0399684 0.0659941 0.104681 0.0988522 0.120312 0.0530114 0.0534935 0.0646161 -0.103661 -0.000460744 -0.023803 0.0599038 -0.0407544 -0.0758185 -0.0104611 0.0556306 -0.0589162 -0.0233625 -0.0511514 0.0524518 -0.0809184 -0.108377 -0.0722687 0.075758 -0.0878744 -0.0539863 -0.0088693 -0.0108905 -0.0504474 -0.0864598 0.0653778 0.0416804 0.0994605 -0.0179609 -0.054375 0.0603751 0.0486373 -0.0993479 -0.131229 0.0569618 -0.145384 -0.131802 0.0387271 -0.00594928 0.080552 -0.03337 0.0972568 -0.00116389 -0.113011 0.0360651 -0.0440877 -0.100464 0.0376653 0.00676994 -0.098795 0.0506798 -0.117686 -0.142295 0.0558581 0.0225964 -0.0492806 -0.108458 -0.112977 -0.100393 -0.00398769 0.0630344 -0.0900519 -0.131729 -0.0606949 -0.093693 0.0381097 -0.138317 0.0294523 -0.0410866 -0.038031 -0.0319583 0.0465914 -0.0250377 0.0455643 0.0857951 0.0780676 -0.082489 0.0370397 