900 100 21
0.0311736 -0.059354 -0.0136362 0.081383 -0.00598977 -0.0505494 0.0652454 0.0589568 -0.0467231 0.0479857 0.00374897 0.0803353 -0.0758014 -0.0754473 -0.0615973 -0.0364026 0.0932615 0.0392996 -0.10039 0.035979 -0.101358 -0.124393 0.00674125 0.104726 -0.0971465 -0.10181 -0.125299 -0.0234928 0.0859139 0.110325 -0.0307914 -0.0429221 0.111559 0.0500429 0.0786919 -0.0651306 -0.0884683 0.0711413 0.00228335 -0.0249915 -0.0114891 -0.0415549 0.118346 0.111214 0.00505432 0.0862889 -0.0486265 -0.0347342 -0.0326265 0.0600749 -0.0942548 0.0210061 -0.022562 0.0321322 -0.0540051 -0.00174848 -0.0702622 0.0274657 -0.00734323 0.0868 -0.0227879 -0.0874637 0.0390227 0.0462903 0.0604127 -0.0392248 -0.0324891 0.00186047 -0.114639 -0.0448722 0.0741133 0.0447646 0.0413078 -0.0797514 0.0780639 0.075621 0.079923 -0.123487 0.048432 -0.0785322 0.0353968 0.0704279 -0.0645009 -0.0771223 -0.0281135 -0.0960977 0.00319482 0.00111169 0.00453218 -0.0549503 0.0734897 -0.108184 -0.0147237 0.0665958 -0.0396242 0.0602392 0.0772621 0.064981 0.0846405 -0.0138671 0.0750107 -0.106104 0.0489495 0.016657 0.0837552 -0.0832325 0.0021098 0.057602 -0.0997381 -0.11833 -0.0742485 -0.101903 -0.0744499 -0.00918375 0.00559843 -0.0565744 -0.0265095 0.012463 0.101827 -0.0915743 0.0416039 0.0144422 0.0311726 0.00705646 0.046863 -0.0131443 -0.125533 -0.0890503 -0.1157 -0.0220753 0.0452644 0.0143703 -0.0490496 0.0130936 0.0172974 -0.0904224 0.00483759 -0.0837876 0.0653544 -0.0390058 0.0244942 -0.0119638 0.016349 0.0231003 -0.0959163 0.0343697 -0.0259866 -0.0978113 -0.107899 0.0582948 0.0503575 0.0866125 0.0642464 -0.0550147 -0.125386 -0.0340965 -0.0825558 0.0814123 0.003304 -0.0261803 0.0131031 -0.04594 0.0555888 -0.0551227 -0.107163 -0.035426 0.0847877 0.0108015 -0.0069833 -0.0894434 -0.10931 -0.102136 0.0743138 0.0159912 0.0540323 0.0558563 -0.0299986 0.061106 -0.00197406 -0.0038405 0.049868 -0.0294307 -0.046145 -0.0679616 0.0736807 -0.131854 -0.0701569 -0.060613 0.0683133 0.0138978 0.00174 -0.0609901 0.0811837 -0.123409 0.0420103 0.0144364 -0.10683 0.095384 0.032821 0.102798 0.0679548 0.0288552 -0.0324991 -0.000414013 -0.0606516 -0.0805758 0.00569076 0.00611315 0.0357236 0.00302134 0.0226247 0.0446761 0.0358367 -0.0359869 -0.079238 -0.117348 -0.051704 -0.00701465 -0.0857722 -0.0378105 -0.0374704 -0.131264 0.0403537 -0.0505697 0.074339 -0.0332471 -0.0166359 0.0484399 0.102816 0.0364336 0.0705424 -0.0767932 0.0354186 -0.0423795 0.00716291 0.0578956 -0.0313749 0.0395407 -0.0539672 0.078455 0.0920795 -0.0941421 -0.0288022 0.067622 0.0875749 -0.0887331 0.0116916 -0.045799 -0.0316856 -0.123797 -0.127861 0.0418071 -0.027092 -0.067438 -0.120734 -0.120827 0.0583036 0.0857649 0.09275 0.106734 0.0719727 0.00678021 -0.0446477 -0.0835704 0.0840513 -0.0490214 -0.0097191 0.110307 0.0344399 0.0828804 -0.0512751 0.106464 0.047797 -0.101159 0.0244652 -0.0279589 -0.089564 0.00867959 -0.0538882 -0.151876 -0.0131279 -0.11072 -0.0481612 0.0289512 0.0141493 -0.0262059 -0.0398982 -0.0179956 0.0186597 0.112403 -0.0235033 0.112556 0.00658988 0.015505 -0.0355918 0.0432367 0.114845 0.0280885 -0.074872 -0.00624377 0.0286877 -0.102155 0.0774097 -0.0705742 -0.0864784 -0.114201 0.0102546 -0.161344 0.0359537 -0.0463349 0.0640639 -0.139279 -0.075772 0.0163647 0.0418421 0.00296071 -0.0213203 0.00192476 0.104087 0.01724 0.0700579 0.111554 0.0693264 0.0494964 -0.0430504 0.0515532 -0.0936021 0.121206 0.0771661 0.0507651 0.086089 -0.0673727 0.000397138 0.0718239 -0.132513 0.0354203 0.00158579 -0.105632 -0.120715 -0.0189717 0.0562285 0.0398536 0.104398 -0.0563198 -0.036646 -0.0472957 0.0932271 0.0051854 0.108973 -0.030432 0.0335701 0.0114612 0.114455 -0.00766339 0.041207 -0.0110674 -0.0279968 0.000493701 -0.00186085 0.104461 -0.0811393 0.0864419 0.0286922 -0.0132755 -0.107805 -0.0872862 -0.0728324 -0.0496661 0.0560651 0.0148282 -0.106594 0.0746416 -0.0929871 -0.0338222 -0.00696606 -0.0702561 -0.0821383 -0.0919921 0.117905 -0.0149677 0.000523197 0.0445723 0.115135 -0.0894618 0.116538 0.0212281 0.0149702 -0.0784062 0.0994418 0.0906433 0.108857 -0.0109603 -0.0421259 0.0939944 0.0986324 -0.114987 0.00820255 -0.114686 0.0239947 0.0614925 0.0629458 -0.115592 -0.0672893 0.0148416 -0.0522658 0.111771 0.0321305 0.120301 0.0367339 0.0863599 -0.03056 -0.0127289 0.130967 -0.0439565 0.124978 0.120738 0.0185335 -0.103489 0.0110587 -0.00196124 0.0522664 -0.0487812 0.0281634 0.0113898 0.0162959 -0.10012 -0.0468066 -0.0650875 0.0348127 0.0121843 0.0839943 -0.0887092 0.0656793 -0.109576 0.100342 0.00668181 -0.0337748 -0.0366168 -0.00642537 0.0996746 0.075989 0.101876 0.11802 0.0455619 0.0152815 -0.0564553 0.0180451 -0.0860696 0.00813468 -0.0945103 0.0669872 0.145353 0.0478437 -0.0416938 0.107994 -0.115574 -0.000637751 -0.122618 -0.0349442 -0.074677 0.0193226 0.0116623 -0.125047 -0.0557442 -0.0775346 0.000392657 0.0497266 0.0102309 -0.0650161 -0.119012 -0.0703258 0.0730663 -0.000815932 0.08758 0.0582383 -0.0984182 -0.0135278 -0.00105936 -0.0259943 0.0848229 -0.0803438 0.0186987 0.141814 0.15938 -0.000793812 -0.0573898 0.0860803 -0.0825594 -0.135333 -0.00203683 -0.13061 -0.0134223 0.0323119 -0.100688 -0.0786874 0.0273082 -0.0832425 -0.0907049 0.0396296 -0.0714775 -0.0542192 0.0842579 -0.0375767 0.127819 -0.0313138 -0.071456 0.0453395 0.0251117 -0.036612 -0.111093 -0.0646065 0.128159 -0.0415091 0.118251 0.100789 -0.00828 0.0970162 -0.0098204 -0.0886443 -0.115364 0.0231885 -0.0542739 -0.0847892 -0.116531 -0.0955805 -0.110723 -0.0727094 -0.12972 -0.0927937 -0.120367 -0.0869926 0.0784422 0.00675398 0.0630754 -0.0399329 0.0630549 -0.0414192 0.089262 0.0128872 0.0374439 0.0185624 0.126269 -0.042917 0.0795624 0.135075 0.0778296 -0.0353579 -0.0435016 -0.0672749 -0.0448179 0.0651062 -0.0851697 -0.0502738 -0.0711077 -0.0439628 0.0101032 0.017981 -0.0691482 -0.080898 -0.0563213 0.0706296 0.0976095 0.00483826 -0.025609 0.0555987 0.0499791 -0.0181408 -0.0796377 0.0722584 0.0294542 0.0370981 -0.013996 0.0277731 0.136393 -0.00502498 0.0470222 -0.0854499 -0.114664 0.00215562 0.0485413 0.00919161 0.0553443 0.0472712 0.0762667 -0.00508853 -0.0982006 -0.0873953 -0.0806697 -0.106025 0.0239401 -0.10369 0.0670131 -0.0191314 -0.0247553 -0.0922545 -0.116929 0.0851612 -0.0939128 -0.107498 -0.0239682 0.0610577 0.12139 0.108674 0.0187392 -0.00071951 0.0201083 0.00442832 0.0941553 -0.0614294 -0.0425385 0.0597695 -0.0214414 -0.0804172 -0.100471 0.000567189 -0.0662043 -0.0999027 0.0048169 -0.0846827 -0.030011 -0.0272114 0.0291234 -0.113175 0.000474684 -0.0388786 0.0963193 0.00368871 -0.0434406 0.0127143 -0.00266573 -0.0506217 0.154942 0.124853 -0.0281348 0.128927 0.133307 0.0976741 -0.0110598 -0.0759092 0.0954312 0.0118077 -0.00350921 0.0816978 -0.130765 0.0208796 0.0257443 0.0707975 0.039111 -0.0528576 0.025174 -0.0400349 -0.102066 -0.0375905 -0.0373721 -0.0906589 -0.0758507 0.10029 -0.0673258 -0.0731468 -0.0111919 0.0170922 0.146134 -0.0307324 -0.020164 -0.0261177 0.0738967 0.133724 -0.00739616 -0.0291111 -0.0794188 -0.0479459 0.0250573 -0.0911679 0.0939434 0.0429155 0.00769452 -0.0704638 0.0878702 -0.0809256 -0.0101634 -0.108856 0.0610937 0.0933937 -0.119217 0.0842847 -0.0829077 -0.0110745 -0.0486467 -0.109324 -0.0884489 -0.0586123 0.0988176 -0.0339059 0.112663 -0.0199677 -0.0783846 0.0563613 -0.0731329 0.100946 0.0398049 -0.0424239 0.0659042 -0.00987172 -0.011205 -0.0493398 0.0952466 0.0793974 0.0093835 -0.014146 0.112622 0.0922974 -0.0757222 -0.11245 0.00597463 0.0311033 0.0855666 0.00536388 -0.0127556 0.074691 0.0677835 0.0644328 -0.0897672 0.031583 0.121236 -0.0264388 -0.0309374 0.118162 0.0874868 0.101849 -0.103822 0.087242 -0.00671718 0.0540381 -0.0878197 -0.0368003 -0.0496355 -0.0284532 0.102878 -0.044027 -0.0677837 -0.00838776 0.109263 0.0968797 -0.0175119 -0.106516 -0.0257545 -0.00372496 8.48232e-05 -0.0994451 0.0784423 -0.0306657 0.121124 0.0107896 -0.0531119 -0.0297826 0.0844527 -0.0139446 -0.102171 -0.0681278 -0.0514577 -0.0230265 -0.0510325 -0.0859256 -0.0519095 0.00585937 0.0577953 -0.035593 0.0393101 0.0235599 0.0439208 0.093238 0.0879296 0.123165 0.109189 -0.00163883 0.112019 -0.00856137 0.0292663 -0.108552 0.0901214 0.0790683 0.0839283 0.0209654 0.0905781 -0.054878 0.0446688 -0.0893432 -0.10435 -0.0757856 0.0387108 0.099724 0.0902132 -0.0683519 0.0892931 0.107654 0.00162386 0.126459 -0.0543337 0.0625394 -0.0707674 0.0611569 -0.0326439 0.0687274 0.0664223 -0.0511769 0.0118027 0.0414881 0.038262 0.0409278 0.00258479 -0.0990612 0.0759142 0.00885678 0.0874298 0.0838111 -0.0187553 0.12406 -0.071428 -0.0779665 0.0471024 0.102775 0.0566634 0.0749048 0.0114284 -0.0177936 -0.0635877 -0.0180616 0.00607902 0.0801147 0.041251 0.0705484 0.00591171 0.0138577 -0.00222787 0.0653043 -0.0775606 0.0262652 -0.0574645 -0.0779476 0.0327183 0.0212004 -0.00177954 0.0933179 0.119952 -0.0767154 0.0688856 0.107692 0.0912158 -0.00160012 -0.0733893 -0.0931329 -0.00190422 -0.0675116 0.0290228 0.0374619 0.108343 -0.0536614 0.0180824 -0.0480095 0.0910092 0.0728569 -0.00661039 0.016319 0.121524 0.0189785 0.10825 -0.0119577 0.0943547 -0.0716389 -0.0656544 0.0355508 -0.0544333 0.10249 0.0481152 0.0530003 0.0956466 0.0860076 0.0890388 0.00345153 -0.0166444 0.0279789 0.0772247 -0.0841332 -0.108627 0.0261836 0.0961289 -0.000256618 0.00404197 -0.0684588 0.133019 0.119874 -0.0288793 0.0827523 0.0129057 -0.0506458 -0.0445311 0.0950611 0.0207072 -0.0174252 0.0600472 -0.0439975 0.0962161 -0.0467753 -0.103256 0.0815031 0.0490527 0.070995 -0.0227049 0.111754 0.0734892 0.118017 0.00144641 0.00745511 -0.0730319 0.00193115 0.0475807 0.0129041 0.11462 -0.100667 0.00415286 0.0838063 0.0326997 -0.0512071 -0.120921 -0.10572 -0.00977926 -0.069627 -0.0834013 -0.0641273 -0.104031 -0.0545218 -5.74377e-05 -0.0671722 -0.0546688 -0.0412195 -0.0302259 0.0470198 0.0271253 0.0346805 0.113356 -0.0904043 0.10534 0.0745089 -0.0935079 0.0374582 0.0190768 0.0618088 0.0697456 -0.0480381 -0.0365624 0.0183826 -0.0994535 -0.0659581 0.0972947 -0.0875544 0.102792 0.091597 -0.036745 -0.0666253 -0.0497707 0.0638104 -0.0774641 0.0900724 0.0185846 -0.0963497 -0.10017 -0.0613646 0.121895 -0.0803239 -0.0531467 0.00174981 0.0975951 -0.0042771 0.0768039 0.0192811 0.0143155 0.0458467 0.0215687 0.0889984 0.0758203 0.0844284 0.0835405 -0.0855315 -0.03376 0.0616885 -0.0844561 0.0950395 0.0301802 -0.0154523 0.0218631 0.0322261 -0.110508 0.036842 -0.0124622 -0.0931998 0.0166304 0.0227385 -0.0230581 0.102651 -0.0442067 0.111425 -0.0598574 0.106935 0.0433878 0.122571 0.0213645 0.0456954 0.11659 -0.0488926 0.0810505 0.0958835 0.0696106 -0.0888249 -0.0647849 0.0949371 0.0532678 -0.0870019 0.0782881 0.0882202 0.0960922 0.0307275 0.0325837 0.126223 0.0398321 -0.0876765 -0.0485798 0.123443 -0.00367197 0.129513 0.0991171 0.131918 -0.0541801 -0.0609856 0.0526467 0.128445 0.00726566 -0.0758365 -0.0836593 -0.00972264 0.107993 -0.033662 0.0262454 0.0274129 0.0872856 0.0832867 0.024857 0.0632881 0.00527673 -0.0426965 -0.0236211 0.0524704 -0.0726994 0.0842862 0.0974204 0.0122182 0.0872656 0.101746 0.0328386 0.112272 0.0103631 0.0537271 -0.0828582 0.0257701 0.104747 -0.0733398 0.0308342 -0.0373107 -0.0553989 0.0371534 0.0506237 0.0584047 0.105132 0.100091 0.0747851 -0.093812 0.0893311 -0.00562419 0.0154615 -0.108457 0.0456418 -0.0320269 -0.101395 -0.0162477 0.0690414 0.0523559 0.0999504 -0.0283662 -0.0480848 -0.00635951 0.0190043 0.124684 0.124842 -0.012151 0.102758 -0.0377555 -0.0474041 -0.0860228 -0.081592 -0.0327295 -0.0162905 0.0257262 -0.0941733 -0.0222254 -0.0504267 0.0796331 -0.0835959 -0.0885576 -0.0129336 0.0128237 -0.0854706 -0.038863 -0.02855 -0.0825459 -0.0283846 0.0247794 0.0599959 0.0365468 0.078546 -0.0317796 -0.00749772 0.116855 -0.0222226 -0.0776234 -0.0372947 -0.0593003 0.0291107 0.105719 -0.073755 0.0493861 -0.0831447 0.0589938 0.104875 0.0899517 -0.10628 -0.0826229 0.0448276 -0.064384 0.0892401 0.0416521 0.0759569 -0.0436896 -0.123282 0.0767359 -0.0610195 -0.054271 0.0333045 -0.0382655 -0.0640027 0.0108576 0.0902528 -0.076746 0.0737939 0.0424919 -0.0492667 -0.105588 -0.00874303 -0.0944345 0.0619412 -0.0892338 -0.0168084 -0.0385172 0.0977905 -0.0700886 0.0720212 -0.0753659 -0.0450177 -0.12064 0.0418354 0.0670751 -0.0540012 -0.000371907 0.0852997 0.0686845 -0.105807 0.00037627 -0.0635102 0.0560445 -0.0495652 0.0916512 -0.0600163 0.0554084 -0.0735705 -0.0303308 0.0656032 0.0594492 0.0403067 0.00482018 -4.11278e-05 -0.0464397 0.0834103 -0.0356447 0.0559471 -0.112791 0.0856252 -0.0377964 -0.0795819 -0.109618 -0.0194796 -0.105642 0.0562187 0.0148462 -0.0479267 0.0702967 0.0612089 0.0930839 0.0939091 0.0820881 0.0442842 0.11408 0.0318097 -0.0620097 -0.0922306 0.0229591 0.0747265 0.00631235 0.0639342 -0.050286 -0.0951741 0.0563372 0.057243 -0.0718093 -0.00798638 -0.000132227 0.00938772 -0.0538623 -0.0784663 0.0154701 -0.102354 0.00291264 -0.059938 0.0729309 -0.00318552 -0.107285 -0.0957292 -0.0491655 -0.0280433 -0.0413912 0.117679 0.0767129 0.0704664 0.0945359 0.0234403 0.00595304 0.0718561 -0.0473824 -0.0421193 0.0633542 -0.0205868 -0.0163758 -0.0255687 0.0615053 -0.0554999 0.066811 -0.00590727 0.0875108 0.0797259 0.0756836 -0.121456 -0.0198618 -0.0606369 0.0660468 0.0428713 0.0782465 0.0257847 -0.122757 0.110326 0.00959988 0.0399147 0.011647 0.0322886 -0.0216665 0.0886501 0.113061 -0.0266299 -0.0769378 0.0643657 0.0394986 -0.0343373 -0.0684242 -0.0147564 -0.0205972 0.0957353 0.0936095 0.045284 -0.0264881 -0.0845866 -0.00575192 0.0776765 0.0924602 0.0457772 -0.000622963 -0.0836432 0.0573839 -0.0732268 0.0426526 -0.0596529 0.0520798 0.0258934 -0.0436001 -0.0693567 0.11506 -0.0412056 0.00352585 -0.127567 -0.0782745 0.0343057 -0.0977973 0.0469824 -0.150963 -0.0356115 -0.0443993 0.0982263 -0.0972804 0.0230619 0.0771474 -0.0820661 -0.0359539 -0.0610074 0.0869344 -0.0467833 0.00673109 -0.0111857 -0.0489692 0.0339534 -0.112298 0.0638994 -0.0728973 -0.0796827 -0.0704108 -0.0707858 -0.0393429 0.0819919 0.000334466 0.0115956 -0.119487 -0.131157 -0.12976 -0.0810161 -0.0085556 -0.108734 -0.0881627 0.0731804 -0.0380588 0.0516976 0.0287507 0.0392979 0.0807119 0.0688609 -0.0397816 0.0359062 -0.0366744 -0.0414194 0.00664984 -0.00979639 -0.0536852 0.10178 0.0819537 0.0414828 0.0885904 -0.027729 -0.0848076 0.0221404 -0.0417082 -0.0450099 -0.0905705 0.026343 -0.00490832 -0.0975122 -0.126863 -0.125836 0.0357807 -0.0765195 0.00163244 -0.0885861 0.0836123 -0.0394758 0.0750261 -0.0247881 -0.0916223 0.119751 0.0873156 0.0398619 0.0407028 -0.0322686 0.0709574 -0.116743 0.0344029 0.0599033 -0.0176198 0.0923097 0.0536444 0.0631487 0.035194 -0.047509 -0.143587 -0.178462 -0.0413348 -0.0716584 -0.0784445 -0.0398481 -0.00309263 -0.136428 -0.00530428 0.084936 -0.0158925 -0.0175043 -0.0979743 -0.0241736 0.0135642 0.0413333 0.0870463 0.00729029 -0.0952518 0.0989335 0.0586429 0.106104 0.0136682 -0.00886163 0.0716332 -0.0147695 -0.0387974 -0.0843298 -0.0369556 -0.165668 -0.133631 -0.0428888 -0.138397 -0.174651 -0.175413 0.0347349 -0.136706 -0.00891546 -0.131428 0.00875924 0.0592529 -0.0451291 0.111866 0.111407 0.00160817 -0.0839618 0.0102556 0.0629224 0.0813144 0.000613051 -0.0990526 0.0564964 0.0257315 0.0892921 0.0444828 0.10286 0.0232797 -0.0485748 0.0364338 -0.0510627 -0.0330658 -0.11245 -0.169511 -0.178622 -0.156713 0.00245787 -0.100004 -0.00100261 0.0116077 -0.0678185 -0.118436 0.0330524 0.11189 -0.00616285 -0.051498 0.0221512 0.0943897 0.0637957 0.0648168 0.0390583 -0.04822 -0.0953578 -0.0746151 0.079386 -0.0913452 -0.0305093 -0.0963661 0.0499087 0.0238044 0.0211338 -0.0539989 0.019341 -0.105502 0.023179 -0.0174951 -0.117379 0.0156771 0.0426933 0.008791 -0.0431785 -0.00262456 -0.115358 0.0744721 -0.0793498 0.0877695 0.0818199 0.0158449 0.0237747 -0.100617 0.0129008 -0.0342301 0.0969707 -0.00761722 -0.108538 0.074605 -0.0856873 -0.119071 0.0375136 -0.0703083 -0.00770129 -0.0142154 -0.0861583 0.00720022 -0.0400082 -0.0665587 -0.130827 -0.0777749 0.0940032 -0.0595199 0.0866015 -0.00237292 0.0925843 0.0177081 0.018255 0.0179648 -0.0770461 0.0328615 -0.0768605 -0.0581805 0.0403511 -0.0538749 0.0202176 -0.0665084 0.0869201 0.0690364 0.0781043 -0.0312838 -0.0440854 -0.0233014 -0.0947872 -0.150948 0.00540021 0.0375877 0.051866 -0.152099 -0.0396132 0.0680726 -0.0058569 -0.048918 0.0777289 0.0424368 -0.10678 0.0185241 -0.00127742 -0.00809615 -0.0456771 -0.103286 -0.0307851 0.0780838 -0.0185833 0.06879 -0.0592927 -0.100271 -0.0571378 -0.0307477 0.00937737 -0.096412 -0.0223942 0.0236047 -0.15375 -0.0531511 0.033699 -0.112058 -0.140142 -0.0726085 0.040282 0.0124548 -0.0432977 -0.0640098 0.118816 0.0671647 -0.0963258 -0.0416447 -0.00776642 -0.0276219 0.00774745 -0.0252885 0.0692751 0.0430807 -0.0233907 0.0414572 -0.101494 -0.020168 -0.00050342 -0.056333 0.0514049 0.0689308 0.0289356 -0.0283975 -0.0679401 -0.0586871 -0.00731268 0.0180614 -0.132108 -0.0323215 -0.14037 -0.0813875 -0.0945498 0.0569972 0.0385707 0.0256672 0.0314723 0.0637829 0.0302917 -0.086824 0.125864 0.117499 0.0625826 0.081865 -0.102785 -0.0938765 -0.101637 -0.0576488 0.0410598 0.0769735 0.0805113 -0.0272917 -0.0258718 -0.0236395 -0.022411 -0.0690547 0.0111402 -0.0732589 0.0682564 -0.144215 -0.084864 0.0365789 -0.0369158 -0.0628036 -0.0084937 0.0214483 -0.0891972 0.0199007 -0.0545309 0.0386405 0.0637338 -0.0176129 0.0140622 -0.0535976 -0.0601011 -0.101334 -0.0611477 0.112477 0.120897 0.0799702 0.00161871 -0.0698767 0.0265187 -0.114914 -0.0306057 0.0583072 -0.0500341 0.0388988 -0.0110487 0.0160397 -0.0999727 -0.0943305 -0.0160574 -0.0672613 0.0442212 0.00957564 -0.00275523 0.0645315 0.0929987 0.0103248 0.104728 -0.0672423 0.103094 -0.0403149 -0.0969189 -0.0376092 -0.0602859 -0.0676635 0.0489887 -0.0582428 0.0214028 0.0873528 0.113349 0.00628058 0.0720955 0.0933719 -0.0194925 0.0126605 0.0244625 0.0265618 0.0688457 0.0595041 -0.0766089 -0.0119084 -0.101911 -0.0176238 0.0943449 -0.0487246 -0.0653173 0.102771 0.0238634 -0.0427743 -0.101584 0.0508315 0.0768654 -0.0357094 -0.0193737 0.120476 0.0620695 0.000515011 0.0132326 -0.079926 -0.0926499 0.0874417 0.0384239 -0.0207762 0.076314 0.0886053 0.0500902 0.0310895 -0.0860645 0.0810281 0.00522202 0.0401299 -0.010211 -0.092751 0.0428031 0.0328332 -0.0914099 -0.068042 0.0590124 -0.0439434 0.0239626 0.0219533 -0.0325967 0.0996744 0.0906003 0.0708862 -0.0282634 -0.025571 0.0867191 -0.0120435 0.116973 -0.0732267 0.105272 -0.0146776 0.0236184 0.0144254 0.0671819 0.0964157 0.0436011 -0.126102 -0.0736225 -0.0444555 -0.0823657 0.0362684 0.0406722 0.00453311 -0.0664343 0.0629106 0.0244213 0.0304135 0.0795765 -0.0663977 -0.0257711 0.0108877 -0.00208026 0.0635635 -0.0196146 0.106913 -0.0688644 -0.0301443 0.0848803 -0.0343919 0.103402 0.123882 -0.0965409 -0.0510561 0.108547 -0.0823099 0.0245348 -0.0211057 0.0871309 -0.0083438 -0.0358432 0.0604356 0.0565478 -0.0628122 -0.106021 0.0183507 0.0464902 0.0443952 0.0831361 0.0198102 -0.076562 -0.00669418 -0.0394567 -0.0167234 -0.122263 0.00635151 -0.117122 -0.0218803 0.00378197 0.0278124 0.0796663 -0.0195962 -0.0491545 -0.0370284 0.051532 0.0185921 0.110696 0.0129287 0.00151019 -0.0672061 0.125218 -0.0527027 -0.0736181 0.0703951 0.0942416 0.134946 0.0738439 -0.034009 0.0504692 -0.0638303 0.0610869 0.0683509 -0.0488252 -0.0355875 0.0832717 -0.07093 0.0821395 -0.11334 -0.0248491 -0.0685874 -0.137774 -0.0807519 -0.108742 -0.0441943 -0.0503509 -0.0761706 0.0539136 -0.0575392 -0.0662168 -0.010254 0.0767699 0.0964373 0.0208578 0.0974636 0.0549292 -0.00143172 0.0700153 0.124068 -0.0945049 -0.090134 -0.00519249 0.0361376 0.0270714 -0.0314459 0.0405215 -0.0270214 0.0822574 -0.0129339 -0.120011 -0.0497174 -0.078134 0.00552137 -0.147917 -0.0117958 0.0469682 0.0530269 -0.0798459 -0.013339 0.0445892 -0.0421679 0.00532771 0.0119531 0.0874038 -0.0725312 -0.0359045 0.0925434 -0.0815286 0.0913124 0.0740835 0.00133728 0.0427238 -0.0144279 -0.0116783 -0.0332766 -0.0436083 -0.11155 -0.0129138 -0.0646631 0.0151033 0.00938325 -0.0246635 -0.044497 -0.107014 -0.0308284 -0.0535488 -0.0673314 0.078586 0.025046 -0.0460142 0.0222417 0.0817565 -0.0290877 -0.112498 0.0863883 -0.00446548 -0.0372911 0.0189689 -0.0208889 0.0114031 -0.0170978 0.109888 -0.0790802 0.0919209 0.06694 -0.115968 0.0502677 -0.0879031 0.0313383 0.0169773 0.0566313 -0.0657644 -0.100443 -0.100648 -0.136084 -0.0444064 -0.0540017 -0.000344523 -0.109462 -0.0253511 -0.0899431 0.0892345 0.0490382 -0.0949774 0.113544 -0.069567 -0.00140842 0.0523943 0.0690695 0.0793153 0.000525453 0.000809126 -0.0399721 -0.0457886 -0.0478339 0.0855401 -0.0313794 -0.12733 -0.0761859 -0.108846 -0.0359594 -0.0928567 -0.116061 -0.0444403 -0.138649 0.0433949 0.0454086 0.0203648 -0.0424442 0.00124192 0.10042 -0.107611 0.0256309 -0.0500377 -0.0053725 0.0349315 0.0345765 -0.0181297 -0.0868446 -0.00490343 0.0597554 -0.0346753 0.0808175 -0.0605773 -0.110718 0.0243896 0.0872512 0.0392519 -0.105528 -0.132735 -0.144431 -0.0149581 -0.0328343 -0.0332636 -0.0371305 0.0552646 0.0441032 0.0507644 -0.138324 -0.117044 -0.0357272 -0.0149132 0.0783662 -0.0795327 0.0727432 0.0564285 0.00528376 0.00334004 0.0104913 0.108748 0.0401533 -0.0113859 0.0619243 0.0484411 -0.0541775 0.103518 -0.0482554 0.0449247 -0.12631 -0.121257 0.0156996 -0.0928786 -0.138261 0.0461303 -0.0270013 -0.124029 0.0508877 -0.1106 -0.0742237 0.012263 -0.0714896 0.0044269 0.108298 0.0964028 0.0363191 0.109658 -0.00514886 -0.0272032 0.112325 0.0178837 0.0274539 -0.0958977 -0.0472771 -0.0139186 0.120907 -0.0880565 0.10413 -0.0475309 -0.110096 0.0290172 0.101306 -0.0128074 -0.0342791 -0.0644915 -0.0230412 -0.066335 0.0713343 -0.108017 -0.12566 -0.114312 0.0797304 0.0764874 0.0522883 0.0619935 0.0257382 0.0607925 -0.0475375 0.0868649 0.0173294 0.0939187 -0.0443964 -0.0722441 0.0382781 0.0637284 -0.0402349 0.107118 -0.0363842 -0.00545169 -0.0812619 0.0130656 -0.00288864 0.0755916 0.0640758 -0.00955617 -0.0789318 -0.0335313 0.0192229 0.0673224 0.0708277 0.0865772 -0.110382 0.110033 0.0792969 0.0927126 -0.100675 -0.0736744 -0.061672 0.0265421 0.0196031 0.014457 -0.110153 0.0375455 0.00971348 0.103002 -0.0132387 0.0767815 -0.0395699 0.0711074 -0.0837346 0.124818 0.101155 0.0334227 -0.0773998 0.00307821 -0.062758 -0.0405402 -0.0984968 0.0393316 0.0762854 -0.105083 0.0163492 0.030943 0.0836555 -0.0814756 -0.048672 0.0325541 0.0523519 0.0359036 -0.0417257 -0.0893528 0.0243522 0.0991856 -0.0339945 -0.0721477 -0.0681581 -0.0111382 -0.0376052 0.0208394 0.108628 0.0112369 0.0791501 -0.0719914 0.0629477 -0.0946642 -0.0504403 0.0461751 -0.0954232 0.0706085 -0.0844833 -0.0683699 -0.0231792 0.0223535 0.0733224 0.0833617 -0.036369 -0.10958 -0.0344298 0.0150878 -0.055594 -0.087988 -0.0614534 -0.0579673 0.0156765 0.0875 -0.0881156 0.130661 0.0610104 0.0862984 0.0793888 -0.0185466 0.104304 0.111228 0.0520128 0.0145116 -0.112716 -0.00317767 0.0886673 0.0583575 -0.109271 -0.115496 0.021096 -0.0956201 0.0444662 -0.0364869 -0.0479123 0.0380806 -0.0781513 0.0594636 0.0869034 -0.019479 0.0225289 0.0234726 0.0727043 0.0172821 0.0234263 0.0887642 0.12413 -0.0658575 0.0793353 0.0569199 0.11167 0.0100982 0.0311139 -0.0927662 0.00199963 -0.0797426 0.0363651 -0.0551096 -0.074029 -0.0212568 -0.0207713 0.0133327 0.0236801 0.0395036 -0.0738151 0.0374861 -0.00611674 -0.0658146 -0.0958248 -0.093498 -0.0190066 -0.0261764 -0.0461655 -0.0733036 0.0589891 -0.0476102 0.0982219 -0.0405591 0.0119097 0.0257427 0.0906735 0.101907 0.00623384 0.113656 0.0579814 -0.00594547 0.0561993 -0.066259 0.0810416 -0.0259826 -0.0313332 0.00735698 0.0654954 -0.0414193 -0.112731 -0.0109676 -0.0635229 -0.0645949 0.015422 0.0329538 -0.11907 -0.0147762 -0.00322391 -0.0254833 0.103108 0.105785 0.00196497 -0.0404925 0.06323 0.106573 -0.0795082 0.0206685 -0.0180938 0.0194857 -0.0673388 -0.0390418 -0.0591723 -0.0117478 0.0752539 -0.0530845 -0.0714242 0.0405892 0.0571727 0.00970292 -0.00605814 0.0917345 -0.00672551 -0.0782442 0.0809042 -0.0791375 0.0414704 -0.110004 0.0768174 -0.0237066 0.0630287 0.0346029 0.120042 -0.0529849 -0.0696101 -0.0685436 -0.0634515 0.0662376 0.0456379 0.123738 0.0412022 0.0353085 -0.0909843 -0.0889507 -0.00570691 0.113734 0.0948277 -0.0326061 -0.0750917 -0.109844 0.0260807 0.0398422 0.0395265 0.0874259 0.0915734 -0.0573931 0.00834543 0.0340878 -0.115663 -0.103144 0.0983848 0.0260164 0.0567715 0.0839661 -0.00808004 -0.0150235 0.157204 0.149531 0.129363 0.0325826 0.0640627 -0.0545836 0.0403088 -0.0295159 -0.078398 0.105561 -0.0621239 0.0987262 -0.120871 0.0669049 -0.002907 0.0675987 0.00519054 -0.089294 0.01048 0.115134 -0.10629 -0.112653 -0.0148583 -0.0894889 -0.052771 0.0894395 0.0779435 -0.0285014 0.097144 0.00557918 0.0914237 0.0221703 0.101708 0.0433573 0.0540555 -7.29581e-05 -0.0680238 0.00153919 -0.0548367 0.0843919 0.00516716 0.0895192 0.0491702 0.10312 0.0329446 -0.0832617 -0.0861111 0.0314982 -0.0786132 -0.0959813 0.100782 0.0303852 -0.0427384 0.0539366 -0.0563378 -0.00732015 0.0497079 -0.0592337 0.12002 0.102107 0.0916691 0.164371 -0.017955 -0.00895408 0.0457078 0.0551639 0.0143672 -0.061799 -0.0543827 0.0837536 0.128509 -0.00889352 -0.096437 0.013043 -0.0905485 -0.0193452 -0.0301315 0.0384787 -0.0581283 0.108314 -0.0835402 -0.00869416 -0.0306878 -0.0734825 -0.0793402 0.0834004 -0.0583787 -0.0640722 0.0512017 0.0107481 0.00548225 0.0944335 -0.0247844 -0.0307532 0.0145288 0.0655902 0.0376531 0.114645 0.0953506 -0.0285297 0.112901 -0.0260073 -0.0465495 0.0393919 0.076147 -0.0421263 0.110223 0.0823836 0.0734403 -0.0717761 0.0119884 0.0375351 0.0619284 0.0169531 0.0858719 -0.060034 -0.0188836 0.0866717 0.0802641 -0.0156376 -0.038607 0.076836 0.164723 -0.0125233 0.135403 0.141692 -0.0125992 -0.00542866 0.0407888 -0.00512481 0.0228667 0.0138674 -0.0291384 0.062583 0.00538596 -0.0455108 0.127255 0.0738818 0.0118539 0.0490107 -0.0726595 0.0533085 0.0983445 0.00980718 0.0732229 0.0723437 0.126291 0.0561229 0.119603 -0.0666905 0.0106511 0.0792233 -0.0552879 0.153821 0.105588 0.157018 0.10304 0.140154 0.13441 0.0190941 -0.0495114 0.109868 0.0927127 -0.0107876 -0.079862 -0.0152208 0.0968476 -0.0285402 0.0126213 -0.0743305 0.0192093 -0.0953513 -0.0737819 -0.059595 0.0240814 0.0713071 0.0812554 -0.0566072 0.0929569 0.00138023 0.109964 -0.0542805 -0.0191659 0.0167405 0.0753483 0.087871 0.0218488 -0.0812299 -0.0986017 0.0361123 -0.105527 0.0589149 0.0644009 -0.00748937 -0.0839124 0.0622445 0.0103625 0.0591587 -0.061328 0.038965 0.106177 0.0852612 0.000569891 -0.0214574 0.113774 0.066193 -0.0182897 0.048289 -0.0497187 -0.0320961 0.0746531 0.137299 0.0670012 -0.0585765 0.0690728 -0.0410193 0.0442416 -0.0642124 -0.00636274 -0.055429 -0.120571 -0.0983367 0.0277303 -0.074446 -0.114012 -0.00678662 -0.00142827 -0.0149865 -0.0845351 0.0929005 0.0412419 -0.0163772 0.121087 -0.0617488 0.0803927 0.0588897 0.0406228 0.105271 0.0841069 -0.0031903 0.078531 0.112685 -0.0282035 0.0462067 0.0548428 -0.0434665 -0.0315135 0.00103973 0.0356639 0.0440081 -0.0133189 0.0643331 0.0517824 0.0417944 -0.00955085 -0.0982394 -0.0710033 0.045463 0.0180081 0.071263 -0.0900906 0.0741946 0.0435124 -0.00249641 0.102065 -0.0614449 -0.117545 0.0952749 -0.0950863 0.0279808 0.0554217 0.107847 0.0488007 0.0127768 -0.119701 0.0904339 0.040786 -0.035607 0.0396122 -0.0555639 -0.0456184 -0.0997071 0.0297361 -0.0916598 -0.0360938 -0.0495965 0.0552479 -0.0207059 -0.0823276 0.120069 0.0865335 0.00630549 0.0208151 -0.0459009 -0.109273 -0.112719 -0.0806336 -0.0737772 0.0110983 0.0503818 0.0832272 0.0445165 -0.0702368 -0.0216187 0.0733656 0.0646396 -0.0814911 -0.0941751 0.0164011 -0.130322 -0.0385721 -0.0324172 -0.0746727 -0.142223 0.0496543 -0.118459 -0.0547461 -0.0177705 0.00312561 -0.0891971 0.127134 -0.0652959 0.0871083 0.033606 -0.0028317 -0.0962428 0.0613934 -0.0461054 -0.0926793 0.0256885 -0.0351808 0.106813 -0.0803955 -0.103791 -0.0101226 -0.0972026 -0.129264 0.0670458 -0.0859999 0.0453532 -0.107421 -0.0978333 0.0230569 -0.10212 0.0520773 -0.0653196 0.107315 -0.0487279 -0.0508586 -0.0626911 -0.0589145 0.0747981 -0.020822 -0.00816444 -0.0469501 0.0760458 0.0663634 0.0323544 0.0766986 0.122551 -0.0205392 -0.106497 -0.0366372 -0.0748258 0.019314 0.0943913 -0.0104696 -0.145155 -0.110561 -0.061375 0.0354618 -0.0452562 -0.0299616 0.0219347 -0.0393181 -0.0402499 -0.0388821 0.0670891 -0.070208 -0.0258044 -0.0376332 0.0936614 -0.0333943 0.0688629 0.034347 0.106554 -0.0349087 0.0315185 0.0649224 -0.103533 -0.0079964 0.0357946 -0.0591812 0.0199534 -0.0766434 -0.00861425 0.0604804 0.0501331 -0.102739 0.0569884 -0.0609566 -0.0361042 -0.0739259 0.0770088 0.0863278 -0.0701963 -0.0283583 0.0489632 -0.00746304 -0.102699 -0.0238774 -0.0795289 0.0152567 -0.0382037 -0.045182 0.0509851 0.122815 -0.075396 0.0425419 0.0512118 -0.0129886 -0.00557858 0.0122121 0.00638352 0.0554985 -0.0443708 -0.109884 0.00945915 -0.0066428 0.0459078 -0.117249 -0.0596064 -0.0678418 -0.0733084 -0.0809577 -0.00785608 0.115549 0.0398229 0.106847 0.0635423 0.0208746 -0.0647521 -0.0641344 0.0541925 0.114567 -0.0754501 0.0538475 0.00998629 0.00241603 -0.00552003 -0.0728273 -0.0512582 -0.0632427 0.0843592 -0.0674129 0.0729335 0.0187509 -0.0965131 0.101239 0.0933926 -0.0935466 0.0010362 -0.0308374 -0.117225 0.00588662 0.0484292 0.105676 -0.0440868 0.0409671 0.00055039 0.0146934 -0.0455757 0.0407799 -0.0946616 -0.0977068 -0.0675681 -0.0984906 0.0303494 -0.00107005 0.0257537 -0.0996049 -0.0424192 0.110117 0.0335284 0.0816273 -0.0526359 -0.0956637 -0.0976992 0.0535995 -0.113809 -0.0694031 -0.10474 0.0598767 0.0457795 -0.0632582 -0.0681286 -0.0705757 -0.103545 0.0774994 -0.0779689 0.0174477 -0.0882719 -0.0228345 -0.0600406 0.0410802 -0.0772371 0.0653084 0.11294 0.00113771 0.098005 0.101553 0.0537526 -0.0448209 -0.00623477 0.0948788 -0.0998422 0.029166 -0.121848 0.0647065 -0.0129178 -0.0446525 0.00750879 0.0171774 0.0470859 0.0773679 -0.10203 -0.0755543 -0.0018609 0.0444165 0.0798703 0.0572699 0.0120041 0.0741212 -0.0885543 -0.0225673 0.0553373 -0.00251775 -0.0817903 -0.0458819 0.0834626 0.0437327 0.00122677 0.105621 -0.0594887 -0.046794 0.0721684 -0.116285 0.0538629 0.0596321 -0.115815 -0.118128 -0.00617782 -0.0919129 -0.0138498 -0.0244163 0.054337 0.0985287 -0.0422693 -0.0297099 -0.0377007 0.0813908 -0.0597299 -0.000588916 -0.106016 -0.0526469 0.0868397 0.1183 0.0738121 -0.091603 -0.0290317 -0.0101471 0.0156869 0.0426053 -0.0625757 -0.0159151 0.109553 0.0805092 0.0945439 -0.0149941 -0.0342294 -0.0181409 0.0692507 -0.0811598 -0.0806857 0.0657639 0.092649 -0.103132 -0.0109434 -0.0526347 0.00927408 -0.0309935 0.120519 0.0541732 0.0744498 0.0769501 -0.0465473 -0.0229959 0.0775786 -0.0384691 0.05067 -0.0316681 -0.0595147 -0.061885 0.0679696 -0.07154 -0.0231184 0.0109757 -0.0739417 0.0296318 -0.0362642 0.0482619 -0.012504 0.0655346 0.00431909 0.0837756 0.0790758 0.0786173 -0.0136358 -0.0582546 0.0090937 -0.0681853 -0.0379791 0.0687237 0.0910376 0.0320827 0.0256489 0.107417 -0.052967 -0.024927 -0.0487547 0.0994187 0.118906 0.0867078 0.00983419 -0.0372993 -0.0112024 0.093352 0.0116264 -0.0875844 -0.0731753 -0.0809092 -0.100189 -0.073768 0.0085439 -0.0644814 -0.070471 0.00140503 0.0544254 -0.0686629 0.0869027 -0.0179032 0.0155615 -0.0999515 0.0962814 0.100675 -0.091936 0.113235 -0.00611268 -0.0437985 -0.0550921 -0.00276409 -0.00216989 0.103621 -0.0752322 0.0518171 0.0158685 -0.0841981 0.0134403 0.0300858 0.0580256 -0.0761722 0.0992 -0.0569993 -0.0997572 0.0568587 0.0958126 -0.0403762 0.0335669 0.0659065 -0.00268443 -0.0294956 -0.0604098 -0.0608115 -0.0356697 0.0796369 0.0399898 -0.0955879 -0.0411134 0.0499815 -0.0261619 0.120351 -0.0729962 0.0748835 -0.0586358 0.105692 0.0783719 -0.0471778 0.0514944 0.0920564 -0.0439274 -0.0175539 0.0731486 -0.0724332 -0.0353187 -0.0399414 -0.0170072 0.068976 -0.105798 0.0183826 0.0859137 -0.0802693 0.0181067 0.0209587 0.00630343 0.0528814 -0.109801 0.0157712 0.0795114 -0.0640074 0.0470626 -0.0433165 -0.0409563 -0.0191254 0.117459 0.0657644 0.0698867 0.122179 -0.0854534 -0.0084955 0.0941122 0.0100922 -0.00203297 -0.0190322 0.0782787 -0.106764 0.0300845 0.031846 -0.014506 0.00912669 0.075912 0.0135912 -0.0518563 -0.0501765 0.0257838 0.0166333 0.0574145 -0.0406081 0.0277893 0.0511561 0.107248 -0.0763797 0.12144 0.013349 -0.0377687 -0.086844 -0.00963957 0.0691046 0.0618407 0.103807 0.0432386 0.0208975 -0.0683104 -0.0172675 -0.062809 -0.0442455 0.0467389 0.0131617 0.0371643 -0.11093 0.0613652 0.123465 -0.00507129 0.0448993 0.076824 0.076012 -0.0574245 0.0567205 -0.0700687 0.113226 0.0893681 0.0460105 0.0657207 0.0694405 0.0827155 -0.0688045 0.051653 0.016611 -0.0847867 -0.037341 -0.0401878 -0.107189 -0.075342 0.0283997 0.0363905 -0.110261 -0.048908 0.0646289 0.0113801 -0.0289621 -0.0558027 -0.0814725 0.110022 -0.0890155 -0.046366 -0.0837621 0.0159166 -0.0874576 -0.0415342 -0.0945259 -0.00209968 -0.0326893 0.10295 0.0469504 0.0977124 0.0443979 -0.0801345 -0.0318238 -0.00579176 -0.0694555 0.00137267 -0.0686618 -0.00800529 -0.0353522 -0.0271541 0.0924231 0.0215761 -0.00683408 0.0289515 0.0019382 0.0311344 -0.00471475 -0.0356735 0.0789506 0.0629112 0.0550288 0.099791 -0.0337235 0.0508854 0.0986462 0.0338703 0.00422102 -0.0544124 0.104781 0.0546442 0.00032468 0.0942498 0.079797 -0.0980966 0.0457185 0.0234015 0.0710757 0.00110542 0.0902515 0.0862166 0.0498623 0.0690442 -0.0348839 -0.0503779 0.0965136 0.0373219 -0.0783887 0.081742 -0.0607707 -0.10338 -0.105045 -0.046385 0.00131573 0.113164 -0.0556532 -0.108286 0.0748021 0.0298079 -0.0341901 -0.0517278 -0.0679428 0.103129 -0.0875478 0.0057193 0.0781017 0.00382716 0.0815641 0.031113 0.0860925 -0.0338469 0.0984594 0.0489723 -0.0301025 0.0426846 -0.0718322 0.0422411 0.0420144 0.0974729 0.0644382 -0.114922 0.0649463 0.0140809 -0.0249243 0.0483735 0.042945 -0.0523878 -0.107706 -0.0503706 -0.0118399 0.0240288 0.0314308 0.100554 0.0683693 0.0609592 -0.067097 0.0930194 0.0800828 0.077194 -0.123204 0.0884194 -0.0811772 0.0103793 -0.0969802 -0.0121277 0.010268 0.0705191 -0.0153883 0.11683 0.0997055 0.0130597 0.00477325 -0.0460042 0.110845 -0.0578267 -0.0671206 0.11587 0.0458641 0.0367048 -0.058372 0.066631 0.0523213 -0.045421 0.0928141 0.0746972 0.00552775 -0.0727992 -0.0284699 0.0508028 -0.00571242 0.0594864 0.0185536 -0.0173399 -0.0546784 0.00152206 -0.066302 -0.051925 0.0548751 0.0639702 -0.043405 -0.00192702 0.0255145 -0.0083259 -0.0219197 0.00822753 0.0917206 0.0914365 0.0523933 -0.0522389 0.0459192 0.11493 -0.0330493 -0.0961591 0.00124669 0.065142 0.0114642 -0.0520616 -0.0222485 0.0587716 -0.0967857 -0.00646856 -0.00702712 -0.0230074 0.0551579 0.0533163 -0.0601859 0.0541904 -0.0945415 0.0222737 0.0889343 0.0488471 0.039145 0.0204925 0.109761 -0.0564697 0.0776731 0.0619466 0.0854314 0.0606197 0.0312997 0.0515344 0.0497335 0.112116 0.0368869 0.0630322 -0.0226366 -0.11905 0.0153877 -0.0235144 -0.0870461 -0.055523 0.00684324 0.0279004 0.0662751 -0.0106086 -0.0534255 0.0490028 0.0390377 0.0358691 0.0402959 -0.0414916 0.00722508 -0.0779543 -0.0803844 0.0220613 0.0528187 0.0449852 -0.103074 -0.0535427 -0.0640555 0.074715 0.0344783 0.0680297 -0.0444322 -0.0586805 0.0995239 -0.0823631 0.0248765 0.0841436 -0.0588414 -0.061827 -0.0860057 0.111111 0.0210053 0.0211845 -0.103917 0.0934194 0.105632 0.122479 -0.0742201 0.0542111 0.00836496 0.0149878 0.0732747 0.062897 0.0781989 -0.0999714 -0.0540039 0.11701 0.0296674 0.0697241 -0.019871 0.0500676 -0.085325 0.0234249 -0.00922534 0.0820203 0.00591389 -0.111743 -0.0901644 -0.0696185 0.0994759 -0.0232581 -0.074281 -0.0583247 0.0499978 0.111362 0.11905 -0.000940233 -0.00978304 0.00581359 -0.10627 -0.0779945 0.0674873 0.0317026 -0.0658819 -0.0784249 0.00134314 -0.00591774 -0.0571725 -0.0548216 -0.0334477 -0.109429 0.0940907 0.0124544 -0.0281429 0.0043392 0.0794296 -0.093783 -0.0726975 0.0439815 0.0185048 -0.0314614 0.109957 0.118863 0.00560168 -0.0631316 0.118593 -0.0309518 0.0350834 -0.0944319 -0.0225522 -0.0851028 0.048761 -0.0508995 0.099755 -0.0812166 -0.01828 -0.0489827 0.0535962 0.071148 0.0486504 0.00284702 0.0896878 -0.0885132 -0.0196443 -0.022617 -0.0128548 0.0136339 0.027729 2.05945e-05 -0.0190145 0.0711316 -0.0182701 0.0023088 0.00798053 0.0426452 0.0638174 0.117978 0.0267634 -0.0246768 0.0817187 0.0679764 0.0727479 -0.0663529 -0.0120283 0.115906 -0.0370508 -0.0109591 0.0830167 -0.049357 0.0359594 0.0048977 -0.00153309 0.0455045 0.0559327 0.0405697 0.0897933 -0.0883036 -0.11303 0.0688466 -0.0992726 0.052914 0.0262414 0.0458011 0.0318187 -0.0360598 0.0409901 -0.0771014 0.0761836 -0.0432011 -0.00407812 -0.0352667 -0.0442426 -0.0512179 -0.0619108 0.0737159 -0.0605655 0.0837672 -0.107569 0.0952988 -0.0147874 0.0457648 -0.0317638 0.0157856 -0.0651589 -0.0749155 -0.0467334 0.04887 -0.0475066 0.0859922 0.105372 -0.0692074 0.0891414 -0.0558293 -0.0989657 0.0604431 -0.0197505 -0.00123674 -0.0416206 0.058671 0.0637485 -0.0679201 -0.0522857 0.0704311 0.0560183 -0.0436979 0.0526169 0.0706943 0.0398486 0.0123163 -0.11514 -0.0302183 0.0717784 0.0466867 0.0691179 0.0142211 0.0226156 -0.11281 0.0693204 0.0647064 -0.108269 -0.0196671 -0.0350898 0.0607768 0.0972867 0.0869596 -0.0525039 -0.0130177 0.10779 0.048064 -0.0557841 0.0996269 -0.110411 0.0683807 -0.0986033 -0.0396058 0.0689682 -0.00259024 -0.0951811 0.0246118 -0.00834451 0.0186404 -0.0930161 -0.0834499 -0.0692678 0.0608262 0.00450673 0.104869 -0.0531664 0.104323 -0.118563 -0.00295994 0.055404 -0.0977826 0.095743 0.0963867 0.06536 0.0859478 -0.00217043 0.0598171 0.0734644 0.00552146 -0.0849974 0.105592 -0.0666123 -0.0253294 -0.0200504 0.100461 -0.00553372 0.0314549 0.0298343 -0.0315525 0.0617533 0.107367 0.0427614 0.099187 0.0620267 0.0450656 -0.0182198 0.00911684 0.0565233 0.0425343 -0.0112084 -0.0556897 -0.000968237 0.00234196 -0.0183128 0.0733863 -0.0718261 0.0805957 0.0344512 0.0328965 -0.102764 0.0270871 0.0639206 0.0973327 0.0773067 -0.124371 -0.0296796 0.040711 -0.0862818 -0.0600796 0.0135261 -0.0102697 0.077249 -0.0443057 0.0291571 -0.104008 -0.00226147 0.0980298 -0.0444088 0.103898 -0.0484709 0.0914351 0.0969603 0.104095 0.00462578 0.0411231 0.0322898 -0.0156217 -0.0312559 -0.0136924 0.058945 0.102 0.0979072 -0.0303961 -0.119836 0.0702093 -0.0498437 -0.00560471 -0.00659432 -0.030625 0.0828359 0.0365284 0.0961791 0.031395 -0.0822508 0.0123559 0.0551876 0.0769912 -0.115105 -0.0853051 0.01029 -0.0833834 -0.0391514 0.046128 -0.0833486 0.0509168 -0.00364209 0.0775445 0.0943167 0.0967621 0.0949368 0.0371778 -0.0268342 -0.0507838 0.0692851 -0.090362 -0.0427521 0.0731522 0.00771562 -0.0650886 -0.00141609 0.0151135 0.0834111 -0.110618 -0.110091 0.0422119 0.0577039 -0.0562747 0.0140663 0.10331 0.0332286 -0.0475064 -0.00858565 0.0306896 -0.111173 -0.0368988 -0.0329904 0.0897246 -0.0853775 -0.0768635 -0.108726 -0.0874009 -0.0520805 -0.0403586 -0.0722286 -0.123508 0.0508152 -0.0516078 -0.0681264 -0.0650079 -0.093973 -0.0661973 0.0764133 0.070871 -0.0337459 -0.0819625 -0.0461075 -0.0222981 -0.0611412 0.0396231 -0.0988793 -0.0929436 0.022248 0.0358908 0.0829012 0.0229526 0.0444855 -0.00956744 0.0767525 -0.0671596 0.112328 0.0198943 0.014027 -0.0262506 0.0799323 -0.0254832 0.0524151 0.00730692 -0.108341 0.013966 -0.0232506 -0.0203583 -0.110718 0.0200965 0.0757281 0.0536234 -0.108693 0.0797311 -0.018423 -0.108708 0.0972424 0.0434954 -0.0280578 0.0981229 0.00364103 0.0490939 -0.113891 0.0740435 -0.103612 -0.047406 -0.112076 -0.00466065 -0.0160067 0.10666 -0.00429524 0.0904216 0.0211154 -0.0670162 -0.105305 -0.0679223 0.0496237 -0.00729391 -0.13315 -0.12556 0.0186059 -0.0859389 0.0156528 -0.0461221 0.0860524 -0.0462569 -0.0643414 0.0566275 -0.00837366 -0.0962378 0.0892697 0.0764628 0.033573 -0.100275 -0.0222816 0.0979448 0.101246 0.0670337 -0.0713049 -0.0981947 0.0032606 -0.046436 -0.0581236 -0.0178589 -0.0171625 -0.0570733 0.0108009 -0.0922437 -0.0886288 -0.090012 -0.0578162 0.0336742 -0.0235109 0.0689554 -0.117289 -0.0673274 0.0940079 -0.0675858 0.0212343 -0.0610267 -0.0893196 -0.0915929 0.0342722 0.041694 -0.109265 0.0312217 0.105661 -0.0867044 -0.0770557 0.0741284 -0.0687713 -0.0449507 0.0972859 -0.0221604 0.0209342 -0.00469258 0.046778 -0.0423657 0.0762265 -0.0720796 -0.10318 -0.120603 -0.129982 -0.0105541 -0.00577898 -0.0727145 -0.0708608 -0.124942 -0.104022 -0.040186 0.0507095 0.083194 0.0526131 -0.0864228 0.0527548 0.0262139 -0.0836477 -0.0454596 0.0703711 0.0994652 0.101704 -0.0367234 0.0893091 0.066094 0.0206967 -0.0730815 0.0911336 -0.00680749 0.084969 0.000972206 -0.123838 -0.00367036 -0.00829745 -0.0175595 -0.115081 -0.0962759 -0.0582444 -0.049898 0.0654563 -0.0627661 0.00405536 0.0726752 -0.100044 -0.0245425 0.0315884 -0.114824 0.0693749 -0.0752043 0.0644671 0.0670126 0.0496177 -0.0323553 -0.0887161 0.0384222 -0.0723755 0.0622151 0.107687 -0.0634311 0.0567235 -0.0291931 0.0892638 0.0542955 0.0709166 -0.0801831 -0.0832229 0.0282962 0.022979 -0.118137 -0.127924 -0.0846445 0.0314927 0.0559104 0.100856 0.0654309 0.0451198 0.084622 -0.0363812 0.00831124 -0.0976589 0.0321822 0.0485366 -0.0117628 -0.0119393 0.0577359 0.0596395 0.0370802 0.0922096 -0.0645375 0.072433 -0.00263694 -0.051833 -0.0345118 -0.0997271 0.0154561 0.1009 -0.0576551 -0.0909639 -0.0600337 0.0213475 -0.0800194 -0.11455 0.0106473 -0.0323147 -0.112394 0.0542389 0.0353124 -0.0707866 0.105314 -0.035149 -0.0872486 -0.0409184 0.0810697 -0.000188416 0.062224 0.123319 -0.0722177 -0.0334137 0.0954988 0.106655 -0.0317024 0.0773569 0.0272165 -0.0751349 -0.0702181 -0.0773377 0.060988 -0.0210398 -0.0800586 0.0631584 -0.020775 0.0197713 0.0373379 -0.0631333 0.0590121 -0.0707789 0.0271698 -0.0517732 -0.102979 0.10204 -0.00730591 -0.0629956 0.103703 0.0270747 0.0573538 0.134412 0.126711 0.0113055 0.0699041 0.131581 -0.0397152 0.11638 0.0737937 0.0832772 0.0785759 -0.0369033 0.0488917 -0.108929 -0.00341574 0.0678035 -0.0845147 0.0604368 0.0539584 0.0819876 -0.0770756 0.0793559 0.00612295 0.0136647 -0.0877621 0.0723475 -0.0364896 -0.0565277 0.0127741 0.0807358 0.11782 0.0407393 -0.0652837 0.0186749 0.00997764 0.0694895 0.12327 -0.0575108 0.115876 -0.0651144 -0.0513739 0.0671327 -0.0152031 0.00558271 -0.00440037 0.0423652 -0.0554966 -0.0311946 -0.129663 -0.14277 0.0484205 -0.0166394 -0.0119765 -0.0164874 0.0475283 -0.044756 0.108619 0.0354814 0.120102 0.0685509 -0.022478 0.123184 0.1306 0.0486154 0.0681211 0.110475 -0.00275498 0.0689011 0.105747 0.0538855 0.0399145 -0.0865441 -0.093312 0.0279049 0.051186 -0.12131 -0.0981765 -0.118023 -0.086248 0.057394 0.0139883 0.0864299 -0.050317 0.0259003 -0.0434269 -0.0188801 -0.0862685 -0.0697536 -0.0385449 -0.00335989 -0.0807409 -0.0277532 0.145063 -0.0774637 0.0818634 0.110676 0.104483 0.0122317 0.0667629 0.094957 -0.0315733 0.0682844 -0.0907235 -0.116822 -0.0605068 0.0663112 -0.0564256 0.0399375 0.0137379 -0.075771 0.092141 -0.0525626 0.0192329 -0.0325335 -0.0997279 0.0776021 0.0421911 0.0161438 -0.0914663 -0.00933313 -0.0334661 0.0852207 0.0484653 0.115146 -0.0311518 0.0699086 0.0975974 -0.0347277 0.0400783 0.11114 -0.106211 -0.065864 -0.073324 -0.117782 -0.0892379 0.0631633 -0.0199642 -0.00658786 0.0539705 -0.0722843 0.0412817 0.0664232 0.0525719 0.00781025 -0.0293893 0.031473 -0.031047 -0.106875 -0.0338804 -0.102664 -0.039798 0.0644461 -0.0637694 0.0346414 0.0914562 0.0888 0.121797 -0.0356698 -0.0595181 0.0628287 -0.05383 0.0362157 0.0226416 0.0790307 0.100331 -0.0818047 -0.00727616 -0.0173986 -0.100205 0.0435554 0.00215267 0.0394322 -0.00538253 -0.0323018 -0.0720795 -0.00923935 -0.0471 0.0416599 -0.0303191 -0.0480113 0.0387846 -0.00972966 0.0652935 -0.0948786 0.0976396 -0.0239267 0.0397682 -0.0850321 -0.0420915 0.101433 -0.0720593 0.102448 -0.0382851 -0.0256918 -0.0589893 0.0529385 -0.0400406 0.0503847 0.0860672 -0.0864905 0.0661804 -0.0341237 -0.0388955 0.028912 0.0317502 -0.0816131 0.0827611 -0.0128665 -0.0723167 0.013445 -0.00600469 0.095459 0.0446412 0.0813109 -0.0484965 0.0232205 -0.0212156 0.132995 0.0492627 0.0669171 0.00341603 -0.0774345 0.0738072 0.013256 0.074052 0.0727907 0.0564039 -0.05957 -0.0665799 0.0970496 0.0323223 -0.112721 -0.0764524 -0.101443 -0.0266959 0.0837445 -0.0165001 -0.0859166 0.0465903 -0.00818488 0.0319396 0.106581 0.0383761 -0.00765587 0.00888299 0.0789766 0.114839 0.111873 0.124067 -0.0383478 0.0673246 0.11451 0.0780672 0.0112106 -0.0436374 0.00102754 -0.0571114 0.0638614 -0.0160989 0.0966366 0.0249122 0.0100208 0.0504343 0.0504004 -0.027432 0.0807764 0.0353395 -0.0252558 0.0595574 0.0829174 -0.047609 0.0704939 -0.00647759 -0.0187497 0.10144 0.0115885 0.116587 0.114978 0.0492981 0.112363 0.0765981 0.0975431 0.116985 0.120281 0.0320577 -0.00821001 -0.0162172 0.0368155 0.0809834 0.0860864 -0.0694601 -0.048105 -0.0508261 0.109493 -0.0500637 -0.026019 -0.0657699 0.00593713 0.0372869 -0.0277792 -0.111448 0.0354815 -0.0316233 0.0872552 -0.018617 -0.0685351 -0.0939722 0.0753603 0.113496 -0.0430805 0.141022 0.0894969 0.119245 0.0392713 0.0471429 0.107454 -0.082482 0.100186 0.0307691 0.0421074 0.0167989 0.0915451 0.0773224 -0.0429221 -0.106627 0.0111685 -0.0756519 -0.0741032 0.015462 0.0561736 -0.0102471 -0.106643 0.039645 0.00278176 -0.0179316 0.0307415 -0.0813826 0.061008 -0.0555016 -0.0531588 0.0316174 -0.0583933 -0.0459524 0.0522338 0.0818748 -0.0816365 -0.0816805 -0.105437 -0.0123971 -0.0883484 -0.0955466 -0.0921504 -0.0606808 -0.0203474 -0.103265 0.0970073 -0.000676788 0.0960788 0.055211 0.0389771 0.106798 0.023093 0.0071861 -0.0725081 -0.0893132 0.0408352 -0.0517575 0.0863799 -0.0218264 -0.0281301 0.0540285 0.097304 0.049302 -0.0814328 -0.0328315 0.0251103 -0.0919395 -0.0124224 -0.0165612 0.0647156 0.0396095 0.0276284 -0.00933574 0.00231995 -0.0897824 0.0146377 0.0936361 0.0872978 0.00283252 -0.0633497 0.00630565 0.0837166 -0.0867209 -0.108523 0.0815725 0.0174374 -0.0241028 0.0594341 0.0477422 0.112892 -0.0645879 6.57064e-05 0.0307218 -0.00767904 0.101831 -0.00473634 0.014153 -0.0113273 -0.105414 -0.00679613 -0.119674 0.0655564 0.0040327 0.0746306 0.0848222 0.0469712 0.0820104 0.0631171 -0.101676 0.0447574 0.0436688 0.0397652 -0.0345198 0.0432376 -0.108388 -0.0668696 0.10444 0.0130251 0.0251663 -0.0181796 0.0933896 0.0647394 0.00194938 0.0939857 -0.0432998 -0.0269467 0.0749998 -0.119628 0.0931219 0.0721505 0.0806438 0.0790254 0.0929571 -0.123799 -0.040258 -0.127369 -0.036982 -0.120148 -0.0773376 0.0590363 0.0831027 -0.117506 -0.0758199 -0.0726673 -0.102217 -0.0546144 -0.0904037 0.0508783 0.0812656 0.0479454 0.10705 0.12142 -0.0719682 -0.0199738 -0.0651386 0.0774545 0.0308209 0.0159494 0.0789867 -0.104072 0.076531 0.0789765 -0.0156922 -0.00832402 -0.0390207 0.0770553 -0.0984669 -0.00124232 0.060293 -0.0803512 0.0468464 -0.130813 -0.0406702 -0.118989 0.0694915 0.0919416 -0.101585 -0.0163481 0.0385547 0.0810296 0.0751279 0.0188536 -0.0996555 -0.0623839 -0.00460701 0.0911883 -0.0450961 0.0749459 0.0732001 0.0810841 -0.102611 0.0380658 0.103116 -0.103833 0.011335 -0.0497929 0.0743813 -0.0455104 -0.069668 0.051398 -0.0642371 -0.105706 -0.127534 -0.00790053 -0.132191 -0.0307688 -0.0383404 0.00333196 -0.118237 -0.0111113 0.00135217 0.0540463 0.0149382 0.0499962 0.0743162 -0.101819 -0.0747777 -0.0543205 -0.0792083 -0.115943 -0.000364576 -0.146666 -0.138442 -0.123898 -0.0347474 -0.15032 -0.132318 -0.0316997 0.0521237 -0.0973314 -0.0564925 -0.0653043 -0.000177025 0.0105026 -0.00844077 -0.0336741 -0.0941839 0.0992608 0.0080586 0.111717 -0.0234011 -0.0776523 0.0668909 0.126767 0.0279652 0.116192 -0.0702215 0.0409198 0.0434412 0.0687702 0.109356 -0.00424936 0.0566637 -0.027186 0.0117692 -0.0028954 -0.0691007 -0.114016 0.00565066 -0.0283704 -0.0822584 0.0149572 -0.0195155 -0.0664057 0.0161131 -0.0878416 -0.0181915 0.0684244 -0.0520966 -0.00403387 -0.0281409 0.066016 0.0883906 -0.0765625 -0.0691402 0.0723706 0.0216558 0.035291 -0.0346705 -0.018055 0.0164551 0.0155173 -0.0665342 -0.127928 -0.108997 -0.0312289 -0.11922 -0.0124204 -0.0911031 -0.0826865 0.0595962 0.081507 -0.0804245 0.0557857 -0.10467 0.0365907 0.0559755 -0.045319 -0.101707 0.0500324 0.0268462 -0.0443488 -0.0484838 -0.0657929 -0.0345693 -0.0263295 -0.01453 0.105203 -0.0841895 0.0868641 -0.0956455 0.0535158 0.0154108 -0.142961 0.0160896 0.0446982 -0.0542425 -0.0349054 0.0344102 -0.0662136 -0.033309 -0.12531 0.0703748 -0.0516023 -0.0741853 0.00281627 -0.0638105 0.00908668 -0.046953 0.0261673 0.109218 -0.0979232 -0.0400072 -0.111404 -0.0278851 -0.0973238 -0.0343281 0.0202722 0.0993158 0.0253823 -0.0872172 -0.0834266 -0.0807282 -0.112401 -0.0562201 -0.140565 -0.130463 0.0540996 -0.119142 -0.0387614 0.0441065 0.0839309 -0.113706 -0.0372179 -0.084901 -0.0254293 0.0418964 0.0254407 -0.0778378 0.0306571 -0.078381 -0.0360316 0.051774 -0.0471153 0.00196854 0.0468256 0.0266492 0.0883131 0.0635835 -0.00908674 -0.0683202 -0.158089 -0.0974667 0.0686721 -0.0281347 -0.12632 -0.0396092 0.0704027 -0.0928194 0.0283937 -0.119526 -0.0218323 -0.00291707 -0.032514 0.0694839 -0.0425085 0.0615455 0.00080553 0.089746 -0.111783 -0.0535344 0.10785 0.0318476 -0.0268081 -0.079725 -0.0397978 -0.0921995 0.0837079 0.0734761 0.0510647 0.0176146 0.0361259 -0.0862035 0.0460109 -0.00170537 -0.00576418 0.0316563 -0.133582 -0.0156009 0.0357718 -0.0151137 -0.0561058 0.0700436 0.0187519 0.0193059 0.0735018 0.0493104 -0.126881 0.0861115 0.0745968 0.0812755 -0.0372656 -0.0339346 0.0891596 -0.0916058 0.00994339 -0.104129 0.0926056 -0.0010305 0.0139859 -0.000202928 -0.131496 0.020358 -0.112619 -0.126382 0.0512446 -0.100662 -0.113625 -0.0149596 0.0556784 -0.108823 -0.00522963 0.0475091 0.030139 -0.0395493 -0.0902864 0.0487094 0.0666561 -0.0173594 -0.085124 -0.0651339 0.0995075 -0.0420122 0.105732 0.032871 -0.0909514 0.0334138 0.0207824 0.0808183 0.00298604 -0.00169568 -0.0195165 -0.137586 -0.0802155 -0.00887314 -0.0806638 -0.0753302 0.0755034 0.0330966 0.045114 0.0961661 0.00424423 -0.0532898 0.0757315 0.00241861 0.0772548 -0.0495304 -0.11201 0.00146364 0.0700249 0.0356391 0.00201006 0.0730672 -0.0217532 -0.00887278 -0.0631572 0.0771438 0.0628262 -0.0346762 -0.0186884 -0.0507557 -0.0952181 -0.0915319 -0.0902904 0.0912162 0.0591006 -0.119295 -0.0711554 0.0560864 0.00942953 -0.0961372 0.112799 -0.0514803 0.0620619 -0.0116154 -0.0311323 -0.0389707 -0.0140967 0.065544 0.0447772 -0.0462075 0.106585 0.0793508 0.0985921 -0.0513604 -0.0533978 -0.120081 -0.107658 -0.0457073 -0.0433707 -0.0687905 -0.0598774 -0.0150596 -0.0810736 -0.084011 -0.115135 -0.0136655 -0.063264 -0.0324425 0.0588619 0.0437379 -0.0545269 -0.00604408 -0.040276 0.118807 -0.0398374 0.120424 -0.0290804 0.0415117 -0.0853681 0.0225455 -0.030226 0.0308032 0.0254631 -0.0998819 -0.0557195 -0.112464 0.00944128 0.0504496 -0.00195563 -0.094382 0.0553622 0.0395103 -0.0126639 -0.0467342 -0.0110026 -0.101513 -0.0224084 0.0778974 0.0469483 0.0280864 0.0903395 0.0071776 0.0918216 0.150069 -0.0468048 -0.0318934 0.0498779 0.0396297 0.0557506 -0.00611837 -0.0810206 -0.0152204 -0.0670698 -0.0643086 0.0334135 0.0352758 0.0756738 0.0137554 -0.0761381 0.00018353 0.0184401 0.0760111 -0.0621601 -0.00150905 0.0768132 -0.109942 0.105179 -0.110651 -0.0370681 0.080039 0.107106 0.0256751 0.120792 -0.0293318 -0.0583657 0.0362386 -0.0652336 0.0207607 0.0875374 0.0621538 0.0355544 0.108419 0.00933248 -0.0590963 -0.0460315 0.0919747 -0.130405 -0.0563094 -0.122294 -0.00671979 -0.062771 -0.0120171 0.0917483 0.106993 -0.00478189 0.0767714 0.122356 0.0774158 0.110178 0.0235946 -0.0696054 -0.0485665 0.0187217 -0.0443091 0.160593 0.0274105 0.103605 0.0273545 0.0627185 0.0403642 0.0853322 0.112416 0.103752 0.0663043 -0.019447 -0.0437025 0.0816637 0.0396561 0.0461948 -0.0284478 0.103427 0.0470659 -0.0702406 0.0937864 -0.00284385 -0.0124379 -0.0579756 0.0695579 0.00656424 -0.0393212 0.115158 -0.0147874 -0.0423379 0.143956 0.0796069 -0.0427248 0.0874935 0.0158095 -0.0146094 -0.087825 0.0144278 0.0576151 -0.011302 0.0308784 -0.11515 0.0281353 0.0555769 -0.0537168 0.0705769 0.00219571 -0.0577726 -0.0964723 0.124729 0.122657 -0.0641221 -0.0116534 0.125246 -0.00418707 0.0956374 0.115489 0.123213 -0.00414006 0.14073 0.0907835 -0.00895383 0.123669 0.0414767 -0.0241668 -0.0336125 -0.0587434 0.0464216 0.111364 0.119461 0.0422185 -0.10933 -0.0672451 -0.0581221 -0.0691154 -0.0152122 0.0485102 0.00427118 -0.0112906 0.0153634 0.0443434 0.0358304 0.0479463 0.111003 -0.0755986 0.108351 -0.0615365 -0.0258667 -0.0419433 0.0767819 -0.0511877 0.0471293 -0.00404179 0.000545403 0.029346 0.0453584 0.0407887 -0.0179885 -0.0771143 0.12299 0.119856 -0.0324723 -0.0638585 -0.0455479 -0.0967779 -0.0168159 -0.0116002 0.041331 -0.00173063 -0.0564683 0.0851064 0.0759281 0.0730189 0.107575 0.0641014 0.0402516 -0.102709 0.0416285 -0.0937467 0.0619868 0.0786365 -0.0607057 0.0302964 0.149569 0.0125776 0.0210846 0.00714556 0.0972176 0.0103944 0.0066117 -0.0384341 -0.0898964 0.0993397 0.0170723 0.0276268 -0.114985 0.00947555 -0.00789687 0.0587899 -0.060391 0.13043 0.137817 -0.0446085 0.0560028 0.0104555 0.0625085 -0.00928382 0.0720432 -0.00292747 -0.0240772 0.0364581 0.118445 -0.0288096 0.0125989 -0.0438283 0.103287 0.129416 -0.0847578 -0.0313835 0.0974496 -0.0122278 0.0594242 -0.058377 -0.0949563 0.0668373 -0.116619 -0.101098 -0.091599 -0.0702947 0.0555317 -0.0755847 0.11983 -0.0524943 -0.0127242 0.0188021 0.0582212 0.0420457 -0.095083 -0.051613 0.09253 0.077423 -0.0690823 0.0984175 0.105781 -0.101079 0.0932321 0.0702705 -0.0679575 -0.0205154 0.0588884 -0.0619964 -0.0715287 -0.0776753 0.0363505 -0.00653535 0.0580242 -0.00886592 -0.0297471 0.109433 0.0974803 0.0944928 -0.0665701 0.0991632 0.0696905 0.0422226 0.0511305 0.0139405 0.0131391 -0.000292879 -0.0937249 -0.0573112 0.0694887 0.0160581 -0.000879202 -0.102392 -0.0769378 -0.079499 0.0835479 0.124445 0.0964835 0.0505875 0.0161855 -0.0176069 -0.0282083 0.0223754 0.00842713 0.124305 -0.0549133 0.0151832 -0.0365396 -0.0075803 0.105323 0.0170188 0.107996 0.130965 0.10232 -0.0857616 -0.0271765 0.00748353 -0.022937 0.0540927 0.0777759 -0.0132566 -0.110702 0.0386303 -0.0393066 0.0838808 0.0351757 0.132665 -0.0129736 -0.0817347 0.000120293 -0.0734093 0.0582106 0.00432115 0.111314 -0.00176992 0.046295 0.0278294 0.102224 -0.00360357 0.00167286 -0.0628956 0.0801352 0.00482995 -0.00855465 0.0501995 -0.0193758 -0.137005 -0.00923273 0.0818312 -0.0714518 -0.12034 -0.0655249 0.0876224 0.0491296 0.0126808 0.0942232 -0.0609092 0.117102 0.118192 0.0640954 0.0862749 0.0598798 0.0279665 -0.0590614 -0.0247915 0.0584454 0.0138447 0.113839 0.113981 0.0399926 0.143904 0.059298 -0.0763956 -0.0756654 -0.0552494 0.0755152 0.0586659 0.0350291 -0.0642581 -0.075655 0.0667859 0.040086 -0.0520749 0.090944 0.0868249 0.057806 -0.0113656 -0.00109735 0.105025 -0.0118244 0.12942 -0.0207572 -0.0314101 0.0167301 -0.0732181 -0.0703031 -0.0168141 0.127369 0.105424 -0.000373744 0.0556286 -0.0939961 0.0250352 -0.0045885 -0.0305009 0.0648449 -0.112464 0.0462966 -0.118691 0.0602302 0.0159499 0.037198 0.0584592 -0.0656405 0.0610509 0.0618757 -0.0384036 0.00630489 0.0531553 -0.0784553 0.000958346 0.0530721 0.0734482 0.00739082 0.0763506 0.1081 0.0669985 -0.0314269 0.0728643 -0.0315542 -0.0787467 0.00414398 -0.0957946 -0.0816272 0.025501 -0.0169003 -0.00627157 0.0642247 -0.0204982 0.0406216 -0.11358 -0.0522308 0.115942 -0.0876671 -0.0444879 0.0482658 -0.0451173 -0.0548331 0.118607 0.0174039 0.070374 -0.00604457 0.129013 0.0938322 0.0690344 0.00129833 -0.020527 -0.0087406 0.0827085 -0.0446091 0.0135381 0.0623661 0.0934941 0.0137281 -0.0310073 0.00262843 -0.119655 0.026051 0.0485703 0.0307534 0.048131 -0.0335054 0.0453293 0.0349003 -0.0884329 0.0634953 -0.0466574 0.0177353 0.0277004 -0.037056 0.0636824 0.0513675 0.0561769 -0.00568037 0.007503 0.106104 -0.0206005 -0.00414936 0.0555088 -0.012486 -0.0201959 0.0653017 0.0281915 -0.127189 0.0703758 -0.128509 0.0575393 -0.0144983 -0.0985619 -0.0710614 0.0755852 0.0536109 -0.101908 0.084229 -0.0762045 0.116275 -0.0111923 0.0830551 -0.0398044 -0.0855426 0.116546 0.0759451 -0.0385463 0.103331 0.0562183 0.118321 -0.0529237 -0.0849128 0.0667197 0.102029 0.037013 0.0267697 -0.0155211 -0.0237132 -0.0745203 -0.010074 -0.0585299 -0.0407465 -0.00475994 -0.0843061 0.0477769 -0.0747796 -0.0442668 0.000540832 0.039343 -0.0241243 0.0218888 0.0257842 0.0601513 0.141009 0.0360793 -0.0792402 -0.0872327 -0.0546865 -0.00806415 0.0655088 -0.06999 -0.00574472 0.102019 -0.0126615 0.0683854 -0.107457 -0.129366 -0.0412072 -0.0352526 0.0110609 -0.119818 0.0180873 0.020032 0.0514958 -0.0695082 -0.0969678 0.0178362 -0.0215041 -0.0155837 0.0239981 -0.0217343 -0.0247204 0.0194484 0.109685 -0.00932677 -0.0714932 0.0390106 -0.0852559 -0.0742168 -0.00440924 -0.102943 0.105538 -0.0258224 0.105589 0.0509714 -0.0583794 -0.00942418 -0.0118098 0.0820502 0.106786 0.0827864 0.0535355 0.120751 0.0163753 0.0964858 -0.0687438 -0.00845913 -0.068505 -0.0230321 -0.0552733 -0.0272757 -0.0991617 -0.0774812 -0.0871368 -0.151656 -0.0535216 -0.0206854 0.0498118 -0.0535346 0.0279993 0.0292752 0.0564979 0.11322 -0.0428859 0.116149 0.0193871 -0.0505656 0.0387374 -0.0642645 -0.00700893 0.00370416 -0.0425647 0.0618068 0.000830426 0.0494979 0.0302081 0.0883126 0.075085 -0.0232673 -0.0981768 -0.1412 -0.149772 -0.0613506 -0.139188 0.0628613 -0.149806 -0.124481 0.0781584 0.0809435 -0.0883435 -0.102313 -0.0217011 0.0343663 0.0380631 0.0934257 -0.0132871 -0.0237883 0.0216285 -0.0465 0.107415 0.119522 0.0820902 -0.00188756 0.0984723 0.0027846 0.0427491 -0.0125381 -0.115978 -0.0785234 0.0316499 -0.0630959 -0.0775967 -0.0434446 0.0120452 -0.145515 0.00994152 0.0477716 -0.00464566 -0.104482 0.0101179 0.0325088 0.0129892 -0.0571502 -0.0343946 0.0213026 0.0608753 0.0239125 0.0646009 -0.0158566 -0.0613567 -0.00162171 -0.048433 -0.0245995 -0.0527909 -0.0840684 0.0313434 -0.0102791 -0.0136187 0.026938 0.0949264 0.0561419 -0.0441516 0.0682079 -0.118405 0.0650917 -0.0942355 -0.104003 0.00088451 0.026458 -0.0278373 -0.0318789 -0.0842726 0.0411799 0.0924237 0.082194 0.0506571 0.0302002 0.0637577 -0.0718651 0.0990736 0.0506023 -0.0121249 -0.0802493 -0.0561423 0.0510052 0.0160478 -0.00971499 0.00459068 -0.0277477 -0.0403325 -0.122307 -0.132416 0.0717507 -0.0218702 -0.147914 -0.019097 -0.140821 0.0621595 -0.113308 -0.131666 -0.0316263 0.083768 0.0119013 -0.0946978 -0.0850921 0.130894 0.016953 -0.0846006 0.0918905 0.051316 -0.00433609 -0.0213705 -0.0305474 0.00066594 0.0867693 -0.00176152 -0.0984306 0.102341 0.0485535 0.0134805 -0.11787 -0.0571998 0.0429802 -0.0559271 0.0601569 0.0627894 -0.0687616 -0.0936113 -0.0996731 -0.0754552 0.0491424 -0.0632391 -0.0898962 -0.103432 0.000939931 -0.0896342 0.108736 0.125464 0.118494 0.0332388 0.0436727 -0.114439 0.0931902 -0.0836652 -0.0504236 -0.091047 0.117425 -0.106568 -0.0503457 0.0387331 0.0101887 0.0527406 0.040471 -0.0929478 -0.0602159 -0.119472 -0.0772183 -0.01676 0.0771451 -0.100746 -0.0562781 0.0264486 -0.00652695 0.0100058 -0.109456 0.101013 -0.057163 -0.0669872 -0.0739677 -0.0779249 -0.0323416 0.0895202 -0.0725924 0.108656 -0.0211995 0.023647 0.0968791 0.114809 -0.0831143 -0.119674 0.0330867 -0.0428012 -0.0151807 -0.0316249 -0.070796 -0.119804 0.0364206 0.00865737 0.0546873 -0.0478582 0.0147565 -0.10305 -0.104785 -0.114824 -0.0739436 0.000230145 -0.0325496 0.0995752 0.0883197 0.0247393 -0.0706889 0.0481117 -0.0571863 -0.00452867 0.109099 -0.0269359 -0.0252177 0.0341885 -0.088352 -0.0557081 -0.0326796 0.0311718 0.0500904 -0.0875387 0.10138 -0.0774826 0.0215995 0.0014297 0.0116352 -0.0819643 0.089403 -0.04016 0.100892 0.00340116 0.029699 -0.0465712 -0.129329 -0.0470354 -0.00637319 -0.0172639 -0.0542677 -0.0710612 0.00906973 -0.0982993 -0.0333575 0.116769 0.118591 0.0185491 0.0348962 -0.00851785 -0.0833933 -0.0183634 0.0836185 0.0872975 0.111665 0.0499584 -0.0921569 -0.108237 -0.0554419 0.00618399 0.0630254 0.0434146 0.050211 0.0283406 0.0505051 0.0523103 -0.099915 -0.0582548 -0.0926212 0.03981 -0.0782191 -0.0345251 0.0654058 0.00429606 -0.0735765 -0.0132618 0.0658265 0.0919673 -0.0748482 -0.0992077 0.0344891 0.0565188 0.0185405 0.0175516 -0.0497819 0.0957888 0.0968806 0.0575757 0.0801807 -0.0915743 -0.0408294 0.0534953 0.0022687 -0.0794422 0.000690511 -0.0159531 -0.116402 -0.00595217 -0.119193 0.0892439 0.0804591 -0.0731788 -0.0216826 -0.0407821 0.0622751 -0.0101563 0.00372493 0.0580145 0.0773666 0.0188813 0.0432339 0.0870178 -0.068976 0.0224628 0.0164035 0.0868699 -0.0589136 0.0635487 -0.0957945 -0.0890632 -0.00554569 -0.0870226 -0.00585065 0.0362292 -0.0471302 -0.0179675 0.0254238 0.0603984 -0.0621223 -0.104721 0.0697331 0.0600692 0.102318 -0.0111142 -0.0748747 0.117802 0.02532 -0.0405311 -0.0762201 -0.0391496 0.0968431 0.0138435 -0.0431377 0.0964431 0.0212951 -0.0528459 -0.0200296 -0.112719 -0.0152957 0.0456498 -0.0355759 0.0437545 -0.134645 -0.0749537 -0.0105919 -0.0169298 -0.0438583 -0.0668902 0.0506065 0.0406998 -0.0843833 0.107831 0.0728702 0.0238414 -0.00207558 0.046105 -0.00298182 -0.0804026 -0.041514 0.0304447 0.0491136 0.0901822 0.0566575 -0.0338843 -0.105116 -0.0709102 0.094233 -0.068933 -0.0968627 -0.0181969 -0.120899 -0.0911872 0.0909051 -0.100553 -0.0840992 -0.000570318 -0.0768455 -0.109215 0.0984427 0.0133588 0.039415 -0.10087 -0.104305 0.0875188 -0.0214149 0.0419424 0.0771278 -0.0537654 0.0277923 0.0585448 0.00317379 0.0515283 -0.116938 0.0568734 -0.068826 -0.0804291 -0.0586464 -0.0665934 0.0441648 0.10287 -0.0237218 0.0605444 -0.00115678 0.0835904 0.074444 -0.105872 -0.0657732 -0.124964 -0.0230963 -0.0437328 -0.0507699 0.0952802 -0.0929592 -0.0721511 0.0300652 0.0265833 0.0475806 0.0283099 -0.0338522 0.0664343 0.0573519 -0.0416451 0.0847987 -0.0794455 -0.0883692 0.0459379 -0.0111303 -0.0423809 -0.0591834 0.0288614 0.117114 -0.0428589 0.00913504 -0.0633402 -0.0730201 -0.110443 0.0356778 -0.0244855 -0.110954 -0.017719 -0.113897 -0.00761086 -0.108447 0.00939244 -0.108581 -0.0618556 -0.0717802 0.0992423 0.0933088 -0.0881893 -0.0198426 -0.00480022 -0.0824567 0.0313092 0.0509703 -0.126676 0.0650965 0.0870273 0.0334778 0.068542 0.0434685 -0.00321375 0.107156 -0.0927593 0.0292624 -0.0684694 0.045735 -0.0947149 0.0553827 0.0152841 -0.0866521 0.0801327 0.0187825 0.0781121 -0.115172 -0.068878 -0.112878 -0.0827109 0.0281301 -0.0684323 0.0316903 0.00158871 -0.0857537 0.0239431 0.0397982 0.00733744 -0.0228924 0.00303255 -0.0883049 0.0216684 0.035134 0.0046046 -0.0361107 0.0893385 0.0114931 -0.122074 0.0560237 0.0137981 -0.0997634 -0.0282581 -0.146612 -0.0416059 0.0579517 -0.0224938 0.00482231 0.0300502 -0.0833859 0.030305 -0.0548205 0.0672795 0.123029 -0.0308905 -0.0496101 -0.0520987 -0.0739471 0.0420354 -0.0818739 -0.100167 -0.114846 0.0512904 0.0191919 -0.0527783 -0.0576174 0.0290564 0.0818807 -0.0774138 0.0130575 -0.120303 -0.0848623 0.0159351 0.0434144 -0.0743616 -0.143775 -0.00677484 0.00646892 0.0721556 -0.105205 -0.0313378 0.0980062 0.0310138 -0.0251888 0.0526863 0.037765 -0.0713643 0.0582739 -0.014767 -0.0652889 -0.102834 -0.0889745 -0.0128515 -0.0944096 -0.0651209 0.111738 0.0172149 -0.0113195 -0.0867613 0.0135507 0.0443018 0.0441335 -0.136681 -0.0335636 -0.0646966 0.0632771 0.0657223 -0.123723 -0.100458 -0.0812098 0.00941684 -0.0545278 -0.0245639 0.0257418 -0.0276291 0.0516639 -0.0247519 -0.0901325 -0.0615846 0.000896508 -0.0832343 -0.0877406 -0.0158644 0.0594544 0.0968061 0.00976062 -0.0692349 -0.108697 -0.0898508 -0.10354 -0.0884966 0.0458698 0.0404746 -0.10382 0.0461214 -0.0546671 0.0567094 -0.0780651 -0.0336289 -0.0567509 -0.071539 0.00578564 0.0275611 0.0815635 0.113064 -0.038184 -0.0875432 -0.0925838 -0.0122233 0.0854457 -0.00551559 -0.0238662 -0.0292564 0.0744719 0.0998671 -0.0701201 0.0938603 0.0500414 0.049998 0.00511898 -0.0328184 0.0921711 0.0389132 0.121747 -0.0646398 0.0580221 0.104002 0.0125217 -0.0615511 -0.0673843 -0.0362641 -0.0169392 0.111653 0.0761029 0.0136516 -0.0349757 0.120912 0.0103474 -0.0679796 0.0607821 -0.0487699 0.0611315 0.0285713 0.0818743 -0.0806792 0.100717 0.0945333 -0.0222585 0.0816952 0.0888448 0.0493588 0.0154259 0.114926 0.00649071 0.0355104 -0.0373392 0.049822 -0.0801009 -0.0465947 0.104182 9.86925e-05 0.0610909 0.14223 -0.0663936 0.00285198 0.113693 0.0613198 0.110168 -0.0725717 0.0702409 -0.0333204 0.062551 0.0750758 0.0551288 0.0341209 -0.0658539 0.00543111 0.000471407 -0.0927238 0.0117401 -0.0508638 0.137062 -0.0824085 -0.0865065 0.0526587 0.122638 -0.0742792 0.0605151 -0.0571867 0.0650861 -0.041631 0.00764311 0.0632877 0.0116287 0.0771519 0.120587 0.0984472 -0.052655 -0.0363269 -0.0444984 -0.0658875 -0.00968641 0.019447 0.0612096 0.0281266 0.110104 -0.0638612 0.0984091 0.125931 0.0632721 0.0410135 -0.0323457 0.114481 0.0471202 0.096067 -0.0473495 0.0325244 0.0388161 0.0925581 0.141291 0.00402448 0.168953 -0.00585389 0.032989 -0.0624622 0.123312 0.0656176 -0.0795738 -0.0162459 0.0519229 -0.0431162 0.0303109 0.0295604 -0.0832815 -0.00539591 0.0369896 -0.0835377 -0.0162856 0.114339 0.106423 0.143408 -0.0555167 -0.0577111 -0.0628188 -0.0308292 0.0557027 0.124311 0.126863 -0.00675643 -0.0243872 0.138802 0.0461487 0.150861 0.0393829 -0.0560105 0.068851 0.0982167 -0.0618621 -0.0845688 0.0708049 0.0723613 -0.065566 -0.100893 -0.0290597 0.0340138 0.0346272 -0.0832086 -0.0407864 -0.0346543 0.0575067 0.0280872 -0.0137571 0.146584 0.0103134 -0.0122079 -0.0442155 -0.0188038 -0.0559981 0.134471 -0.0460547 -0.0371555 0.0732033 -0.0484441 0.00266444 0.0928885 0.135729 -0.0233912 0.085519 -0.00449077 0.0707992 -0.04917 0.0755813 -0.0246225 -0.0549056 -0.0254985 0.0377946 0.0182456 0.131943 0.109344 0.100165 0.0253148 0.00477926 0.059763 0.110707 0.0421798 0.1264 0.0256868 0.0793877 -0.00900488 0.0220573 0.0346428 -0.0324675 0.0161887 0.0598654 0.0973311 0.0910481 -0.0852526 -0.0808332 -0.0461623 0.103496 -0.0755611 -0.0367686 -0.0663006 -0.0228464 0.132565 -0.00260645 -0.0211972 0.0828639 0.0773514 0.0283165 0.00548232 -0.0269109 0.149248 0.0505958 0.0637015 0.108643 0.133513 0.0921652 -0.00545491 0.0978344 -0.0560702 0.142017 0.0652345 -0.0299699 0.0529296 0.0550843 0.108627 -0.0475471 -0.0495154 0.00520207 0.0930899 -0.0243233 0.0523984 0.0107239 -0.0233745 0.0733238 -0.09284 -0.0482062 -0.0657978 0.0183068 0.0813725 0.0311458 0.0287618 -0.0723269 0.0980288 -0.0817462 0.0856958 0.0254171 -0.123277 -0.0409598 0.00814394 -0.0498599 0.060472 0.0238053 -0.0978166 -0.0135901 -0.052928 0.0375746 0.0751441 -0.00228367 0.0541786 -0.0840431 0.0606789 -0.0573404 0.0219374 0.0464626 -0.0269734 0.0966193 -0.00849287 -0.090719 0.091279 -0.0372052 0.0241693 -0.0353466 -0.0389351 -0.122449 -0.105757 -0.111066 0.021122 -0.127651 -0.0603731 -0.123795 -0.015094 -0.0369946 0.0214964 -0.100377 -0.0439895 -0.0345019 0.0394306 -0.0839005 0.0568053 0.0501088 0.0483043 -0.111218 -0.0558751 -0.0757918 0.0837315 0.00756606 -0.0388694 0.095331 0.0386617 0.0190797 0.00634386 0.048866 -0.0540859 -0.088121 0.0270399 0.0184929 -0.0678986 -0.0739809 -0.0929318 -0.13315 -0.0846579 -0.0938955 -0.0404373 -0.149489 -0.124399 -0.00474172 -0.111978 -0.0132324 0.00569293 0.000677114 0.072184 -0.0576938 -0.0364208 -0.0914861 -0.0747321 0.033696 0.00942595 -0.0553377 0.0655157 0.138297 0.112582 0.0797599 0.128257 0.041091 -0.0591777 0.00705267 -0.129496 -0.0618548 -0.0668972 -0.130176 -0.0650278 -0.0998764 -0.0320835 0.0159744 0.077865 0.0545672 -0.0880798 0.0970079 -0.108119 0.0141648 -0.057124 -0.0381581 0.0642584 -0.0297481 -0.0307579 0.0379578 0.0725461 -0.0522348 0.123333 0.136219 0.00304972 0.158507 0.146691 -0.05272 0.0822123 0.071809 -0.126374 -0.138167 0.064787 -0.138901 -0.024273 -0.124654 0.0110902 -0.151769 -0.0207579 -0.0805299 -0.0931449 -0.0934403 0.0522729 0.0804372 -0.0544665 -0.102213 0.0550454 -0.123027 0.0552182 -0.0566323 0.115843 0.053157 0.128792 0.154308 0.167151 -0.0615438 -0.0574118 0.0155857 0.0457217 0.051102 0.0620877 -0.118142 -0.0110295 -0.0699933 -0.104042 0.00450631 0.0372464 0.0534068 -0.106961 0.0587546 -0.0097535 -0.108319 -0.118869 -0.0386997 -0.0477473 -0.0274423 -0.00920746 0.0670745 0.0526008 0.0248729 0.019388 0.129584 0.132288 -0.033357 -0.0264068 0.0854277 0.0878935 0.0131981 -0.0297972 0.0417814 0.0861224 -0.0577479 0.0214397 -0.144752 -0.169472 -0.0428155 -0.0863321 -0.060925 0.0211909 0.00612979 0.023947 0.0372143 -0.032373 -0.12544 -0.0659823 0.00946067 0.0858352 -0.128318 -0.127236 0.0147185 -0.00677354 0.123696 0.010923 0.133655 0.0819541 0.0106651 0.140478 0.116874 0.0795238 0.0757078 0.0971913 -0.0767648 -0.137446 -0.0220483 -0.0399066 -0.0215549 -0.122339 -0.121575 -0.0625654 -0.0823704 -0.160619 -0.048478 -0.0771669 -0.0316439 -0.114602 0.00957151 -0.0778756 0.0810373 -0.0598202 0.0542148 0.117459 -0.0761067 0.117164 0.142201 0.0744081 -0.0534824 0.0458689 -0.0376967 -0.0205855 0.0857129 -0.0926779 -0.0733304 -0.102404 -0.106892 0.000246575 -0.0399778 -0.038842 -0.0037957 0.0118597 0.0178938 0.0122263 -0.087989 -0.126751 0.00398104 -0.094539 0.0562416 -0.117551 -0.0386902 0.0640479 0.00558367 -0.000383197 -0.0297537 0.128568 -0.0290649 0.0411295 -0.0307221 0.0371009 1.67415e-05 0.0993739 0.0784473 -0.0212843 0.116856 -0.126276 -0.109052 -0.0152469 0.0527615 -0.0815076 -0.11757 0.0295154 -0.0239873 -0.0612447 -0.10993 0.0773173 0.0458584 0.072405 -0.0628849 0.0405719 -0.00512396 -0.061225 0.0536709 0.0393585 -0.0707164 0.0692789 0.0847582 0.127638 0.0825463 0.0992313 -0.00951223 0.026208 0.0711882 -0.0364991 0.0426456 -0.0680723 0.087484 -0.0271672 -0.111128 0.0113487 0.0269557 -0.10193 -0.0485389 -0.0669134 -0.0084254 0.0818275 -0.122079 -0.0474588 -0.0636455 0.00522053 -0.10698 0.080968 0.0123962 0.114898 0.0900521 0.0832875 0.0222118 -0.00866045 0.144074 -0.0603079 -0.00875857 0.0933399 -0.0591771 0.0876937 0.00170248 0.0450309 0.0820447 0.0630357 0.0316698 0.0369741 -0.0104415 0.0489368 -0.0537217 0.0652661 -0.0957932 0.0700351 -0.101733 0.00969279 0.0306524 -0.0386067 -0.0889363 -0.0791212 0.0462822 0.0155469 -0.0307748 -0.000606427 0.136463 0.0219902 -0.0687269 0.103668 0.0565889 0.116748 0.00257837 -0.0360246 0.151464 0.0372296 0.0618976 0.0532454 -0.0733665 -0.0473214 0.00123008 0.0530568 0.0642413 -0.0610752 -0.0665277 -0.015575 -0.079191 -0.0474648 -0.00232338 -0.0453953 0.0113344 0.0288262 -0.0436537 -0.0304661 -0.0525656 -0.0809633 0.0428939 -0.0706717 -0.027697 0.0633652 0.0893562 0.0157993 0.0840984 0.0878198 0.0884318 0.00427581 -0.0569008 0.0346311 -0.061763 -0.0599752 -0.0154414 -0.0739336 -0.02897 0.0881458 0.0763354 0.070844 0.0880232 0.121934 -0.0101177 -0.0600272 -0.0465223 0.0264848 -0.0134372 -0.0364432 0.127637 0.133955 0.140999 0.0324362 0.0316932 -0.0434306 0.104254 0.141678 0.170021 0.0463666 0.0369157 0.0551219 0.113892 0.00967672 -0.0822979 -0.0713048 0.0915921 0.0794271 0.0598619 -0.0734312 -0.0669171 0.102484 0.107896 -0.0552448 -0.0512641 -0.0205605 -0.076101 -0.0681877 0.0136352 0.0968096 0.0362565 0.102583 0.113484 -0.000106036 -0.0320806 0.0374927 0.17158 0.154432 0.0873374 0.120164 0.0770555 0.0967858 0.129 0.0987283 0.0547819 0.0881299 0.0942959 0.0227042 -0.0820327 0.00402041 -0.0594947 -0.0444008 0.093547 0.0924634 0.0516007 -0.0209967 0.00381179 -0.116796 -0.026666 0.104596 0.0999774 0.0931413 0.0947669 -0.0477474 0.0077258 -0.0236904 -0.0292396 0.132001 -0.0265037 0.146796 -0.0181822 -0.0516529 -0.0386611 -0.0389229 -0.0785568 0.0607396 -0.006135 0.000292535 0.0356278 0.0141507 -0.0211202 0.0831028 -0.0298524 -0.0629886 -0.0388307 -0.0385427 0.0616777 0.075377 0.0354384 0.00693861 0.0480652 0.130388 -0.0885967 -0.028036 0.0336204 -0.0196049 -0.0500527 0.109034 0.159843 0.168673 0.0627769 0.0130993 -0.0497041 0.117286 -0.0771799 -0.0186556 0.0822884 -0.0408128 0.0619872 -0.0824651 0.0172165 0.0555296 0.0194498 -0.0453454 0.0143336 -0.122639 -0.0636615 -0.031757 0.0798726 0.0210378 -0.0548458 0.00611635 0.0209069 0.103642 0.0602286 0.0186508 0.0119243 -0.0189541 -0.0183723 -0.0383194 0.077569 0.102411 0.018248 0.112209 -0.101415 -0.0535188 -0.0536038 -0.0283908 0.0208721 0.013409 -0.0197537 0.0335194 0.0440541 0.0444892 -0.00833486 -0.0565262 -0.108516 -0.019304 0.0952827 -0.0295599 0.0506701 0.0907748 0.0277953 -0.0264694 0.0620189 -0.0292737 0.114131 0.0148992 0.0739941 0.101115 0.062139 -0.0385232 -0.0694548 0.0957548 -0.0459066 0.0840819 0.0875361 -0.0269872 -0.135757 0.00921659 0.0446006 -0.0811071 -0.0802194 0.0356122 0.13773 -0.141468 0.0161036 -0.0056165 -0.101174 -0.0460662 0.0428807 -0.0405007 -0.0568049 -0.0549445 -0.083929 0.117882 0.0971063 0.13741 -0.00129541 0.036794 0.0190795 0.0223631 -0.0654727 -0.017155 0.0793124 -0.0814872 0.00797567 -0.121347 -0.0506431 -0.126576 0.0411249 0.0192026 -0.0293362 -0.0698536 0.0282286 0.0521267 0.0199778 0.0574318 0.0205137 0.0241186 -0.0740453 0.020112 0.0584443 0.0226417 0.0329931 0.0927333 -0.0046176 0.0015117 0.0183204 0.111477 0.0715939 -0.0159035 -0.070495 -0.00264449 0.0598263 -0.111054 0.0554459 0.0532704 -0.0711315 0.0860812 -0.083292 0.0598736 0.0763274 -0.0821097 0.0221686 -0.144274 -0.128238 0.0394003 -0.0492878 0.0970286 -0.00208314 0.0802741 -0.0636215 0.0311345 0.0234339 -0.0158522 0.0402113 -0.00171253 -0.0489221 -0.00916763 -0.067971 0.0273732 0.0897206 0.0596288 0.0378073 -0.0409779 0.00385033 0.0776112 -0.0707871 -0.0568598 -0.0235347 -0.0552338 -0.0923792 -0.0979802 -0.0236092 0.0455889 -0.0779885 -0.103715 -0.0541826 -0.04824 0.0881474 0.0164787 0.0165499 -0.00585389 0.0211969 0.0488941 -0.0968479 0.0740922 -0.0959536 -0.0288121 -0.0123366 -0.0465494 -0.0819319 0.0802536 -0.0176019 -0.10045 -0.0729851 0.0329099 -0.0942693 0.0644554 0.0213854 -0.0975654 -0.0592384 0.100184 0.122714 0.00259282 -0.0685597 -0.0788439 -0.0952842 0.045034 -0.0996479 0.0180134 0.0210989 0.0713988 -0.0563771 -0.0544297 -0.00772415 0.0022745 0.00193825 0.00650516 0.0659473 -0.0390941 -0.029167 -0.0834492 0.124639 -0.069249 -0.000759726 0.109255 -0.105096 -0.0822321 -0.0936848 -0.00563041 -0.0174068 0.0869865 -0.0223448 -0.0964431 -0.0632062 -0.0239371 -0.0583156 0.00106477 0.0580775 -0.038915 0.0951794 0.0730867 -0.0610576 0.0264116 -0.0930108 -0.0542412 -0.05958 0.124325 -0.00460233 0.087513 0.117554 0.0570158 0.146432 0.0395902 0.0504043 -0.0941005 0.0920998 -0.0367848 -0.0364036 -0.0665771 0.0131949 -0.074476 -0.123792 -0.0491392 -0.00933507 -0.0350542 0.0735255 -0.0505651 -0.049146 0.0532232 -0.0171765 0.118688 -0.0875681 0.0958563 -0.0842534 0.0931954 -0.0755338 0.0449382 0.0198757 0.0580262 0.0977626 0.0764241 0.00794735 0.0583244 -0.0197827 0.037899 -0.0235244 -0.0562705 -0.0149515 -0.0722984 -0.115448 0.0077685 -0.0430334 0.0698779 0.00552378 -0.0352984 -0.0463288 0.10122 0.0330449 -0.0318315 -0.0350207 -0.0301006 -0.112239 -0.0483408 -0.0981866 0.0786261 0.00242501 0.108289 0.114397 -0.0709362 0.114385 0.0774017 -0.0344485 0.0751772 0.0843995 -0.0135111 0.0299245 0.0120194 -0.00885264 -0.00996406 -0.0698885 -0.0752877 -0.11981 -0.079586 -0.0458849 0.0450974 0.0806516 0.0594695 0.0729517 0.0983395 -0.00632993 -0.0484268 -0.0704254 -0.129912 -0.100664 -0.0258098 0.0804084 -0.116051 0.0736783 0.0993361 -0.05862 -0.0172767 0.0421897 -0.0694946 0.0364911 0.0505368 -0.087012 0.0392132 0.00936235 -0.0828977 0.0495026 -0.0517024 0.0684056 0.111625 0.0337238 -0.0680509 -0.0660827 -0.0917641 0.0109256 0.073252 0.0823968 -0.0648525 -0.00338926 -0.0791738 -0.0852365 0.0756155 -0.0214606 -0.0911219 0.0877473 -0.101708 0.104057 -0.0674674 -0.0781909 -0.0158032 -0.0153595 -0.0253843 -0.0635095 -0.00906026 0.0410541 0.0584144 -0.117898 0.0377972 0.0813128 -0.0721764 -0.11306 0.0856962 -0.0171177 -0.0048374 -0.003598 0.0067692 -0.00788536 0.0457923 0.0504868 0.0491176 0.0652785 -0.0963494 0.0332587 0.0395856 0.0604358 0.100066 -0.0519333 -0.00752123 0.10537 0.102865 -0.0701032 0.0195149 0.0877341 -0.0788613 0.106722 0.122862 0.0460533 0.124735 -0.017284 0.0592375 0.0100057 -0.0261514 -0.105896 0.0139195 -0.0174551 -0.0578292 0.0515255 0.0772975 0.102124 0.0827524 -0.093447 0.11761 -0.0606459 -0.0968327 -0.0789943 -0.0303681 0.0996228 -0.0903917 -0.0573669 -0.0543053 0.12785 0.137496 -0.0182915 -0.0449726 0.0895593 0.13268 -0.0515167 0.033364 0.0801879 0.0289352 0.0986433 0.00105027 0.0700279 -0.00213013 0.0451918 0.0504889 0.0403862 0.111699 0.0535794 -0.0414354 -0.0728317 -0.0621992 -0.0114753 0.107839 0.0334815 0.066838 -0.0738728 -0.0116194 0.107423 0.0821705 -0.0386586 0.0154879 0.0253416 -0.0469812 0.126943 -0.0690262 0.0705171 -0.0601428 0.102912 0.0503523 -0.0138755 0.0263769 -0.11193 -0.000644012 -0.116285 -0.098701 -0.104446 -0.0996269 0.0343894 -0.0709958 0.00579657 0.136194 -0.070108 0.101649 0.0825896 0.0696178 0.0982878 -0.0157797 0.0673376 0.106382 0.0709178 0.140202 -0.0754268 -0.0126474 0.0730707 0.0854349 -0.0622747 0.123565 -0.084701 -0.020698 0.0717425 -0.0906911 0.0369852 0.0439091 0.0700407 0.117651 0.0847414 0.0167198 0.024113 0.126058 0.111079 0.0740678 0.102867 0.0957848 -0.0531413 0.095551 0.0650702 -0.0569616 -0.0632229 0.10735 0.0407596 0.0631249 -0.0379535 -0.0965521 0.0121291 0.101049 -0.059785 -0.0731011 -0.0465182 0.0809636 -0.0454938 -0.0766928 -0.0209923 0.0311964 -0.0877516 0.0628646 -0.0872259 0.01651 0.0837998 0.108526 0.0673885 -0.0521863 0.0240218 -0.041344 -0.0686897 0.134669 0.0130267 0.103862 0.000526068 0.0346678 0.0318359 -0.0016335 0.105288 0.0512783 0.00426192 -0.0169006 -0.0936969 -0.104269 -0.0717152 0.0565275 0.0474428 -0.0646823 -0.0465781 0.10172 0.0458469 0.0342101 0.127547 -0.0340759 0.138859 0.098895 -0.0598022 -0.0307365 0.138702 0.128245 0.0482873 -0.0789063 -0.0180957 -0.0486746 0.00755066 0.0317258 0.044839 0.0226698 -0.030875 -0.0254032 -0.142788 -0.0290468 -0.0703143 0.0868122 0.0863782 0.0466856 -0.0478632 0.0641126 -0.0851489 -0.0518892 0.105858 0.0504288 0.0984849 0.0771816 -0.0648759 0.0164882 0.00377338 0.116045 0.0500503 0.0101149 -0.0491518 -0.03246 0.136117 0.027539 0.0875767 -0.0554984 0.110818 0.039702 -0.0809704 -0.137943 0.00904161 -0.0510022 -0.00499881 -0.0258338 -0.0832696 -0.124015 0.0200948 0.0319363 0.108971 0.0148238 -0.0492106 -0.0365633 0.10083 -0.076401 -0.0234159 0.00975503 -0.080277 0.0769883 -0.0310921 -0.043022 0.0615208 -0.0699866 -0.0311543 0.114273 -0.0299844 -0.0778082 -0.0960493 0.0111385 0.0684889 -0.107339 -0.0554086 0.027723 0.0282344 0.0746333 -0.0802843 -0.10364 0.02246 -0.0951374 0.0477051 -0.0681669 0.101395 -0.072506 0.000602529 0.116322 -0.0958338 0.0739896 0.0580751 0.0635693 0.0955325 0.0633599 -0.0420802 -0.0453672 0.044596 -0.0285823 -0.0410265 0.0519478 -0.0804642 -0.0162526 0.0323234 0.00407729 -0.143394 -0.128665 -0.145805 0.048718 -0.101417 0.0595677 -0.0165586 0.101841 0.0597252 0.0877471 0.0802473 0.0933639 0.0169207 -0.00839882 -0.0947776 -0.099296 0.0763746 0.0760816 0.107581 0.00427501 0.0405432 -0.0441562 0.109351 0.0544181 0.0796289 0.0357278 -0.092328 -0.0291593 0.0772011 -0.064922 0.0587793 -0.116408 -0.0289884 -0.103085 0.00676094 0.0576392 0.0749178 -0.05483 0.0592648 0.0510318 0.086978 -0.0397433 0.0803798 0.018563 0.0661854 -0.0362169 0.0744418 0.00790011 0.051963 0.0522343 0.110281 0.0493479 0.0806315 0.0851527 -0.0691207 -0.00894785 -0.0240111 0.0309036 0.0103508 -0.109727 -0.0798709 -0.00859876 -0.120069 0.0316172 -0.0409816 -0.0732775 0.0826896 0.0258338 0.0183099 0.00857712 0.0890249 0.0348964 0.0548212 0.0965217 -0.0779402 -0.035492 -0.0809514 0.0649781 -0.00825713 0.024674 -0.0211773 0.0568942 0.0114782 0.122831 0.0452567 -0.0331119 0.00133392 0.0618796 -0.119596 0.0275175 -0.14124 -0.138767 -0.0605188 -0.0586881 -0.0917202 -0.134611 -0.017093 -0.00871618 -0.0797159 0.0696997 -0.108626 0.0471091 -0.113725 -0.0772219 -0.00557043 0.0121732 0.117946 -0.0200464 -0.0787348 -0.0709942 0.01018 -0.0228886 0.0883479 0.102657 -0.0740568 0.00271509 -0.108092 0.0927301 -0.119137 -0.0992269 0.0397489 0.0689483 0.00853255 0.0104 0.0866712 -0.0484109 0.0935719 -0.0376549 -0.115926 0.0872297 0.0424378 -0.106944 -0.0173871 -0.0478282 -0.00853794 0.102638 -0.0884648 0.10123 0.0562548 -0.0104289 0.106002 0.127972 0.107449 0.0385786 0.0144599 0.00937257 -0.0164808 0.0171066 -0.0967249 0.100114 -0.00097429 -0.0649051 0.0360393 -0.0623817 0.00529373 -0.0857323 -0.0525781 -0.0353765 -0.0530071 -0.0673127 0.0938326 -0.0802156 -0.069568 -0.0269802 0.0468926 0.0941603 -0.0800942 0.048039 -0.0161284 0.0799255 0.0317136 0.12846 0.142525 0.120148 0.00707865 0.0366706 -0.0214476 -0.00646748 -0.0912623 0.0113585 -0.013259 0.0947735 0.085641 -0.0877212 -0.0862884 0.0980081 -0.0555093 -0.0893325 0.032344 -0.0963825 0.063576 -0.0555375 -0.0587471 0.0318447 -0.137732 -0.062376 -0.0752836 -0.00323724 -0.0332465 0.0467126 0.124428 0.0671916 -0.0383637 0.03383 0.0411014 -0.0718447 0.0465327 0.00405016 -0.0621005 -0.108569 0.00119307 0.0634376 -0.0202407 0.057016 -0.0488199 -0.0573868 -0.0883975 0.0209953 -0.140905 -0.00355567 -0.082802 -0.00424096 -0.0770485 -0.00981118 -0.0831913 0.0412165 0.0448598 -0.102464 -0.0320667 -0.0700778 0.115598 0.0183627 -0.047973 0.00678985 0.0568675 -0.0253308 -0.0177123 -0.102996 -0.027087 -0.02399 -0.0721611 0.0727934 0.0262083 0.047388 -0.0433857 -0.0752959 -0.102496 0.0668687 -0.100887 -0.0871467 0.0447844 -0.0180553 -0.145677 0.00496819 -0.0209867 0.0392371 0.043975 -0.00821075 -0.0336404 -0.121246 0.0139483 -0.100743 -0.0410597 -0.0983892 0.0834371 -0.0623816 0.039493 -0.0547822 0.110122 0.0914627 -0.0307495 0.0922408 -0.0861307 0.0337664 0.0114722 -0.026855 -0.032535 -0.0827208 0.0324088 -0.00828788 -0.136995 -0.0890486 -0.0216188 -0.0376927 0.0220623 -0.0618676 -0.0128814 -0.0759343 -0.0515311 0.0567522 -0.0227304 0.0550203 -0.00144455 -0.0591724 0.102725 -0.0281358 -0.0452166 -0.0860086 -0.0440289 0.0477131 -0.0847528 0.0694562 0.0141335 -0.0427771 -0.0585962 -0.081 0.0368075 -0.0717032 -0.0324866 0.060207 -0.068255 0.0077253 0.0649329 -0.0848368 0.0239175 -0.058376 0.0540787 -0.0216631 0.0320368 -0.00868945 -0.0193232 0.0110971 0.0402994 -0.037638 -0.0192378 0.00727851 0.104093 0.0985145 0.0111703 0.0563871 -0.0583612 0.0481075 -0.0722137 -0.0689063 -0.0157329 -0.103843 0.0343804 -0.0221031 -0.134071 0.0243659 0.0747313 -0.0828629 -0.11883 -0.112039 -0.143362 -0.119817 0.0242111 -0.0212493 0.0906439 -0.124966 -0.0358731 0.0454235 0.0573413 -0.0262753 0.0918166 0.0129918 0.0767096 0.00448365 -0.101793 0.0691722 0.0284057 -0.00148026 0.0817696 0.0170878 0.0978349 0.0767012 -0.125515 0.0682503 0.0108484 -0.0528161 -0.080979 -0.0657884 -0.0896832 -0.130966 -0.132856 -0.0874665 -0.127183 -0.036312 -0.0855959 0.0190564 0.0739711 -0.0862679 -0.0760853 0.0442669 0.0663653 -0.0961475 0.0426718 -0.0460015 0.037857 -0.113525 0.0746136 0.0277889 -0.0014364 0.0455826 -0.0406329 0.0676787 0.00353478 0.0571248 -0.149186 -0.0698017 -0.0607857 0.00255598 0.0637788 -0.0894985 -0.100852 -0.0825349 -0.00468789 -0.0540653 -0.073472 -0.063631 -0.0661473 0.0758787 -0.00299794 0.00584502 -0.102358 0.0591682 -0.0532713 -0.0408424 -0.0799394 0.00716187 -0.0762707 0.0892208 0.0473461 -0.0350222 -0.00807964 -0.0768781 -0.0261491 -0.137226 -0.103365 -0.0845358 0.056306 -0.0302748 0.00824303 -0.0647497 -0.125415 -0.121914 0.0494015 0.0226724 -0.0313622 0.0620388 -0.12145 0.0334939 -0.0887043 0.0517424 -0.0899005 -0.00277103 -0.0433558 -0.0558527 0.00302125 0.0833013 -0.0915925 0.0168483 0.0532865 0.0710208 0.0396777 0.061363 0.0326041 -0.0652278 -0.0294874 0.0244807 0.0243204 -0.116615 0.0580737 -0.046857 0.0500139 -0.0615767 -0.0614685 -0.102884 -0.0201313 0.0868568 0.114182 -0.00451137 -0.0708532 0.133285 0.143273 -0.0289107 -0.0299073 0.00351944 0.0357319 0.102378 0.0119796 0.0262058 0.0132911 -0.00797704 -0.00608329 0.134396 -0.120122 -0.0236505 0.0560922 -0.110761 0.0690228 -0.0405727 -0.0217934 -0.0465181 0.0687871 0.0273226 0.0822529 -0.00213939 -0.06748 -0.0743563 0.12053 0.115054 0.136828 0.121759 0.0971552 0.054285 0.120923 -0.0177532 -0.0421111 -0.0241794 -0.0928862 0.0525722 0.0911162 -0.0898912 0.0641911 -0.019669 -0.0677545 -0.0848108 0.040026 0.0258608 0.0327304 -0.054305 0.0384421 0.0487357 0.0632071 0.0262576 0.039294 0.00810955 -0.00820125 -0.0109991 0.0374123 0.10495 -0.0611326 -0.0589594 0.0500786 0.05452 -0.0471663 0.0130092 -0.0240296 0.054622 0.0921891 -0.0335496 -0.103873 0.0282329 0.0814521 0.0174443 0.0831967 0.0503204 0.0941081 0.033802 -0.0903175 0.00840646 -0.0330673 -0.0429562 0.0810929 -0.0786662 0.0744496 -0.0296368 -0.0913976 0.0979395 -0.008239 -0.046938 0.0686736 0.0617199 0.012055 -0.0419046 0.0910221 0.027079 -0.0772014 -0.0237675 -0.0712078 -0.116456 0.0321426 0.0152133 0.110109 0.0799347 0.0720615 0.0310052 -0.0334854 0.0240689 -0.0975432 0.0705993 0.106497 -0.0127278 -0.100312 -0.0396237 0.0698268 -0.0366137 -0.0789305 -0.0661095 -0.0119795 0.032706 0.0700348 -0.0470747 0.0908228 0.13642 -0.0171333 0.062733 -0.0627379 0.0656636 -0.118132 -0.0247526 -0.105723 -0.064541 -0.0179466 0.0509277 0.103569 -0.00528433 -0.0994655 0.0789866 0.0203088 -0.0754411 -0.0122998 0.0288587 0.0151434 -0.0497266 0.00809896 0.0422338 0.0731929 -0.0204342 0.0194597 -0.0720388 0.1225 0.0673322 -0.0602073 -0.0146338 0.00928857 0.0841967 0.0554478 0.0929227 0.0342569 -0.0259454 -0.0384318 -0.0853627 -0.0307711 0.100673 -0.00434783 0.100229 0.0808798 0.0266124 -0.0715752 -0.0903197 0.0892884 0.110998 0.0653427 0.0245342 -0.045782 0.0413503 0.0534688 0.114083 0.0804396 -0.0886407 -0.0594926 -0.00239608 0.0228091 0.111497 -0.0397708 0.0183602 0.0212235 0.100687 0.0181655 -0.00380082 0.0190658 0.0246423 0.0951441 -0.00451897 0.0584868 -0.0479252 0.0462618 -0.113503 -0.0370916 0.0964095 0.0724842 -0.04528 0.0968867 -0.0044991 0.103498 -0.0137694 -0.0914019 0.0245276 -0.0933248 0.109515 -0.0406313 0.0221226 0.140872 0.145889 -0.0420262 0.00327462 -0.0913162 0.118233 0.114737 0.0250332 -0.0680213 0.0196459 -0.0377693 0.0751497 0.0704926 0.00634697 -0.0861369 -0.0305159 -0.0734444 0.0035217 0.0321446 -0.0139099 0.115998 -0.0613925 0.0257173 -0.0479705 0.0456095 -0.0814429 0.0429632 -0.0882527 0.0928645 0.0730523 0.0536649 0.148029 -0.00992061 0.131016 0.0691927 0.100393 0.000663099 0.111669 -0.0444158 0.0737244 0.0692509 0.0399602 0.0903581 0.0441947 -0.0293953 -0.0304375 -0.0661057 2.87654e-05 -0.0049061 0.109255 0.0271414 -0.0979962 -0.0935972 -0.00704177 -0.0370349 -0.0868773 0.103397 0.0630738 -0.076167 0.0157336 -0.0454561 -0.0465292 0.0077559 0.0532341 0.0658536 -0.0981154 -0.0930619 -0.0622595 -0.0866682 -0.0594123 0.0900436 -0.0084232 0.119943 0.0402418 -0.0309733 0.0429075 0.0950718 0.015684 -0.0720211 -0.0454016 0.00615733 -0.041029 0.0438627 -0.0816394 -0.0798676 -0.0683882 -0.014069 0.106519 0.00297979 0.125321 0.0453278 -0.00344403 0.0318779 0.0112273 0.00336436 -0.0856327 -0.117679 -0.00601344 0.012234 0.0222856 0.0671681 0.0412025 -0.0265382 -0.0151349 0.00145892 0.0202126 -0.0538539 0.0996687 -0.0766564 0.0630172 0.126433 -0.0484098 -0.092369 0.102277 0.100212 0.0502601 0.0683653 -0.107898 -0.030187 -0.0114623 0.0583446 0.0534209 0.0387406 -0.0985593 -0.0761325 0.0798012 -0.0474386 -0.106678 -0.108356 0.029178 0.0425005 -0.13382 -0.00580205 0.0423533 0.0499253 0.123387 0.10861 -0.0840426 0.0371075 0.100725 0.0156758 0.0699065 -0.0191844 -0.0261573 0.0799549 -0.0385452 -0.0380209 -0.0471058 0.00402863 0.0464772 -0.05669 0.0624574 -0.0320886 -0.0546571 -0.0771869 0.0263578 -0.0225002 -0.0800573 0.0267971 -0.124115 -0.0110753 -0.131417 -0.116676 -0.00403801 0.0495071 -0.0782212 0.0425752 0.0266872 0.00486033 0.0800492 0.0136723 0.0507227 -0.0817528 -0.105036 -0.108269 -0.118433 -0.00843123 0.0368517 -0.122526 -0.0197983 0.000751364 0.0783244 -0.126366 -0.0119969 0.0685364 -0.101438 0.066969 0.0567491 -0.00308938 -0.0855126 -0.0115993 -0.053418 0.0720953 0.0515541 -0.0459316 0.101191 0.0604122 -0.0225578 -0.085947 0.0988594 -0.042043 0.0760326 -0.0988889 0.00356912 0.0228412 -0.0287173 -0.0336746 -0.0748549 -0.0659421 -0.0105588 -0.139336 0.0225206 -0.0455543 0.0541127 -0.13004 0.0107886 -0.0799319 0.0365237 0.0596085 0.0669528 -0.0194754 0.00823433 -0.0448886 0.00512582 0.0818737 0.127086 0.0432461 -0.0892221 0.120314 0.0264213 -0.0839588 -0.0273314 -0.0193676 0.0860443 -0.0395866 0.0136428 -0.0906657 0.0247785 -0.0718628 -0.0313956 0.088776 -0.0338797 0.0745579 0.0480544 0.0225344 0.00363962 -0.0542121 0.077334 -0.00712576 0.0703827 -0.075184 -0.00972041 0.0132383 -0.0589696 -0.0277707 -0.0371969 0.0654476 0.0635003 0.0306522 0.0420391 -0.0606812 0.114766 0.0804085 -0.0711559 -0.0821802 -0.0404029 -0.0882538 0.0228663 -0.00289067 0.0653564 0.0659336 0.0359138 -0.024872 0.0497083 0.0650886 -0.0141758 -0.0174151 -0.0239177 -0.0482963 -0.0164799 -0.0973002 -0.119516 -0.133566 0.101874 -0.0777759 -0.0478937 0.0166423 0.0275813 -0.0212288 0.12539 -0.0420466 -0.0572138 0.0415094 0.0993312 -0.0360654 -0.0267774 0.006334 0.0729991 0.0305058 -0.059165 -0.0288638 0.0745718 0.0845075 0.116319 0.0503162 0.0576615 -0.00519421 0.0337203 -0.026766 -0.0911895 0.0908399 0.0156156 -0.0506486 0.0295485 0.0878605 -0.0876325 -0.0775589 0.0741134 -0.0568552 0.058965 -0.0646775 -0.0110365 -0.0286552 -0.0585049 -0.0419852 0.00812745 0.052284 -0.0269809 -0.0608975 0.108438 -0.0650017 -0.0256614 0.0939817 0.00262602 -0.0523156 0.0608426 0.0799204 -0.0135054 0.105129 -0.0876014 -0.0262979 0.0424149 -0.0157647 0.101713 -0.0255626 -0.0954976 0.00317298 -0.015017 0.131428 -0.0361337 0.0199144 0.0421056 -0.0143177 -0.0650025 -0.0641487 -0.0326176 0.0406433 0.10065 -0.048373 -0.0271425 -0.0394747 0.0176002 -0.0192854 0.129551 0.031055 0.0980832 -0.0151042 -0.0481037 0.0567535 0.102984 0.0384394 0.0683082 -0.0313577 0.0467189 0.0978437 -0.0227722 0.0988367 -0.0170357 0.000966079 0.113577 0.0276936 -0.050383 -0.00806977 0.0368211 -0.0455556 0.0741686 0.127972 0.0486545 0.0489873 0.102478 0.0706699 0.0907739 -0.0443499 0.0570533 0.0782832 0.0821566 -0.0397954 -0.0445995 0.0743798 -0.0105993 -0.035187 -0.0646537 0.0856765 -0.0764105 -0.00446379 -0.0091087 0.0931702 -0.091346 0.110871 0.0988687 0.118593 -0.0350227 0.0546379 0.0710681 -0.0331637 0.0659468 0.137472 -0.0165278 0.0564951 0.0987547 0.0815913 0.0367749 0.0252051 -0.0586691 0.0407353 -0.0971304 -0.0635171 0.0121111 -0.0420966 -0.033397 0.0208345 -0.0845452 -0.0387394 -0.0657682 0.037321 -0.10769 0.10885 -0.0246486 0.0711616 -0.0977634 -0.00463628 -0.0381362 0.0983821 0.0580682 0.0935525 0.0786413 0.0253294 0.0360673 0.0653805 0.0612843 -0.0344944 -0.06976 -0.0159698 0.112323 -0.0585662 -0.0826469 0.0968692 -0.111841 0.00957039 -0.118975 -0.0547936 0.0905741 -0.0241023 -0.120156 -0.0974163 -0.0862505 -0.0786262 -0.100957 -0.132853 -0.0950876 0.0856874 -0.0918087 0.0673718 -0.0295459 0.124971 0.134177 -0.025335 0.0393791 0.0847505 0.117035 -0.0693273 0.0105862 0.089872 -0.0101337 0.104944 0.0701807 0.103344 -0.00577703 -0.105896 0.0239398 -0.0587668 -0.111533 -0.0240037 0.0260218 -0.122894 -0.0748481 -0.148312 0.0385662 0.0244886 0.0702869 -0.080619 -0.0576622 0.115338 0.0681959 0.00343619 -0.0335884 -0.0589325 -0.0178912 -0.0491881 0.0158622 0.0324942 -0.0100653 -0.0351852 0.0407965 0.0315959 -0.0236934 0.0131856 -0.0942748 -0.109301 -0.0911765 -0.0812669 -0.107891 -0.0343448 -0.0964533 -0.0565458 0.0794179 0.0353162 -0.104894 0.0628133 -0.113362 0.0286569 0.0246008 0.0474895 -0.0980377 -0.0542316 0.0308648 -0.0579932 -0.101613 -0.0789718 -0.0833543 -0.0541021 -0.0884295 -0.0100166 -0.0779153 0.0583427 -0.0362664 0.0966827 0.0705158 0.0739215 0.0194013 0.0662132 -0.00524627 -0.0320757 0.0173366 -0.0655486 -0.143961 -0.0531712 -0.0289336 -0.137358 0.0476731 -0.13825 -0.0444132 -0.0845829 -0.0381752 -0.0461926 -0.0303098 -0.0837056 -0.0813866 -0.0754115 -0.0574714 0.0623865 0.0559551 -0.00440895 -0.00600926 -0.0424895 0.0861199 -0.025422 0.0835246 -0.0796231 0.0953417 -0.073208 0.073021 0.111127 -0.105959 -0.125061 -0.0576642 -0.0111233 0.0490129 -0.0958326 -0.135271 0.0398118 0.00963841 -0.0962829 -0.0753367 -0.0909601 0.0983041 -0.0467583 -0.118963 -0.108849 -0.0128817 -0.11348 -0.0786283 -0.109647 -0.0139586 0.0146118 0.0558584 -0.0853866 -0.0214993 -0.0258176 -0.0636055 0.0871441 0.0750931 -0.018701 -0.0749463 0.000839695 -0.0509212 0.00146211 -0.114086 -0.110764 -0.0243207 -0.0709362 -0.108836 -0.129056 -0.0124908 0.0859246 0.00409692 -0.121653 -0.0823311 -0.0924967 -0.0727302 -0.118634 -0.112379 0.00139248 0.0707156 -0.0825439 -0.0735178 0.0330357 0.0611735 0.0319688 -0.0537254 -0.0384762 -0.0755929 -0.0536962 -0.00330404 0.0782822 0.0380002 0.0169258 -0.0833726 -0.0249174 0.0647255 -0.149509 -0.0308864 0.00424333 0.0181829 0.104934 0.10727 0.0764178 0.0486339 0.067358 0.0355599 0.0477806 -0.045446 -0.0114288 -0.0489851 -0.085122 0.0323133 0.0720888 -0.00791829 -0.0646128 -0.0799974 0.0369329 0.0442124 -0.0832127 -0.0516156 -0.0226889 0.0627478 -0.134633 0.0193289 -0.0984294 0.0240631 -0.0651918 -0.0179794 -0.0896701 0.100116 -0.0209314 -0.0185981 0.0607892 0.0998511 0.0918713 -0.128176 -0.00378781 -0.0719203 -0.100357 0.0229062 -0.0172157 -0.0945329 -0.0678843 0.00773202 -0.00628301 -0.0892522 -0.0335997 0.089089 0.0258928 -0.0762658 -0.0792256 0.00478068 -0.0888535 -0.0873864 -0.0548608 0.0853363 -0.115623 0.104339 -0.0841585 0.058617 0.0566211 0.0506218 0.00932728 -0.0343965 0.0496341 -0.042142 -0.132798 -0.0496571 0.00108863 -0.0045709 -0.0885441 0.036289 0.0832782 -0.00977624 -0.0954908 -0.0621872 -0.0666995 0.0587633 0.00896357 0.110042 -0.0281957 0.101738 -0.0450425 0.0260132 0.00989617 -0.0951845 -0.0876413 -0.0743694 -0.0703616 0.0153618 0.111194 0.062784 0.0798097 -0.0491669 -0.00290877 -0.0499181 -0.0861911 0.0397264 0.0137643 -0.00741847 -0.10297 0.0239004 0.0256476 0.0940757 -0.0335955 -0.0444247 0.0545873 0.00904492 0.0887036 -0.0199945 -0.0742442 -0.0577265 0.0397558 0.0604467 -0.00735384 0.0867604 0.0638442 -0.0673292 0.0116176 -0.0109232 0.116115 -0.00228354 0.076017 -0.00456615 -0.135817 -5.00995e-05 -0.15204 -0.00182023 -0.0939872 0.0437064 0.0680374 0.0213624 0.0522101 0.0565279 0.0108104 0.104815 0.0207487 -0.0626484 -0.0893037 -0.0604549 -0.0316513 0.137341 0.0949715 0.0373757 -0.0648036 -0.071383 0.0424496 -0.00685933 0.111884 -0.0199232 0.137842 0.00869538 0.0928023 -0.0783538 -0.0279241 -0.10503 -0.0945533 -0.160678 -0.0929035 0.00532296 -0.0359471 -0.0525897 0.0840516 -0.0320815 -0.0645399 -0.0385403 0.0182295 0.10597 0.0440984 0.0857682 -0.0925227 -0.0241959 0.0289027 -0.0882775 -0.110097 0.0950334 0.0856671 0.107558 -0.000964377 0.105784 -0.0682821 0.109414 0.040208 -0.0149683 -0.0498552 0.0508686 -0.0682818 0.073383 0.107778 -0.0905184 -0.100498 -0.100883 -0.0752128 0.0621396 -0.119627 0.00375504 -0.000247729 0.0429311 0.0146961 0.0842839 -0.0873851 -0.136061 0.020812 0.0517448 -0.0813363 -0.0473445 -0.0950255 -0.0976313 0.114874 -0.0567862 -0.0930294 -0.0552067 -0.0488067 0.0395203 0.0863675 -0.0298141 0.0384905 -0.0915951 0.0913188 0.00138016 -0.112071 0.0473406 -0.0977139 -0.13419 -0.0329041 -0.135704 -0.0954678 0.0613508 -0.0476542 -0.128214 -0.026838 -0.0580498 -0.120483 0.0245593 0.00476333 -0.00971561 -0.0588565 -0.00745115 -0.0651325 -0.0608321 0.0356091 -0.0476411 0.119406 -0.0309517 -0.0681349 0.108672 -0.0783932 -0.01103 -0.085515 -0.0514924 0.0678146 -0.0582801 -0.0565169 -0.134657 -0.147218 -0.0305481 -0.143158 0.0422179 -0.0101811 -0.0388875 -0.0115673 -0.0664632 0.0823815 -0.027088 -0.0326601 -0.0603835 0.0325279 0.0754281 -0.0265107 0.0470511 -0.0203053 -0.0721848 0.0372319 0.0493138 0.0945963 -0.0721508 -0.0286364 0.0069911 -0.0456492 0.100368 -0.0249409 0.044188 -0.0335546 -0.0615407 0.0444428 -0.0419631 -0.0170954 -0.00433939 -0.04119 0.0441284 0.0832604 0.018373 0.0889974 0.0520009 0.118839 0.0102658 -0.032374 0.151514 0.0333331 0.0960377 0.125764 -0.0656077 -0.0325942 -0.0332374 -0.0868947 -0.0778145 0.095837 -0.0974468 -0.00660438 0.0977208 0.00329832 -0.0142045 -0.0659315 -0.0112864 -0.0734027 -0.0119114 -0.0599406 0.0625691 0.0240134 -0.0752776 -0.0567858 -0.102083 0.0927739 -0.0391095 0.0222495 0.118149 -0.0386216 0.0826371 -0.0142026 -0.0025298 0.113074 0.105373 0.118169 -0.0702866 -0.0453422 0.098145 0.0987845 0.0861717 0.103484 0.0341416 0.0463598 -0.0293358 -0.0410372 -0.0186181 -0.122874 -0.0742212 -0.129979 0.0374578 0.0590619 -0.130801 0.0846043 -0.107188 -0.0122887 -0.0277632 0.0970294 0.0517388 -0.0123741 -0.0438977 0.0831239 -0.0128927 0.0289245 0.127283 0.0102363 -0.0515826 -0.0936155 0.0860356 -0.102829 0.0682866 -0.0539358 -0.0898231 -0.0414856 -0.0160917 0.0140156 0.082168 -0.0263887 0.0566314 0.0816346 0.052829 0.014388 0.05464 0.018634 -0.086106 -0.0922027 -0.0528745 0.00469756 0.116392 0.0934163 -0.0580531 0.113822 -0.0310732 -0.0742169 0.0537826 0.07176 -0.08013 0.0962393 0.0141299 -0.0325333 -0.10917 0.0151344 0.0584054 0.0785218 0.102365 -0.0162393 0.0302944 0.0980905 0.0889454 0.0104316 -0.0453875 -0.0263776 -0.025295 -0.0742635 0.0160066 -0.077471 -0.0241044 0.00646564 -0.0976906 0.0531349 0.114917 -0.0976901 -0.0553488 -0.0783311 -0.0866092 0.0526415 0.06161 -0.102245 -0.0599877 -0.126123 -0.0260309 0.0084155 0.089812 -0.0957972 0.0796929 -0.0870806 0.0139441 0.0581577 -0.0156481 0.0680291 -0.0784569 -0.0276017 -0.0137628 0.00583514 0.0701511 0.0507939 0.0132592 -0.105859 0.0395927 0.0905375 -0.0284643 0.0399527 0.0771325 -0.0627869 -0.0871656 0.00311611 0.0354444 -0.0951012 -0.0439714 -0.084086 -0.0441597 0.0426636 0.0376225 -0.0621391 -0.0511666 -0.00385044 0.0169938 -0.0289507 -0.0916985 -0.021025 -0.0191812 -0.0396519 -0.0764575 -0.042407 -0.0792152 0.0852007 0.0895394 0.0220358 0.0780155 0.0408042 -0.0408688 -0.0943887 -0.0818626 0.065685 0.0489958 0.0117719 -0.0607943 0.0391652 -0.0774243 -0.0635665 -0.0396685 -0.0309793 0.0253408 -0.0203638 -0.0123358 0.0214901 -0.0182835 0.0867532 0.0287696 0.0615123 -0.0819965 0.0713486 0.0897104 0.0446907 -0.095036 -0.0690555 -0.0450283 0.108539 -0.0282853 0.125091 -0.092542 0.116435 -0.0176086 -0.00827096 -0.0768876 0.0775407 -0.108096 0.0441001 6.36452e-05 0.00684276 -0.0306234 0.0707162 0.0707564 -0.0695259 0.0647486 0.0277574 0.013859 0.054706 0.117776 0.0784993 -0.0342859 0.076012 -0.0785526 0.0694358 -0.0985156 0.0777985 -0.0522949 -0.089349 -0.0731704 0.00519571 0.105877 -0.096374 -0.102859 -0.0193498 -0.0577697 -0.0587561 0.00484431 0.0420012 -0.0831802 -0.116177 0.0723004 -0.0368484 -0.0440755 0.0545252 0.133716 -0.065591 0.0671401 0.0468087 -0.0762068 0.131042 -0.0437389 0.0537287 -0.00662539 0.0830172 0.0861001 0.0210622 0.0248344 -0.0114657 0.0790958 -0.0621456 0.0668269 -0.0348334 0.0402563 -0.00951211 -0.090089 0.0233903 -0.0141953 0.0626519 -0.00257957 0.0975231 -0.0581188 0.015524 0.0978947 -0.0651996 0.00444748 0.06162 0.0595065 0.00908723 0.0617631 0.0158467 0.101262 -0.0519133 0.10292 -0.114236 -0.0482571 -0.050399 0.0507322 0.033136 0.0411505 -0.0388772 0.0151336 0.00337349 0.0588398 -0.0328608 0.0188457 -0.0471345 0.0460743 -0.0121605 -0.0554133 0.0297795 -0.011573 0.0234685 -0.000872858 0.0574186 0.135767 0.0668638 0.0424885 -0.0455689 -0.0105925 0.0992276 0.0923597 0.116296 -0.0248221 0.110796 0.0260707 -0.0686417 0.0332575 -0.0461911 -0.0342264 0.117229 0.121024 0.0359132 -0.0642739 -0.00954376 0.103866 0.080359 -0.0312171 -0.113157 0.0392749 0.0154634 0.118678 0.134343 0.125204 -0.00739423 0.123234 0.133514 0.068419 -0.00683283 0.0195633 0.0236133 -0.0873946 -0.0568481 0.0373536 0.0591718 -0.0359201 0.0605309 0.0575674 0.07567 0.00292631 -0.0537944 -0.0620719 -0.0563687 0.0613639 0.0872703 0.0745771 -0.0968022 -0.123085 0.0113587 0.0190669 -0.0261874 -0.0739867 0.0749557 -0.0142611 -0.0222583 0.118601 0.111151 0.125984 0.0290524 0.0424938 0.0600929 -0.0784248 -0.00861156 -0.0233896 0.117539 -0.0255795 -0.0229309 -0.072994 -0.102201 -0.0910252 -0.0916946 -0.0428102 0.024051 0.0410188 0.0823155 0.0464204 -0.0773718 -0.103046 0.0297433 -0.0974917 0.0572844 0.0601799 0.0589066 0.0806671 -0.058626 0.13759 -0.0903344 -0.000585936 0.0496919 -0.0748004 -0.0520555 -0.0309916 -0.0736195 -0.089326 0.0373045 -0.0257009 0.0293869 0.11649 -0.0789133 -0.0242756 -0.107162 -0.0745212 0.103476 0.0502645 -0.12887 0.0245956 -0.0704973 0.042368 0.0220404 -0.0727211 -0.0891888 0.10831 -0.0234168 -0.069734 0.0208458 0.0929994 0.0679113 0.110011 -0.0315647 0.106882 0.0759358 0.121607 -0.0424423 0.101272 0.0330939 -0.0106757 0.0730801 -0.0114094 -0.0299397 -0.0399581 0.106782 -0.0970164 -0.121864 0.017144 0.0454343 0.0530869 -0.0117152 0.01287 0.0109169 -0.0537697 -0.0913137 0.0146393 -0.0665848 0.0903441 0.0967221 0.0348009 0.112039 0.0838625 -0.0338601 0.0669577 0.104706 0.0977285 0.115088 0.0468674 0.113514 0.124788 -0.0483904 0.0512267 0.0223048 0.0991227 -0.017372 -0.0689079 -0.0229922 0.0273948 -0.11058 -0.0874776 -0.124172 -0.0158217 -0.151814 -0.171798 -0.118447 0.0526263 -0.0927724 -0.0414485 0.0193609 0.0308107 -0.0154495 -0.0579934 0.0884627 0.0576169 0.114993 -0.00529377 -0.0475586 0.0687615 0.0992518 -0.0507582 -0.0836549 0.105219 -0.101953 -0.0956719 0.0642843 0.00408261 0.0731681 -0.057807 0.052435 -0.0600794 -0.183381 -0.0295812 -0.112465 -0.162462 -0.00644051 -0.0182216 -0.103768 0.0669515 -0.0840768 -0.0929499 0.104543 0.0647141 -0.0161946 -0.0841442 -0.0916419 -0.0819725 0.00897004 0.0769092 -0.0479839 -0.0902307 -0.0171666 -0.0501086 0.0835253 -0.103296 0.0531706 -0.0345123 -0.0488783 -0.0554226 0.00475314 -0.0773462 -0.0158953 0.0276034 0.0178289 -0.139024 