900 100 21
0.00720455 -0.0872407 -0.0424873 0.0495921 -0.0322339 -0.0720323 0.045772 0.0457715 -0.0522012 0.0367503 -0.0101503 0.0611182 -0.0932791 -0.0954191 -0.0752786 -0.0434594 0.0911269 0.0464813 -0.082053 0.050921 -0.0874987 -0.110048 0.0180557 0.119517 -0.0677482 -0.0690193 -0.0967176 -0.00836773 0.0873768 0.101039 -0.0370998 -0.0713392 0.0798826 0.0187292 0.0504536 -0.0865246 -0.104848 0.0576102 -0.00425696 -0.0347371 -0.0251186 -0.0581617 0.096978 0.0877352 -0.00934262 0.0777498 -0.0462529 -0.0241244 -0.0136503 0.0767258 -0.0782504 0.0343156 -0.00884008 0.0497567 -0.0248417 0.0289278 -0.0431579 0.0416883 -0.00331692 0.0790491 -0.0282269 -0.111134 0.0126845 0.0190214 0.0367314 -0.0568458 -0.0458035 -0.00747675 -0.117863 -0.0553537 0.0580377 0.0265563 0.0234679 -0.0956165 0.066455 0.0736599 0.0866904 -0.104279 0.0708323 -0.0534546 0.0540467 0.0863813 -0.0472763 -0.0554122 0.00123805 -0.0635862 0.0288171 0.0204216 0.0174157 -0.0476265 0.078104 -0.125913 -0.0344243 0.0446115 -0.0562144 0.0448469 0.0650579 0.0553737 0.0753659 -0.0285117 0.056227 -0.122771 0.0312654 0.00103888 0.0748496 -0.0772622 0.0157809 0.077872 -0.0710087 -0.0884928 -0.0487469 -0.0788819 -0.0538934 0.013493 0.0345749 -0.0258206 -0.00147373 0.0348022 0.120348 -0.0725939 0.0577747 -0.00146609 0.0149115 -0.00875112 0.0332085 -0.0222666 -0.129501 -0.0930452 -0.121007 -0.0380368 0.0257951 -0.00589182 -0.0641925 -0.000198887 0.0122847 -0.0817183 0.0196575 -0.0621388 0.0859286 -0.0162023 0.0423721 0.00328998 0.028955 0.0404085 -0.0683959 0.0606014 -0.00297436 -0.0731168 -0.0829894 0.0773126 0.0695427 0.0689427 0.0470485 -0.068623 -0.134353 -0.0416675 -0.0870714 0.0740857 -0.00547343 -0.0413748 -0.00507992 -0.0658969 0.0371357 -0.0687725 -0.113558 -0.0350617 0.0880841 0.0182963 0.00104649 -0.0797637 -0.102041 -0.0964532 0.0748853 0.0227721 0.0677354 0.0711027 -0.0164698 0.0717352 0.00886796 0.00400225 0.0565777 -0.0417139 -0.0580755 -0.0770714 0.0647487 -0.133027 -0.0711955 -0.060977 0.0620336 0.00457939 -0.00851849 -0.0736102 0.0687337 -0.131164 0.0329264 0.00936831 -0.107766 0.0899251 0.026636 0.0945003 0.0582125 0.0199156 -0.0410578 -0.00424846 -0.0557378 -0.0740964 0.00739309 0.00542833 0.0321829 -0.00283909 0.0163507 0.0381322 0.0294792 -0.0375133 -0.076489 -0.110274 -0.045062 -0.000611399 -0.0802904 -0.0340944 -0.0330039 -0.128622 0.0409453 -0.0519457 0.0656172 -0.0431408 -0.0298256 0.0313554 0.0819603 0.0169646 0.0497484 -0.0919738 0.0185278 -0.0511512 0.00513209 0.055915 -0.0335598 0.0337009 -0.0597996 0.0675067 0.0808438 -0.0872999 -0.0233384 0.0740725 0.0959212 -0.0741056 0.0250748 -0.0304163 -0.0176809 -0.106377 -0.109373 0.0533392 -0.0142548 -0.060614 -0.121727 -0.130724 0.0380169 0.0605914 0.0651346 0.0797889 0.0462493 -0.0137672 -0.0627418 -0.0931 0.0780978 -0.052398 -0.016764 0.0987679 0.0226303 0.0690768 -0.0622486 0.11087 0.0534402 -0.0884555 0.0375281 -0.0107042 -0.0709773 0.0243504 -0.0379105 -0.129851 0.00690423 -0.0912043 -0.0315071 0.03597 0.010145 -0.0410025 -0.0614704 -0.0425916 -0.00672464 0.0881696 -0.0443701 0.0932708 -0.00862802 0.00879341 -0.0357787 0.0387454 0.103595 0.0141812 -0.0910696 -0.0245514 0.00964315 -0.102334 0.0734434 -0.0676027 -0.0808591 -0.105473 0.0153039 -0.15521 0.0380245 -0.0370252 0.0723191 -0.128211 -0.0687169 0.015388 0.0316832 -0.0139525 -0.0404432 -0.0156753 0.0872805 0.00720289 0.0594987 0.10364 0.0639961 0.0504586 -0.0375117 0.0485309 -0.101411 0.102519 0.0531187 0.0264033 0.060982 -0.0828239 -0.0164837 0.0583044 -0.137859 0.0305722 -0.00259732 -0.110446 -0.122628 -0.0163414 0.0598908 0.0439933 0.104125 -0.0587619 -0.0474555 -0.0639455 0.0737394 -0.00615181 0.101281 -0.0290754 0.0329923 0.0120587 0.112665 -0.00554073 0.0429365 -0.0179643 -0.043104 -0.0216436 -0.0302616 0.073356 -0.108329 0.0510381 -0.00549334 -0.0401762 -0.126395 -0.0997687 -0.0830965 -0.0607294 0.0495292 0.0166781 -0.0991963 0.0790524 -0.0887993 -0.0359643 -0.0165041 -0.083197 -0.0936729 -0.0961085 0.116034 -0.00811778 0.00667013 0.0484637 0.115506 -0.0869533 0.113715 0.0100859 -0.00369867 -0.100611 0.0680299 0.058933 0.0767626 -0.0610045 -0.0915127 0.0518101 0.0681829 -0.128999 -0.00246262 -0.121899 0.0220297 0.065077 0.0681644 -0.104998 -0.0616238 0.0144402 -0.0568954 0.0996143 0.0224103 0.114318 0.0376625 0.0896951 -0.0253046 -0.0104112 0.1273 -0.0479023 0.115494 0.102299 -0.00277466 -0.125027 -0.0157494 -0.0282703 0.0248134 -0.0962646 -0.0209433 -0.0250909 -0.0057713 -0.105153 -0.0469458 -0.0648556 0.0388885 0.0222216 0.0939841 -0.0724768 0.0749395 -0.0993872 0.10158 0.00737611 -0.0309558 -0.0285918 0.00581978 0.111737 0.085585 0.104842 0.114459 0.0379929 0.00564917 -0.0723627 -0.0030957 -0.106073 -0.0152081 -0.115236 0.042855 0.0983048 0.00285292 -0.0720712 0.0894909 -0.114301 0.00402011 -0.114667 -0.0238639 -0.056751 0.0373551 0.0332976 -0.102949 -0.0357078 -0.060138 0.0150699 0.0647349 0.0298659 -0.0398182 -0.0922103 -0.0493972 0.0822934 0.00134688 0.0808401 0.0486111 -0.111983 -0.0319335 -0.0188867 -0.0427676 0.0668415 -0.0948409 -0.0209401 0.0995783 0.128476 -0.014523 -0.0560579 0.0895989 -0.0731358 -0.119782 0.0184221 -0.103669 0.0161257 0.0609872 -0.0668008 -0.0467299 0.0570997 -0.0500752 -0.0552828 0.0747975 -0.0348673 -0.024097 0.100366 -0.029134 0.123762 -0.0362675 -0.0824566 0.0292597 0.0126502 -0.0448392 -0.115337 -0.0698314 0.0805458 -0.0855428 0.0815428 0.0773052 -0.0164359 0.0919158 -0.0079125 -0.078401 -0.0939941 0.0476511 -0.0210661 -0.0477201 -0.0738643 -0.0527535 -0.0667435 -0.0291766 -0.085122 -0.047926 -0.075602 -0.0472436 0.104186 0.0245052 0.06936 -0.0379974 0.0552578 -0.0500274 0.0824151 0.0119107 0.0394715 0.0209883 0.0725706 -0.0930463 0.0366601 0.102907 0.0589631 -0.0468806 -0.0484961 -0.0642463 -0.0301972 0.0849235 -0.0535544 -0.012966 -0.0263979 0.00234759 0.0571107 0.0655017 -0.0202719 -0.0311585 -0.00673897 0.114476 0.131063 0.0310688 -0.00928419 0.0617294 0.048631 -0.0210479 -0.0769177 0.0759709 0.0372317 0.0447143 -0.0617487 -0.0208608 0.093693 -0.0344629 0.0268478 -0.0979886 -0.119601 0.00238056 0.0593574 0.028903 0.0837455 0.0855766 0.1212 0.0439738 -0.0459117 -0.0348166 -0.0286423 -0.0534452 0.0739956 -0.0538224 0.104237 0.0110908 -0.00286225 -0.0763778 -0.105473 0.0892589 -0.085129 -0.0976085 -0.0158588 0.0673733 0.0778788 0.0654314 -0.0160773 -0.0259651 0.00374263 -0.0058206 0.0896928 -0.0537638 -0.0239266 0.0838143 0.0136337 -0.0346467 -0.0489004 0.050202 -0.0150732 -0.0483833 0.0534345 -0.0362993 0.0150087 0.0123871 0.0574866 -0.0909062 0.0159643 -0.0257886 0.107197 0.0154147 -0.0314327 0.0225412 0.00556636 -0.0413779 0.12484 0.0953862 -0.0509188 0.108813 0.119214 0.0890431 -0.0106375 -0.0652092 0.114134 0.0400121 0.034992 0.125836 -0.0796031 0.066185 0.0689976 0.111444 0.0789462 -0.0152036 0.0560458 -0.0147128 -0.0849093 -0.0296395 -0.031322 -0.0836335 -0.064917 0.108658 -0.0550288 -0.0605239 -0.00212053 0.025567 0.127712 -0.0454227 -0.0348096 -0.0389144 0.0607177 0.121791 -0.0111859 -0.0242644 -0.0610407 -0.0213369 0.060948 -0.0479089 0.133861 0.0793104 0.0418139 -0.0374241 0.115324 -0.0555505 0.00692173 -0.0960589 0.0643924 0.0915611 -0.117212 0.0819928 -0.0775553 -0.00605239 -0.0416669 -0.0999504 -0.0817411 -0.052534 0.0922379 -0.0376857 0.102818 -0.029155 -0.0885518 0.0425737 -0.0821277 0.093605 0.0450525 -0.0241295 0.0943088 0.0253916 0.0233103 -0.0203486 0.116483 0.0975077 0.0266961 -0.00178611 0.116823 0.0928885 -0.0729168 -0.109561 0.00615944 0.0294284 0.0849379 0.00700929 -0.00836678 0.0796465 0.0718956 0.0686156 -0.0851501 0.0336401 0.116967 -0.0317906 -0.0405774 0.100895 0.069041 0.0846013 -0.108064 0.0903764 0.00987967 0.0748749 -0.0647782 -0.0213167 -0.0405392 -0.0245498 0.101291 -0.0467079 -0.0727506 -0.0158604 0.100913 0.0907827 -0.0191883 -0.106789 -0.0252318 -0.00352552 0.00253035 -0.0925406 0.0810985 -0.0257077 0.119465 0.0114579 -0.0552864 -0.0370148 0.0700105 -0.0325916 -0.122397 -0.0894165 -0.0651118 -0.0268668 -0.0444955 -0.0734759 -0.0399146 0.0106033 0.053713 -0.0430742 0.0273875 0.00889492 0.0290945 0.076806 0.0733858 0.110258 0.101022 -0.00730236 0.10587 -0.0122638 0.0272143 -0.10519 0.0903793 0.0795593 0.0739008 0.0122662 0.078921 -0.0657701 0.0291363 -0.107236 -0.125702 -0.0988198 0.0195771 0.0879146 0.0867682 -0.0634048 0.094195 0.110171 0.00164257 0.119392 -0.0618382 0.048948 -0.0814894 0.0448085 -0.0485827 0.0490822 0.0496725 -0.0637577 -0.000272948 0.0294558 0.0285427 0.0335155 -0.00289975 -0.102401 0.0591963 -0.00644651 0.07194 0.0684756 -0.0320507 0.105481 -0.0880759 -0.0947235 0.0318104 0.0934306 0.0550591 0.0787015 0.0217629 -0.00583158 -0.0530146 -0.0128381 0.00454488 0.071735 0.0319472 0.0544645 -0.0149562 -0.0134963 -0.0290603 0.0394294 -0.0984233 0.00525604 -0.0736762 -0.0906114 0.0190761 0.00780116 -0.0233066 0.0697847 0.099364 -0.0915142 0.0523806 0.0906148 0.0736589 -0.0165354 -0.0845988 -0.0970768 -0.000943324 -0.0574212 0.0442861 0.056418 0.126128 -0.0364568 0.0254745 -0.0460933 0.085893 0.0596308 -0.0280281 -0.0158625 0.0841729 -0.0135763 0.0756744 -0.0390328 0.0686216 -0.0901787 -0.082889 0.0161812 -0.074681 0.0789316 0.0292985 0.0358267 0.0790409 0.070212 0.0726643 -0.0102458 -0.0279872 0.0226113 0.077914 -0.0719661 -0.0886994 0.0471864 0.116009 0.0174806 0.0130787 -0.0651817 0.127597 0.105937 -0.0498592 0.0488699 -0.022726 -0.0824645 -0.0745877 0.0650764 -0.0040307 -0.0375857 0.039674 -0.0621758 0.0763911 -0.0796883 -0.134977 0.0447768 0.0145104 0.0376069 -0.0526272 0.0851542 0.0543632 0.102671 -0.00602078 0.00074097 -0.0767207 -0.00459971 0.0383035 0.00258514 0.100125 -0.112954 -0.0092208 0.071402 0.0258491 -0.0513149 -0.120942 -0.109299 -0.0232495 -0.0845378 -0.0905874 -0.0639908 -0.0958774 -0.0411866 0.0121287 -0.0998376 -0.087598 -0.0755695 -0.0633551 0.013867 -0.00401804 0.0096381 0.0933887 -0.101398 0.0957186 0.0665195 -0.0964613 0.0304349 0.0105479 0.050555 0.05645 -0.0608632 -0.048118 0.00883044 -0.101889 -0.0641472 0.0941311 -0.0903304 0.087712 0.073438 -0.0451118 -0.0664751 -0.0425848 0.0751327 -0.0631613 0.0516706 -0.0183091 -0.131069 -0.131385 -0.0897442 0.0926967 -0.09848 -0.0653664 -0.0071202 0.0923584 -0.00548122 0.0758147 0.0173724 0.00886501 0.0356908 0.00999941 0.0762203 0.067027 0.0816728 0.0860781 -0.0756796 -0.0273492 0.0616921 -0.0897074 0.0820744 0.0239867 -0.0126975 0.0315498 0.0483943 -0.091329 -0.00326081 -0.0515249 -0.129524 -0.0160317 -0.00372473 -0.0436258 0.0871619 -0.0497718 0.107073 -0.0543993 0.111722 0.0519641 0.126769 0.0224879 0.0401146 0.107591 -0.051999 0.0807608 0.104133 0.0838729 -0.0693326 -0.0486835 0.102711 0.0544642 -0.0865764 0.0791293 0.0959007 0.110723 0.0526321 0.0544491 0.0803584 -0.00421029 -0.126367 -0.0795534 0.0979827 -0.020876 0.117303 0.0941783 0.131405 -0.0435086 -0.0462461 0.0686178 0.140227 0.015729 -0.0739244 -0.0844098 -0.00947325 0.110872 -0.0191517 0.0427685 0.0433399 0.0988684 0.0903542 0.0292941 0.0656963 0.0124747 -0.0290803 -0.00482196 0.0731861 -0.0493431 0.0367758 0.0496329 -0.0299662 0.0526483 0.0764871 0.0125154 0.0967958 0.00361032 0.0541864 -0.0674909 0.0462458 0.130492 -0.0455922 0.049491 -0.0272193 -0.0490861 0.0431149 0.0589214 0.0711002 0.114673 0.105574 0.0773153 -0.091725 0.0877818 -0.00355455 0.0200192 -0.0994981 0.0532135 -0.0227692 -0.0906739 -0.0629093 0.0205804 0.00952156 0.0658708 -0.0493495 -0.0666037 -0.0213036 0.0096277 0.122221 0.136924 0.0112455 0.130726 -0.0101787 -0.0282547 -0.0773002 -0.0778574 -0.0286264 -0.0122211 0.0299392 -0.0936702 -0.0288364 -0.0588229 0.0656541 -0.091049 -0.0925986 -0.0157141 0.0104127 -0.084824 -0.0404294 -0.0303339 -0.120045 -0.0670266 -0.00891837 0.0355091 0.0230376 0.0639899 -0.0428209 -0.0154953 0.113981 -0.00620446 -0.051661 -0.00607628 -0.0332426 0.0424606 0.105606 -0.0754649 0.0463764 -0.0847726 0.053992 0.0916067 0.0731612 -0.118398 -0.0963636 0.0310258 -0.0737834 0.0767541 0.0292317 0.0620293 -0.0575871 -0.1355 0.0486243 -0.0862249 -0.0740476 0.0210618 -0.0392657 -0.0654775 0.00720351 0.0863338 -0.0723212 0.0889843 0.0637575 -0.0229043 -0.0859344 -0.00262775 -0.0976332 0.0504216 -0.0964329 -0.0280722 -0.0491937 0.0789746 -0.0847955 0.0600942 -0.0829735 -0.0519835 -0.125263 0.0310328 0.0528072 -0.0684199 -0.019932 0.0639323 0.0550459 -0.115764 -0.0077764 -0.0626081 0.0623172 -0.0427945 0.0936634 -0.0561333 0.0570344 -0.0606016 -0.018427 0.0750584 0.0601185 0.0315837 -0.0116805 -0.0196659 -0.063184 0.061369 -0.053918 0.0327406 -0.128071 0.0764035 -0.0411977 -0.080585 -0.108203 -0.0244918 -0.114246 0.0390392 -0.00831336 -0.069762 0.0734434 0.0645472 0.0975935 0.102806 0.0954784 0.0554593 0.11986 0.0352164 -0.0605016 -0.0863911 0.0233556 0.0720442 -0.00206175 0.0479711 -0.0679095 -0.112234 0.0394895 0.0387485 -0.0849881 -0.0242653 -0.0106423 0.00990654 -0.0481306 -0.070542 0.0229146 -0.0990915 -0.00559583 -0.0761823 0.0439943 -0.0305163 -0.0906126 -0.079301 -0.0345442 -0.0131501 -0.0256234 0.126781 0.081456 0.0693271 0.0866497 0.0183922 -0.000602094 0.063533 -0.0588548 -0.0578206 0.0440524 -0.0360529 -0.0263332 -0.0346823 0.0550023 -0.0592759 0.0674914 0.0064961 0.101602 0.096156 0.0928594 -0.10905 -0.0232894 -0.0762664 0.0355186 0.012832 0.0964602 0.0451052 -0.103437 0.122336 0.0210019 0.0480224 0.0160867 0.031036 -0.0278242 0.0789962 0.101972 -0.0340502 -0.086831 0.0497549 0.024935 -0.0443907 -0.0712643 -0.0154605 -0.0150218 0.101367 0.106905 0.0672703 -0.00167928 -0.0578639 0.0177211 0.0888689 0.0870055 0.0254393 -0.033196 -0.114465 0.0767936 -0.0510617 0.0593823 -0.0425944 0.0645703 0.0384776 -0.0311429 -0.0596487 0.115569 -0.0411398 0.00129906 -0.126811 -0.0814054 0.0278342 -0.101936 0.0422177 -0.146277 -0.0296896 -0.0332303 0.109452 -0.0750664 0.0469374 0.0989127 -0.0582235 -0.0155854 -0.049211 0.0805267 -0.0649691 -0.0244491 -0.0419879 -0.0242387 0.0569346 -0.0871149 0.0870961 -0.0454182 -0.0516106 -0.0435658 -0.0475863 -0.0218147 0.0918307 0.00898763 0.0191785 -0.109831 -0.120329 -0.118579 -0.0694 0.00429223 -0.0915732 -0.069803 0.0881395 -0.016951 0.0709215 0.0462079 0.0545681 0.092676 0.0736733 -0.0468037 0.0135182 -0.0685649 -0.0732098 0.0337738 0.0176746 -0.0247714 0.131692 0.116374 0.078232 0.124795 0.00884563 -0.0497707 0.0514298 -0.0132939 -0.0166421 -0.0599769 0.0565999 0.0269388 -0.0634145 -0.0926023 -0.092275 0.0629004 -0.051343 0.0249325 -0.0670509 0.0976931 -0.0257894 0.0832586 -0.0210375 -0.100334 0.093171 0.0508617 0.004409 0.0684727 -0.00295926 0.0996179 -0.0776463 0.0767279 0.104738 0.0318067 0.141012 0.10505 0.115835 0.0896071 0.0105989 -0.0816083 -0.115118 0.018834 -0.0127859 -0.0229353 0.0105856 0.0386715 -0.101116 0.0221657 0.104022 -0.000671915 -0.00682857 -0.0896086 -0.0235109 0.000882987 0.0158851 0.0514037 -0.0266698 -0.0695053 0.120584 0.0830466 0.137267 0.0543782 0.0378196 0.123524 0.0461521 0.0289765 -0.0102794 0.0391816 -0.0851033 -0.0550367 0.0298804 -0.0671337 -0.107373 -0.11422 0.0850595 -0.0926491 0.0218228 -0.105134 0.0258128 0.0685663 -0.0395371 0.109952 0.104751 -0.0127338 -0.106279 -0.0213015 0.0302543 0.0953351 0.0163362 -0.0791253 0.0812122 0.0591821 0.128302 0.0934716 0.161075 0.0911596 0.0275795 0.114772 0.0300201 0.0435253 -0.0417883 -0.104239 -0.119449 -0.104197 0.0453082 -0.0642861 0.0219482 0.0270037 -0.0563855 -0.11337 0.0278767 0.100719 -0.0176126 -0.0694503 -0.00438426 0.0606035 0.030655 0.0722466 0.0470315 -0.0364062 -0.0751246 -0.0473344 0.109939 -0.0489022 0.0206522 -0.0368849 0.114006 0.092917 0.0909721 0.0114676 0.0736931 -0.0562948 0.0623374 0.0156518 -0.0887334 0.033015 0.0503175 0.0108454 -0.0456299 -0.0127599 -0.129276 0.0539798 -0.0961574 0.0626752 0.0524089 -0.0163511 -0.0085886 -0.0946636 0.016459 -0.0298682 0.102296 0.00363772 -0.0896346 0.0968155 -0.0512587 -0.0781387 0.081501 -0.0198726 0.0413618 0.0310204 -0.0468153 0.0387523 -0.0147251 -0.0496315 -0.1203 -0.0770096 0.0831011 -0.0739728 0.0622847 -0.0307478 0.0582162 -0.0146441 -0.0102673 -0.0122141 -0.10655 -0.0010396 -0.108447 -0.0559301 0.0405229 -0.0533749 0.0198963 -0.064186 0.0911987 0.0789801 0.0933128 -0.0102448 -0.0186363 0.00650993 -0.0625329 -0.116891 0.0329815 0.0630631 0.0711966 -0.138561 -0.0368653 0.0580677 -0.0240776 -0.0765498 0.037207 -0.00146644 -0.147196 -0.0189124 -0.0307344 -0.036204 -0.0719432 -0.1291 -0.0581293 0.0749033 -0.0197245 0.0626736 -0.0647218 -0.106688 -0.0591326 -0.0286669 0.0139276 -0.0877296 -0.0133782 0.0376071 -0.133553 -0.0304567 0.0545161 -0.0863791 -0.117877 -0.0616306 0.0404814 0.00192151 -0.0629696 -0.0948667 0.0726167 0.0186154 -0.139085 -0.0783264 -0.037217 -0.0554899 -0.0198184 -0.0529344 0.0396343 0.0428074 -0.0222618 0.0369957 -0.107358 -0.0319465 -0.00897325 -0.0612894 0.0447327 0.0621602 0.0254301 -0.0220867 -0.0556802 -0.0389631 0.0127301 0.0411576 -0.107534 -0.0168004 -0.129422 -0.0826907 -0.107107 0.0284127 -0.00154807 -0.0173599 -0.00816642 0.0306228 0.00368622 -0.111907 0.0952528 0.0850401 0.0312819 0.0857288 -0.0950261 -0.0919453 -0.106166 -0.0697579 0.0273358 0.0624704 0.0651354 -0.041162 -0.0355604 -0.0218735 -0.0122964 -0.0490046 0.0319096 -0.0469984 0.0912637 -0.12087 -0.0674781 0.0425073 -0.0386819 -0.0741044 -0.0299827 -0.00433855 -0.110924 -0.000560628 -0.0722516 0.0158414 0.0373831 -0.0450721 -0.0140653 -0.0422355 -0.0486018 -0.0956638 -0.0638827 0.0985977 0.103886 0.0622931 -0.0156976 -0.0869262 0.0145694 -0.11107 -0.0191965 0.0768076 -0.026271 0.0642435 0.0149752 0.0372072 -0.0808655 -0.0820959 -0.0109464 -0.0672132 0.0367115 -0.000630371 -0.0126894 0.0534176 0.0794136 -0.00510534 0.0837608 -0.0870043 0.0797386 -0.032968 -0.0883779 -0.0345257 -0.0595877 -0.0697881 0.0421647 -0.0644169 0.012122 0.0732574 0.105726 0.0101396 0.0810257 0.107184 -0.00224217 0.0308792 0.0419353 0.0414678 0.0807046 0.0689359 -0.065896 -0.00513022 -0.095186 -0.0164192 0.0929256 -0.0487168 -0.068875 0.090705 0.00862422 -0.0595893 -0.117158 0.0515888 0.0770735 -0.0338675 -0.0151029 0.1242 0.0673979 0.00649358 0.0181916 -0.0796802 -0.0877222 0.0928249 0.0480902 -0.00807791 0.0861527 0.0983176 0.0598398 0.0397733 -0.0751357 0.0892439 0.0163169 0.0506 0.00152307 -0.0829235 0.049638 0.0376237 -0.0894537 -0.0735759 0.0441635 -0.0609015 0.00557204 0.0186597 -0.0347394 0.0972523 0.0961305 0.0842056 -0.00964171 -0.0054124 0.105563 0.000201768 0.12779 -0.0592108 0.115097 -0.00361291 0.0314594 0.0213654 0.0720674 0.0999993 0.0493673 -0.113663 -0.05932 -0.0289577 -0.0647607 0.0473398 0.0517234 0.0135177 -0.0622114 0.0558535 0.0101423 0.0107291 0.0588549 -0.0672904 -0.0275208 0.0110616 0.00634401 0.0781457 0.000265548 0.126032 -0.0447079 -0.0157925 0.0974687 -0.0206488 0.113534 0.13238 -0.0855748 -0.0420561 0.113169 -0.07457 0.0308353 -0.0109823 0.0977755 0.00612976 -0.0195387 0.0707632 0.0671101 -0.0524186 -0.101095 0.0117432 0.0309485 0.0233168 0.0612404 0.0524908 -0.0356861 0.0327078 0.00351697 0.0279011 -0.0734792 0.0553114 -0.0669986 0.0250498 0.0485027 0.0631567 0.108384 0.00168086 -0.0320179 -0.0266498 0.0545055 0.011433 0.0852934 -0.0258628 -0.0511857 -0.127277 0.0536012 -0.12633 -0.146514 -0.00694376 0.0166307 0.0610239 0.0123267 -0.0827986 0.00732753 -0.104561 0.0991723 0.106283 -0.00544482 0.0098313 0.128272 -0.0198906 0.12837 -0.0642399 0.0208996 -0.030731 -0.104085 -0.0577094 -0.0897225 -0.0328423 -0.0445931 -0.0808341 0.0301864 -0.0944523 -0.117094 -0.0708722 0.00721755 0.021376 -0.052007 0.0217045 -0.0196302 -0.0706338 0.00946828 0.0719928 -0.135251 -0.130972 0.0322692 0.0727274 0.0665397 0.011699 0.0845527 0.0210203 0.127925 0.035254 -0.0683658 -0.00786713 -0.0416577 0.0312854 -0.122548 0.00569515 0.0563409 0.0511563 -0.0941889 -0.0432938 0.00106267 -0.090138 -0.0476593 -0.0432547 0.0324742 -0.124834 -0.0881025 0.0394857 -0.126928 0.0460806 0.0318776 -0.039334 0.0772428 0.0212968 0.0259466 0.00672276 -0.00125776 -0.0658588 0.0323348 -0.0158556 0.0668187 0.0535679 0.0142852 -0.0136869 -0.0780247 -0.00696841 -0.0369184 -0.0613668 0.067139 0.00179795 -0.0791276 -0.0160963 0.041678 -0.065597 -0.144732 0.0499356 -0.0374498 -0.0704954 -0.0181329 -0.0596409 -0.0302417 -0.0581413 0.143763 -0.0412194 0.126224 0.102236 -0.0761308 0.0888892 -0.0420525 0.0799693 0.0740675 0.106056 -0.020496 -0.0640915 -0.0674385 -0.104668 -0.0225969 -0.0422206 -0.00263927 -0.120386 -0.0487069 -0.114789 0.0621672 0.0241878 -0.11629 0.0874023 -0.0905777 -0.0257695 0.0213988 0.0328217 0.0387453 -0.0383824 0.0386216 -0.00129922 -0.00959658 -0.0143916 0.113544 0.00251125 -0.0845814 -0.0272501 -0.0478201 0.017239 -0.043786 -0.0760398 -0.00671305 -0.0992201 0.0737948 0.0667877 0.0292344 -0.0430285 -0.0118431 0.0837218 -0.117187 0.0147617 -0.0625545 -0.0215559 0.0168642 0.0150427 -0.0405024 -0.11122 -0.0338632 0.0294316 0.000323516 0.11338 -0.0302963 -0.0862235 0.0394981 0.104816 0.0660601 -0.0677789 -0.0800153 -0.095663 0.0300541 0.0066078 0.0121679 0.0129041 0.102536 0.0838983 0.0757347 -0.120692 -0.111942 -0.0309027 -0.00553276 0.0885942 -0.0725023 0.0705806 0.0504269 -0.00159511 -0.0080933 -0.00534136 0.087875 0.0207278 0.0133197 0.0850833 0.0656192 -0.0444942 0.100388 -0.0438176 0.0546628 -0.107228 -0.0883371 0.0416061 -0.0605252 -0.105196 0.0894413 0.0269609 -0.0650604 0.100493 -0.071982 -0.0463312 0.0288544 -0.0472687 0.034038 0.141174 0.12251 0.0556396 0.121181 0.00497597 -0.0247556 0.104004 0.00667332 0.0160415 -0.0890561 -0.0414612 -0.0149784 0.10587 -0.109854 0.0819887 -0.0612068 -0.119729 0.0288126 0.0968472 -0.00608874 -0.0222407 -0.0316588 0.0216632 -0.0131487 0.119242 -0.0685592 -0.0942597 -0.0913845 0.104412 0.107401 0.0894137 0.09375 0.0521563 0.0816899 -0.0283412 0.0928349 0.0144383 0.0827468 -0.0526504 -0.0836841 0.0245065 0.0437784 -0.0680112 0.0661581 -0.0689917 -0.0342842 -0.107218 -0.00608945 -0.0244062 0.0636063 0.0597464 0.0118201 -0.0383932 0.020644 0.0746014 0.111849 0.107403 0.112361 -0.0775307 0.140783 0.114246 0.123665 -0.0678475 -0.0431118 -0.0331599 0.0440569 0.0280995 0.016233 -0.105748 0.0191334 -0.00811151 0.0781095 -0.0444508 0.034759 -0.0754178 0.0347724 -0.118131 0.0900421 0.0625809 0.00586138 -0.0964218 0.00584052 -0.0365601 0.00486085 -0.046171 0.0803666 0.109058 -0.0802134 0.0403698 0.0545334 0.109785 -0.0503052 -0.0162479 0.0663313 0.086535 0.0638656 -0.018887 -0.0706508 0.0406555 0.0794206 -0.0509499 -0.0923686 -0.0941944 -0.0444407 -0.0675497 -0.00899101 0.0752341 -0.0205846 0.0393462 -0.104333 0.030146 -0.103856 -0.036976 0.0796331 -0.0522155 0.101773 -0.0577241 -0.0540238 -0.00632723 0.0392595 0.094317 0.108501 -0.00354136 -0.0684412 0.00741427 0.0507603 -0.0237875 -0.0601747 -0.0341998 -0.0698148 0.00227542 0.067545 -0.110885 0.0965489 0.0285077 0.0544149 0.0457629 -0.0510488 0.0648113 0.0749638 0.0200986 -0.00232014 -0.108314 0.0169946 0.112906 0.0769488 -0.0928173 -0.109047 0.0290807 -0.0837166 0.0595601 -0.0146857 -0.0196331 0.0726492 -0.0385439 0.0925397 0.115549 0.00757028 0.048692 0.0147545 0.0629476 -0.000606836 -0.0060335 0.0462354 0.0781816 -0.10295 0.0408747 0.022201 0.0762196 -0.0202666 0.00349316 -0.109619 -0.00451931 -0.0698388 0.0500298 -0.0418385 -0.0621184 -0.0163067 -0.00985142 0.0274491 0.0446601 0.0641309 -0.0421199 0.0733844 0.0317194 -0.0293779 -0.0615187 -0.0629951 0.00992481 -0.0266263 -0.0461938 -0.086707 0.0252299 -0.0966505 0.0419863 -0.0857006 -0.0289775 -0.00854796 0.0582626 0.0743035 -0.0146655 0.0937021 0.0458332 -0.00671999 0.0599264 -0.0586672 0.0867773 -0.0200044 -0.0183979 0.0250788 0.0886944 -0.0139483 -0.0825727 0.0206168 -0.0298388 -0.02989 0.0492479 0.0654186 -0.0833985 -0.0115144 -0.000205863 -0.0388461 0.065252 0.0459952 -0.0609999 -0.0930455 0.0153723 0.0673096 -0.110356 -0.0049195 -0.036491 0.00112021 -0.080971 -0.0470663 -0.0626246 -0.0141776 0.0737495 -0.0511625 -0.0607969 0.0560441 0.0780874 0.0333341 0.0172918 0.115448 0.0217259 -0.0443945 0.114949 -0.039946 0.0781176 -0.103639 0.0792411 -0.037196 0.0233622 -0.0288206 0.0487246 -0.111754 -0.121087 -0.109316 -0.100455 0.0353875 0.0228902 0.100655 0.0225195 0.0208993 -0.100608 -0.0986695 -0.0144462 0.104535 0.0960716 -0.0203195 -0.0578758 -0.0889473 0.0431976 0.0593832 0.0641284 0.115921 0.124622 -0.0177223 0.0466294 0.0362064 -0.110385 -0.114876 0.0571994 -0.03884 -0.0159709 0.0154271 -0.0719017 -0.0678816 0.103454 0.105849 0.0958902 0.00508373 0.0400557 -0.0736494 0.0202655 -0.0487738 -0.0924272 0.0904776 -0.0642469 0.100075 -0.113176 0.0746383 0.00507352 0.0765236 0.0221633 -0.0654871 0.0366966 0.144046 -0.0727066 -0.106253 -0.0105214 -0.0994911 -0.0893506 0.0240846 0.00503208 -0.0972782 0.0250301 -0.053616 0.033638 -0.0233323 0.065758 0.013415 0.0285432 -0.0229354 -0.0894225 -0.0229037 -0.076005 0.0596053 -0.0117352 0.0760034 0.0385915 0.0987022 0.0294078 -0.081733 -0.0782425 0.0410428 -0.062881 -0.0733477 0.119264 0.0306564 -0.0409246 0.0393481 -0.0933232 -0.069987 -0.0219498 -0.129012 0.0430745 0.0372161 0.0302392 0.111524 -0.0573239 -0.0431493 0.0159091 0.028872 -0.00945084 -0.0844397 -0.0776073 0.05191 0.0963537 -0.0363047 -0.119837 -0.00403709 -0.10486 -0.0320284 -0.0379095 0.032573 -0.0589421 0.111359 -0.0764478 -0.00987227 -0.031402 -0.0846302 -0.11057 0.0285442 -0.117206 -0.125506 -0.0185194 -0.0470635 -0.0470241 0.0500695 -0.0575464 -0.0584382 -0.00964816 0.0448895 0.019449 0.0940374 0.0713515 -0.0602065 0.0755126 -0.0593408 -0.0767875 0.0150896 0.052134 -0.0608637 0.0898058 0.0626602 0.0540886 -0.0822702 -0.000272787 0.0285593 0.052438 0.000409412 0.0528749 -0.104767 -0.0685882 0.0332603 0.0229827 -0.0608969 -0.0782212 0.0421402 0.134435 -0.037157 0.110653 0.121159 -0.026827 -0.0181388 0.0254809 -0.0285171 -0.00416132 -0.0128483 -0.0529946 0.0407492 -0.016154 -0.0661337 0.100541 0.0467847 -0.0154177 0.0258654 -0.0932381 0.0393439 0.0834299 -0.00885577 0.0429785 0.0322823 0.084378 0.0168991 0.0785944 -0.094754 -0.0152555 0.0568274 -0.0704519 0.134136 0.0882435 0.140871 0.0909698 0.130652 0.126879 0.0082568 -0.0611024 0.0948387 0.0793824 -0.0219773 -0.093786 -0.0352373 0.0684469 -0.0547612 -0.0148911 -0.0937909 -0.00222439 -0.109988 -0.0888732 -0.0783017 -0.0014924 0.0398941 0.054072 -0.0752655 0.075745 -0.00707919 0.0996718 -0.0603968 -0.0255534 0.00726179 0.0654995 0.0788744 0.0166817 -0.080719 -0.0935741 0.0366057 -0.103472 0.0566947 0.063007 -0.00923761 -0.0905111 0.0446857 -0.0145437 0.0340613 -0.083233 0.0219391 0.0877331 0.0622097 -0.020695 -0.0426063 0.0904503 0.0448882 -0.0283364 0.0425797 -0.0491905 -0.0300644 0.0711341 0.131154 0.0598598 -0.0649816 0.0639305 -0.0392573 0.0497021 -0.0502535 0.0136595 -0.0336373 -0.102715 -0.0865463 0.0318089 -0.0736183 -0.11956 -0.02354 -0.0258662 -0.0376248 -0.104446 0.0757195 0.0251506 -0.0392948 0.0952691 -0.0819299 0.0631605 0.0484119 0.0452115 0.114027 0.0965332 0.00827357 0.0837236 0.117144 -0.0228119 0.0482258 0.061788 -0.0277558 -0.0081972 0.0329237 0.0764202 0.0866155 0.0222494 0.0895686 0.068048 0.0491944 -0.00865567 -0.104922 -0.0859581 0.027569 -9.97083e-05 0.0555214 -0.102428 0.057495 0.0274601 -0.0164684 0.0923375 -0.061169 -0.101173 0.111048 -0.0748565 0.0404937 0.0631737 0.117355 0.059418 0.0236242 -0.099725 0.114331 0.0756705 0.0122933 0.0953111 0.00148598 -0.000838376 -0.0655213 0.0497363 -0.0787873 -0.0310354 -0.0526687 0.0431087 -0.0318997 -0.0929784 0.107495 0.0746676 0.00652179 0.0207253 -0.0452204 -0.10241 -0.100853 -0.0593308 -0.0531015 0.0259028 0.057606 0.0875826 0.0544743 -0.0566232 -0.00822535 0.0925109 0.0937815 -0.0383112 -0.0384604 0.0777464 -0.0703649 0.00414287 -0.00375645 -0.0571511 -0.133001 0.0501779 -0.120333 -0.0617314 -0.023603 -0.000940393 -0.0887683 0.122999 -0.0476034 0.101586 0.0468202 0.0138716 -0.0750116 0.0847025 -0.0247243 -0.078226 0.0302453 -0.0302181 0.114634 -0.0666214 -0.0878006 0.0119552 -0.0633836 -0.0832841 0.122118 -0.0207691 0.100587 -0.0667904 -0.0728117 0.0332394 -0.0989476 0.048158 -0.0711132 0.0972278 -0.0503998 -0.0471275 -0.0550435 -0.0513465 0.091346 -0.00225682 0.00764853 -0.028006 0.0946327 0.0894966 0.0512546 0.0859158 0.12328 -0.0172706 -0.0955417 -0.0250266 -0.0607995 0.0391538 0.122323 0.0311641 -0.087253 -0.0461749 -0.00525129 0.071635 -0.022885 -0.0202983 0.0205851 -0.0432507 -0.0484716 -0.0470585 0.0626031 -0.0654813 -0.0178491 -0.0294284 0.0262639 -0.0893241 0.0107758 -0.0245391 0.0482575 -0.0882454 -0.0201342 0.0216766 -0.133464 -0.0364151 0.00872935 -0.086312 -0.00973783 -0.101945 -0.0309753 0.0470689 0.0462291 -0.0951689 0.0656584 -0.0443749 -0.0192582 -0.0565369 0.0847973 0.0922775 -0.0673442 -0.0340518 0.0419824 -0.0115211 -0.10321 -0.0220152 -0.0764927 -0.0417377 -0.0940704 -0.102402 -0.00614664 0.066169 -0.124801 -0.000374846 0.0177519 -0.0418329 -0.032448 -0.0173302 -0.0241423 0.0260871 -0.0674686 -0.121391 0.00452647 -0.00321797 0.0525035 -0.10176 -0.0445241 -0.0525867 -0.0641757 -0.0733691 -0.00821796 0.105043 0.0313687 0.0987427 0.0578996 0.0200682 -0.0637522 -0.119612 -0.00378122 0.0544934 -0.128626 0.000712605 -0.0389592 -0.0379524 -0.0366023 -0.100324 -0.0770846 -0.0912338 0.0521386 -0.0959963 0.0433341 -0.00237553 -0.108125 0.0922768 0.0884907 -0.0884678 0.00630697 -0.0225727 -0.111674 0.00701146 0.0416579 0.0901484 -0.0573185 0.0267604 -0.0121535 0.00451309 -0.0544845 -0.0101038 -0.142688 -0.145635 -0.112366 -0.139022 -0.00921629 -0.0321474 0.00269564 -0.119859 -0.061887 0.0846135 0.00858478 0.0534365 -0.0794924 -0.118256 -0.116175 0.0367609 -0.123899 -0.0737145 -0.103851 0.0626444 0.0474683 -0.0605597 -0.0729642 -0.0830881 -0.118353 0.0585289 -0.0939537 0.00106948 -0.10242 -0.0673316 -0.103753 -0.00400629 -0.115697 0.0279271 0.0781971 -0.0238849 0.0787464 0.0806177 0.036014 -0.063002 -0.025373 0.0694242 -0.125079 0.00113445 -0.144081 0.0436708 -0.027863 -0.0504428 0.0082918 0.0254566 0.0570644 0.0862311 -0.0976206 -0.0800303 -0.0134602 0.0301808 0.0632053 0.0412342 -0.00307661 0.0313027 -0.127941 -0.0620516 0.0183686 -0.0342196 -0.108532 -0.0661132 0.0675926 0.0252684 -0.0138877 0.0858896 -0.0744669 -0.0671375 0.0447401 -0.141002 0.0277029 0.0388864 -0.127576 -0.120454 -0.000373997 -0.0748027 0.0083898 -0.000879216 0.0672835 0.101547 -0.0445977 -0.0349631 -0.0455004 0.0701363 -0.0680073 -0.0358968 -0.1391 -0.0855943 0.0538715 0.0874934 0.0455361 -0.111331 -0.0463265 -0.033925 -0.00749921 0.0156485 -0.0850234 -0.0439424 0.0751632 0.0460755 0.0626408 -0.0383896 -0.0513749 -0.0255355 0.071949 -0.0659297 -0.0555266 0.0905991 0.109788 -0.0899096 -0.00874328 -0.0517527 0.00658742 -0.0340674 0.114249 0.0188554 0.0387043 0.0420162 -0.0769342 -0.0520477 0.0472253 -0.062676 0.026303 -0.0611189 -0.0870816 -0.0919631 0.0394768 -0.101153 -0.0573144 -0.0235392 -0.102749 0.00595981 -0.0534269 0.0384352 -0.00947815 0.0741172 0.0244202 0.104062 0.094286 0.0872043 -0.011269 -0.0553327 0.0101849 -0.0659061 -0.0363372 0.0348014 0.0566446 -0.000524916 -0.00520964 0.0763721 -0.0790825 -0.0473875 -0.0686213 0.0700974 0.0899408 0.0552119 -0.0159279 -0.0664289 -0.0447261 0.0589396 -0.0153847 -0.102435 -0.082134 -0.0801158 -0.088572 -0.0594393 0.0304101 -0.0419079 -0.0523533 0.0112254 0.0543921 -0.0666932 0.0851184 -0.0179053 0.0148535 -0.121499 0.0705941 0.0748111 -0.112921 0.0887783 -0.0267404 -0.0604169 -0.070069 -0.0253122 -0.0238359 0.0766095 -0.0950045 0.0244363 -0.0142491 -0.110338 -0.00845089 0.0184671 0.051355 -0.0722224 0.107743 -0.0447995 -0.0787397 0.0721779 0.107944 -0.0306738 0.0327863 0.0618121 -0.00797836 -0.0366483 -0.0669104 -0.0723406 -0.0477293 0.0648247 0.0269928 -0.104942 -0.0498629 0.041681 -0.0322001 0.105335 -0.0829714 0.0599533 -0.0672225 0.08936 0.0587773 -0.0637397 0.0379964 0.0877648 -0.0406721 -0.00958414 0.0829763 -0.0625098 -0.0217573 -0.0307246 -0.00998199 0.0690951 -0.11165 0.00534649 0.0669465 -0.0998928 -0.00359219 0.0170386 0.00269251 0.0472464 -0.112072 0.0106165 0.0737346 -0.067556 0.0387433 -0.0553807 -0.0498623 -0.026282 0.113164 0.0610866 0.0627285 0.114293 -0.0854124 -0.00338612 0.0990115 0.018733 0.00730782 -0.0131243 0.0843073 -0.100995 0.0324311 0.0312831 -0.0235719 -0.00697648 0.0519735 -0.015569 -0.0796358 -0.0492767 0.0250812 0.0144697 0.0537183 -0.0431732 0.0240726 0.0437199 0.0939053 -0.0911932 0.106329 0.00695596 -0.0352118 -0.0796396 -0.00276537 0.0766149 0.0716768 0.114894 0.0534775 0.0305806 -0.056472 -0.00827504 -0.0507963 -0.0362697 0.0517291 0.0164749 0.0301654 -0.123217 0.0372502 0.0897617 -0.0360629 0.0491327 0.0803839 0.0777536 -0.0538216 0.0568797 -0.0669319 0.108384 0.0803371 0.0334309 0.0571823 0.0702873 0.0918589 -0.0491713 0.0738399 0.0445245 -0.0531168 -0.00840227 -0.0169607 -0.0859215 -0.0532178 0.0487459 0.0577016 -0.0898311 -0.033565 0.0724517 0.00925559 -0.0411054 -0.0780189 -0.112445 0.07501 -0.0853346 -0.0435848 -0.0806705 0.0187312 -0.080874 -0.0340638 -0.089618 -0.00326916 -0.0379498 0.0986018 0.0532683 0.11074 0.0681909 -0.0454178 0.00905797 0.0367785 -0.0282432 0.0344167 -0.0366212 0.025556 0.000628272 0.0087544 0.121064 0.0439618 0.00680503 0.0295572 -0.00885777 0.00778922 -0.0361497 -0.0664553 0.074986 0.059285 0.0533958 0.102645 -0.0227009 0.0640724 0.107612 0.0403706 0.00521849 -0.0485128 0.116085 0.074524 0.0323206 0.134458 0.128945 -0.0423526 0.0955326 0.0663014 0.110615 0.0443897 0.132974 0.128098 0.0872222 0.0955264 -0.0180568 -0.045615 0.086624 0.0173706 -0.103529 0.0532234 -0.0627033 -0.104414 -0.102444 -0.0369419 0.0177461 0.132746 -0.0347256 -0.0902841 0.0814758 0.0424961 -0.0114478 -0.0196914 -0.0250482 0.152134 -0.0266782 0.0672585 0.135659 0.0550522 0.128422 0.0795636 0.132942 0.014318 0.138064 0.0778447 -0.0122377 0.0479151 -0.0733638 0.0293248 0.023686 0.0779745 0.060846 -0.11473 0.0649793 0.0241797 -0.00522866 0.0729923 0.0682923 -0.0275408 -0.0895822 -0.0298313 0.0128408 0.0557746 0.0721572 0.149177 0.124829 0.120716 -0.00543788 0.143824 0.128481 0.124503 -0.0735379 0.132 -0.0406199 0.0366082 -0.0811283 -0.00678451 0.00978321 0.0634859 -0.0236028 0.105826 0.0998097 0.0149917 0.0104166 -0.0305676 0.131509 -0.0276696 -0.0357157 0.140359 0.0615365 0.0505414 -0.0446192 0.0822233 0.0766806 -0.00955293 0.132373 0.119148 0.0537956 -0.0271166 0.0171491 0.0940501 0.0374016 0.0999881 0.0529572 0.00530031 -0.0433595 0.00556374 -0.0621791 -0.0493383 0.0545385 0.0634417 -0.0376733 0.00292969 0.0327768 0.00767281 0.00227271 0.0370905 0.11974 0.115666 0.0656545 -0.0441693 0.0430277 0.111358 -0.0263311 -0.0789382 0.0227414 0.0917003 0.045784 -0.0158058 0.0188584 0.0983096 -0.0544474 0.0326482 0.0253044 -0.00262365 0.0625386 0.0565619 -0.0538399 0.0589214 -0.0866058 0.027745 0.0937721 0.0545306 0.0471452 0.0345377 0.127341 -0.0330923 0.0967479 0.0751323 0.0861296 0.0527984 0.0130188 0.0322559 0.0370438 0.107222 0.0395615 0.0717259 -0.00503664 -0.0966926 0.0430656 0.00738289 -0.0534879 -0.0226955 0.0351132 0.0462374 0.0750782 -0.00330047 -0.0453362 0.0548946 0.0443036 0.0412019 0.0472133 -0.0328487 0.0170324 -0.0617082 -0.059575 0.0405749 0.0655083 0.0481549 -0.109346 -0.0701307 -0.0907357 0.0456941 0.0139548 0.0576005 -0.0451733 -0.0521006 0.10971 -0.0651938 0.0472593 0.107026 -0.0328761 -0.0375034 -0.0612733 0.126406 0.0334353 0.0317498 -0.0931645 0.0976491 0.106818 0.12331 -0.0616952 0.0640267 0.0209484 0.0300089 0.0896135 0.0763568 0.0827244 -0.104726 -0.0725321 0.0860809 -0.00646736 0.0365375 -0.0411121 0.0401864 -0.0840615 0.0288568 0.00170446 0.0923774 0.0225224 -0.0921828 -0.0729274 -0.0564594 0.109879 -0.0135021 -0.065697 -0.0516339 0.0496907 0.105142 0.107777 -0.00968183 0.00766163 0.0229292 -0.086416 -0.0591207 0.08286 0.0405494 -0.0673417 -0.0960733 -0.0304822 -0.0450153 -0.0981782 -0.0878907 -0.0543514 -0.114436 0.0936592 0.020097 -0.0157264 0.0159612 0.0908404 -0.0794605 -0.06205 0.04866 0.0242895 -0.0272656 0.110183 0.116828 0.00050944 -0.0722109 0.0997294 -0.0466611 0.0583181 -0.0684649 0.000258565 -0.0647923 0.0623135 -0.0451992 0.0897102 -0.103149 -0.0514467 -0.0859449 0.0155536 0.0441385 0.0336652 0.0006888 0.0914275 -0.0779925 -0.00614877 -0.00866493 0.00126325 0.0264048 0.0374979 0.00798051 -0.011983 0.0725746 -0.0171084 -0.00125709 -0.000653878 0.0284513 0.0434792 0.0964973 0.0547793 0.0044243 0.105356 0.0854891 0.083658 -0.0651037 -0.0245492 0.0862456 -0.0707054 -0.0463976 0.0484431 -0.0690289 0.0243364 0.00303024 -0.000760729 0.0484121 0.0624605 0.0484765 0.0970412 -0.0776922 -0.10291 0.0752086 -0.0910557 0.0545966 0.0262791 0.0412427 0.0251299 -0.0437126 0.0275644 -0.0880359 0.101117 -0.0157493 0.0196644 -0.0162993 -0.0306457 -0.0496476 -0.0717386 0.0487454 -0.0891599 0.0482008 -0.141288 0.0635302 -0.0370396 0.0295946 -0.0453547 0.00383449 -0.0711726 -0.0774072 -0.0463304 0.0487224 -0.0437533 0.0894149 0.107704 -0.065668 0.0876 -0.058227 -0.100817 0.0548239 -0.0261715 -0.00804828 -0.0216858 0.0764901 0.0794841 -0.0522398 -0.0398831 0.0704292 0.0461031 -0.06219 0.0244624 0.0337115 -0.00371966 -0.0296117 -0.149065 -0.0593807 0.0402098 0.0179978 0.0447756 -0.00291836 0.0129146 -0.114563 0.0689862 0.0697453 -0.0982355 -0.0126002 -0.0294938 0.0597308 0.0950129 0.0843969 -0.0537628 -0.0151097 0.116095 0.0576294 -0.0451456 0.106437 -0.0997041 0.0675906 -0.104529 -0.0558346 0.0424161 -0.0382994 -0.138983 -0.0234944 -0.0517446 -0.0193626 -0.129687 -0.118554 -0.100009 0.0346278 -0.0100271 0.0963544 -0.0506484 0.110331 -0.105528 0.0066103 0.0607358 -0.0948726 0.093615 0.0933475 0.0619173 0.0820708 0.0067916 0.0674715 0.0796981 0.0128748 -0.0761045 0.103135 -0.0738792 -0.0422908 -0.045188 0.0624424 -0.0508207 -0.0158827 -0.0132173 -0.0671747 0.0230591 0.0693027 0.0103504 0.0726897 0.0467317 0.0386545 -0.0153527 0.0183513 0.0674244 0.0528095 -0.00290842 -0.0524296 -0.000191849 0.00180759 -0.0196045 0.0701601 -0.0619837 0.0672683 0.0220973 0.0228102 -0.105186 0.0266846 0.0665258 0.10235 0.0864541 -0.109177 -0.0152468 0.0548569 -0.069224 -0.043687 0.0282586 0.00419084 0.0892314 -0.0302554 0.0421906 -0.0890908 0.00796687 0.103455 -0.0411911 0.0969535 -0.0582818 0.0732916 0.0763654 0.084145 -0.0126642 0.0227029 0.0140559 -0.0269465 -0.0422509 -0.0228417 0.0530658 0.0999631 0.0997436 -0.0227223 -0.106567 0.0812251 -0.0351251 0.0092797 0.00841438 -0.0152513 0.0957463 0.0496699 0.107396 0.0433736 -0.0673981 0.0242333 0.0635413 0.0820805 -0.111179 -0.0889189 -0.00118013 -0.0980064 -0.0567259 0.0277922 -0.0981487 0.0330943 -0.0203136 0.0666582 0.0830765 0.0873097 0.0900861 0.0380302 -0.0208153 -0.0403435 0.0815702 -0.0719547 -0.0237158 0.0908854 0.0264138 -0.0448489 0.0179598 0.0335912 0.0993447 -0.0922133 -0.092433 0.0541887 0.0657675 -0.0492375 0.0142249 0.0948009 0.0219328 -0.0604619 -0.0231138 0.0163099 -0.121592 -0.0488895 -0.0450635 0.0834905 -0.0879177 -0.0784001 -0.10642 -0.0823837 -0.0448024 -0.0287803 -0.0551814 -0.100605 0.0725767 -0.0261825 -0.0431057 -0.0397234 -0.0668425 -0.0398269 0.0984759 0.0906141 -0.0135907 -0.0650704 -0.0348865 -0.0162791 -0.0599939 0.0318754 -0.106233 -0.101831 0.0112712 0.0253146 0.0719744 0.0131592 0.0342378 -0.00815206 0.0763469 -0.0643851 0.112649 0.0234991 0.0197594 -0.0145531 0.0944252 -0.00198068 0.0784051 0.036663 -0.076935 0.0430009 0.00791206 0.0105854 -0.0791995 0.0463398 0.0988089 0.0719297 -0.0920749 0.0875446 -0.0140516 -0.109515 0.0904733 0.0373994 -0.0320173 0.0908819 -0.00201187 0.041486 -0.118061 0.0774451 -0.0964627 -0.0423999 -0.10687 -0.00287482 -0.0136244 0.111456 0.00745976 0.10901 0.0470798 -0.035146 -0.0717424 -0.034663 0.0813911 0.0247721 -0.0995616 -0.0935475 0.0477502 -0.0583318 0.0362997 -0.0297222 0.0942943 -0.0416008 -0.0602012 0.058481 -0.00464276 -0.0923724 0.087651 0.0731481 0.0311631 -0.0906067 -0.0142589 0.101539 0.10111 0.0641087 -0.0725209 -0.0949036 0.0076073 -0.0316268 -0.0368058 0.00733148 0.00970199 -0.0281412 0.0396233 -0.0626882 -0.0597053 -0.0607528 -0.0264227 0.0614574 0.000967908 0.0854688 -0.101796 -0.0581076 0.0995955 -0.0576693 0.0292345 -0.0543032 -0.0848707 -0.0900154 0.0331945 0.0498152 -0.097959 0.0376452 0.105785 -0.0871604 -0.080545 0.068736 -0.0709562 -0.0396293 0.104651 -0.00793617 0.0361323 0.015168 0.0691983 -0.0183894 0.0980487 -0.0460634 -0.0719373 -0.0885304 -0.101941 0.00864176 0.00920344 -0.0590059 -0.0558103 -0.106774 -0.08736 -0.0297921 0.0544212 0.0820165 0.0520808 -0.0761569 0.0600845 0.0321865 -0.0806051 -0.0484798 0.0606791 0.0881315 0.0882166 -0.0404651 0.085929 0.0661505 0.0220236 -0.063567 0.103112 0.00883612 0.0999485 0.0187578 -0.0992709 0.0188966 0.0104477 -0.00312785 -0.099711 -0.0813156 -0.0416689 -0.0309163 0.080673 -0.0492817 0.0117702 0.0749285 -0.0941475 -0.0156721 0.0392746 -0.106077 0.0685333 -0.0787104 0.0534663 0.053522 0.0325912 -0.0429837 -0.0976174 0.0277117 -0.0825138 0.056182 0.108418 -0.0538212 0.0671045 -0.0156694 0.103527 0.0692685 0.0824067 -0.0681995 -0.069881 0.040563 0.0376795 -0.098213 -0.108843 -0.0685911 0.0430299 0.0643033 0.108301 0.0725954 0.0527128 0.0897532 -0.0342942 0.0038074 -0.104795 0.0186999 0.0292571 -0.0274955 -0.0299717 0.0364907 0.0342494 0.0189885 0.082518 -0.0616517 0.0777311 0.00552988 -0.0406709 -0.0246709 -0.0896938 0.0228775 0.110739 -0.0421856 -0.0735073 -0.042166 0.0365434 -0.0626267 -0.0963946 0.0250599 -0.0169957 -0.10186 0.0612577 0.0417415 -0.0667199 0.101004 -0.0396112 -0.0941476 -0.0545091 0.0638572 -0.0216661 0.0343016 0.0874833 -0.0999556 -0.0535844 0.0830736 0.100365 -0.032618 0.0780677 0.0305857 -0.0667466 -0.0599662 -0.0621026 0.0746967 -0.00524753 -0.0627121 0.0766119 -0.00404631 0.037087 0.0544536 -0.043898 0.0640003 -0.0630526 0.0325112 -0.0484691 -0.102419 0.0969892 -0.0124083 -0.0717766 0.0894136 0.00589588 0.0284299 0.0955711 0.0882405 -0.0195405 0.0459258 0.112487 -0.0507588 0.109193 0.0722236 0.0873146 0.0855927 -0.0228543 0.0609294 -0.0940763 0.00886121 0.0783257 -0.0674817 0.077675 0.0730586 0.100496 -0.0711486 0.0819828 0.00914951 0.0121247 -0.0917508 0.064756 -0.0418788 -0.0641554 0.00288942 0.0608668 0.0901184 0.00677756 -0.0997614 -0.0158861 -0.019288 0.0448011 0.104031 -0.0628028 0.114026 -0.0559376 -0.0399638 0.0789294 -0.0036108 0.0162176 0.00621526 0.0527597 -0.0388603 -0.0108975 -0.104822 -0.117652 0.0587758 -0.00491153 -0.0049442 -0.0178094 0.036361 -0.0556315 0.0956963 0.0229402 0.106818 0.0496623 -0.0444731 0.0921465 0.0955017 0.0150387 0.0370667 0.0841121 -0.0184649 0.0631803 0.107011 0.0629828 0.0508463 -0.0720246 -0.0824723 0.0343632 0.0558765 -0.111469 -0.0832701 -0.097145 -0.0622391 0.0783726 0.0310079 0.101921 -0.0390104 0.0245286 -0.054486 -0.0335596 -0.0978105 -0.0821011 -0.0494293 -0.019402 -0.0979289 -0.0500527 0.114624 -0.104899 0.0522709 0.085303 0.0875907 0.00874912 0.0693735 0.103433 -0.0194281 0.078192 -0.0821219 -0.110171 -0.056784 0.0694976 -0.0448413 0.0553454 0.0339917 -0.0536289 0.11083 -0.0308212 0.0313071 -0.0313369 -0.109148 0.0607261 0.0281303 0.00300678 -0.0991114 -0.0207484 -0.0451607 0.0686508 0.0280105 0.090369 -0.0531147 0.0490759 0.0828709 -0.0368737 0.0417711 0.117643 -0.0943381 -0.0551164 -0.0668262 -0.113027 -0.086607 0.0649858 -0.0112349 0.00696221 0.0702244 -0.0533669 0.0607574 0.0853684 0.0640573 0.00897893 -0.0388915 0.0174988 -0.0411771 -0.114231 -0.038251 -0.106408 -0.0445918 0.0554042 -0.0760846 0.0151028 0.0676005 0.0663614 0.104223 -0.0407156 -0.0602577 0.0649498 -0.0499301 0.0377767 0.020402 0.0749298 0.0966016 -0.0774376 0.000366167 -0.00472063 -0.0822497 0.0584778 0.0208029 0.057296 0.0063593 -0.0302551 -0.0795048 -0.0204168 -0.0553342 0.0327441 -0.0326266 -0.0495412 0.0369938 -0.0127619 0.0534835 -0.110481 0.0730443 -0.0461099 0.0208054 -0.0933407 -0.0492506 0.095352 -0.076633 0.0936356 -0.0474249 -0.0339572 -0.0638736 0.051238 -0.0351519 0.0579613 0.0961315 -0.0727858 0.079259 -0.0189292 -0.0292137 0.028897 0.0233543 -0.0893549 0.0726527 -0.0207523 -0.074703 0.00918768 -0.00884015 0.0863463 0.0293094 0.0582069 -0.072322 -0.00171268 -0.0409769 0.116403 0.0344616 0.0547968 -0.0100166 -0.0889204 0.0568795 0.000161943 0.0636491 0.0679061 0.0555166 -0.0544154 -0.0586946 0.101483 0.0423297 -0.0996535 -0.0697423 -0.102054 -0.0368453 0.0696889 -0.0276028 -0.0956438 0.0378793 -0.0142153 0.027251 0.0967756 0.0234196 -0.0285911 -0.0143991 0.0541124 0.0909931 0.0906015 0.0997553 -0.0581184 0.0421996 0.0882524 0.0516753 -0.00955376 -0.0578893 -0.00798458 -0.0607457 0.0618679 -0.0129846 0.0973727 0.0314198 0.0168426 0.0511928 0.0444692 -0.0384455 0.0665269 0.0230803 -0.0364792 0.0485415 0.0727103 -0.0529965 0.0596313 -0.0203608 -0.0371969 0.0813637 -0.00612969 0.096621 0.0945768 0.0251646 0.0855179 0.0464216 0.0652366 0.0848066 0.0941689 0.0147763 -0.0181612 -0.0222842 0.0333176 0.0798573 0.0848527 -0.0604894 -0.0395849 -0.0477714 0.102956 -0.0593651 -0.0365398 -0.0742676 -0.00435616 0.0274499 -0.0343684 -0.113028 0.0293612 -0.0386197 0.074448 -0.0277143 -0.0768968 -0.104038 0.0592313 0.0898766 -0.068104 0.106319 0.0514457 0.081434 0.0107883 0.0267523 0.0936703 -0.0874084 0.0962507 0.0324599 0.0435591 0.024917 0.0980863 0.0785446 -0.0447338 -0.112607 0.0034396 -0.0788263 -0.0762538 0.0121056 0.0533577 -0.00817171 -0.103823 0.0386254 -0.000110762 -0.0192536 0.0267165 -0.0876209 0.0475651 -0.0739154 -0.0792224 -0.00363667 -0.0979004 -0.0836676 0.0212287 0.0594809 -0.0923614 -0.0869593 -0.104786 -0.00933595 -0.083685 -0.0855308 -0.0822063 -0.0563408 -0.0208654 -0.106017 0.0917847 -0.00196059 0.0926574 0.0511207 0.0362016 0.107081 0.0248895 0.0111447 -0.0672904 -0.0812114 0.0445221 -0.05198 0.0783478 -0.0346657 -0.0487487 0.0245855 0.0608262 0.0160118 -0.103684 -0.0478493 0.0154586 -0.094693 -0.0125312 -0.0134246 0.0661376 0.0465907 0.0348624 -0.00522365 0.00461721 -0.0871462 0.0186128 0.0979361 0.0917898 0.00546185 -0.0589037 0.0136663 0.0895497 -0.0747248 -0.0963733 0.0920376 0.0271798 -0.019887 0.0568107 0.0401338 0.0971029 -0.0827752 -0.0248708 0.0073146 -0.0228626 0.0913745 -0.0078205 0.0140555 -0.00762504 -0.0978921 -0.00135421 -0.10668 0.0746431 0.0111708 0.0805154 0.0907374 0.0577585 0.0935234 0.0745142 -0.0920916 0.0523123 0.0558144 0.0531427 -0.0172189 0.0577393 -0.0899588 -0.0520601 0.109338 0.0145743 0.0224506 -0.0256086 0.0787802 0.0464919 -0.0134124 0.0834201 -0.0446636 -0.0238625 0.0788408 -0.108827 0.100499 0.0799703 0.0916903 0.090106 0.101561 -0.108268 -0.0242555 -0.105179 -0.0157418 -0.0978751 -0.0622501 0.0726115 0.099956 -0.0951191 -0.052334 -0.0511147 -0.0807001 -0.0372043 -0.0777477 0.0554668 0.0825508 0.0447324 0.0984994 0.108657 -0.0797875 -0.0230593 -0.0619287 0.0822572 0.0390539 0.0269592 0.0890903 -0.0901062 0.0897921 0.092186 -0.00178232 0.00893055 -0.0177056 0.100471 -0.0702095 0.0246703 0.0788792 -0.0573709 0.0700654 -0.102982 -0.013615 -0.0932727 0.0888288 0.107381 -0.0864496 -0.00758983 0.0441951 0.080303 0.0704656 0.0111465 -0.104873 -0.0631961 -0.00185862 0.0969132 -0.0339666 0.0861469 0.0846835 0.0924011 -0.0863166 0.0513929 0.114082 -0.0846808 0.0317744 -0.0233488 0.099414 -0.0181275 -0.0477103 0.0720143 -0.0385861 -0.0785986 -0.0990243 0.0150009 -0.109188 -0.0131737 -0.0245531 0.0120113 -0.108707 -0.00949009 -0.00148534 0.0456238 0.00719944 0.0466086 0.0750956 -0.092323 -0.063374 -0.0407527 -0.0649133 -0.100873 0.014917 -0.0789448 -0.070894 -0.0608118 0.0163723 -0.107368 -0.0994259 -0.0112239 0.0599624 -0.0963517 -0.0579324 -0.068934 -0.00939891 -0.00643322 -0.0230776 -0.0381403 -0.0878288 0.111005 0.0259623 0.124254 -0.0188998 -0.0789763 0.0594413 0.129684 0.0435912 0.134734 -0.0516515 0.0513626 0.0478723 0.0688193 0.108549 0.0604119 0.12004 0.0336749 0.0615818 0.0364638 -0.0380753 -0.092308 0.0140287 -0.0293036 -0.0839046 0.00849203 -0.029693 -0.083075 -0.000246422 -0.0924879 -0.0149015 0.0792089 -0.0345213 0.00957649 -0.0244026 0.0611799 0.080449 -0.0697379 -0.0522089 0.0906921 0.0373825 0.0460772 -0.0273404 -0.0140734 0.0197087 0.0772645 -0.00305607 -0.0681607 -0.0610133 0.00313593 -0.093858 -0.0013577 -0.0908691 -0.0951852 0.0398902 0.0574222 -0.105131 0.0221513 -0.130446 0.017495 0.0452073 -0.0461438 -0.0964693 0.0516474 0.0243344 -0.0466508 -0.0488515 -0.0565647 -0.0185466 -0.00892709 -0.000715677 0.116034 -0.0698209 0.0972813 -0.081378 0.114025 0.0767235 -0.0842712 0.058502 0.0730397 -0.0358446 -0.0309243 0.0225597 -0.091059 -0.0652175 -0.15978 0.028609 -0.0952879 -0.111165 -0.0270821 -0.0850885 -0.00827325 -0.058222 0.0158545 0.0986343 -0.100113 -0.0370985 -0.0990166 -0.0126833 -0.0819679 -0.0238875 0.0324808 0.1128 0.0421976 -0.0680265 -0.02319 -0.0205485 -0.058333 -0.0179413 -0.115575 -0.119218 0.0448128 -0.142092 -0.0813166 -0.00714504 0.0287495 -0.165284 -0.0931482 -0.131941 -0.0647104 0.00802707 -0.00316417 -0.0981561 0.0143174 -0.0842523 -0.0334807 0.0616209 -0.0282621 0.022001 0.0619716 0.0372857 0.101163 0.0804871 0.0116187 -0.0463652 -0.102427 -0.0430835 0.112678 0.00269081 -0.109183 -0.0384472 0.0514862 -0.128045 -0.0264828 -0.175338 -0.0793144 -0.0565137 -0.0872076 0.01961 -0.0811967 0.0278854 -0.0258952 0.0679016 -0.120547 -0.0534696 0.114434 0.0476358 -0.00134623 -0.0517366 -0.0169806 -0.0744172 0.0991371 0.0902062 0.069738 0.0369936 0.0812238 -0.0385249 0.0850293 0.0251234 0.00775188 0.0313887 -0.14758 -0.052691 -0.0191304 -0.0702639 -0.108315 0.0221165 -0.0310329 -0.0264419 0.034833 0.0194007 -0.14494 0.0717378 0.0724061 0.0895638 -0.0179057 -0.00990075 0.120144 -0.0564698 0.0377456 -0.082359 0.107865 0.0138805 0.0288317 0.0149423 -0.0950054 0.0536452 -0.0799289 -0.101237 0.064682 -0.0928174 -0.11881 -0.0397577 0.0143417 -0.148049 -0.0469553 0.0105809 -0.0106527 -0.0774346 -0.118475 0.0269301 0.0545732 -0.0193372 -0.0735981 -0.0476186 0.11705 -0.0213751 0.134633 0.0684147 -0.0531651 0.0608187 0.0419032 0.0940909 0.0149487 0.0103658 0.0108227 -0.104756 -0.0483494 0.0197793 -0.0520948 -0.0517339 0.0848272 0.0282144 0.0257311 0.0701842 -0.0257934 -0.0816068 0.0402334 -0.0320349 0.0490761 -0.0656512 -0.115845 0.00392602 0.0833697 0.0520904 0.0175712 0.0843478 0.00377949 0.0261149 -0.023156 0.107615 0.0860239 -0.0171371 -0.00592644 -0.0373172 -0.0714423 -0.0678339 -0.0632962 0.118409 0.0910982 -0.0841908 -0.0449696 0.0696916 0.0126359 -0.100888 0.0923145 -0.0743859 0.0314735 -0.0434069 -0.0570705 -0.0550249 -0.0164974 0.072132 0.0657396 -0.0233568 0.122863 0.0932436 0.120949 -0.0169669 -0.0165203 -0.0883614 -0.0833689 -0.0301196 -0.0326086 -0.0574921 -0.0436575 0.000214799 -0.0616645 -0.0597825 -0.0854175 0.0148726 -0.0391114 -0.0137184 0.0674306 0.0389945 -0.0722622 -0.0350711 -0.0726217 0.0805045 -0.0729331 0.0914761 -0.0415049 0.0391698 -0.0686912 0.0403578 -0.0122856 0.0482307 0.0476155 -0.0699548 -0.0281401 -0.0908368 0.0231691 0.0577148 0.00234015 -0.0881364 0.0631561 0.0476386 -0.00280482 -0.0328979 0.00544348 -0.0821413 -0.00824999 0.0897072 0.0545769 0.0241039 0.0708193 -0.0210489 0.0575217 0.110345 -0.0846745 -0.0664028 0.0234418 0.0226945 0.0541249 0.000539289 -0.0708624 -0.00198395 -0.0511112 -0.0441652 0.0501868 0.0465232 0.0819463 0.0170423 -0.0752772 -0.000565671 0.0184858 0.0748423 -0.0620021 -0.001212 0.0769032 -0.10428 0.105152 -0.101863 -0.0323364 0.0747402 0.0899976 0.000768365 0.0891068 -0.0628152 -0.0956758 -0.00356402 -0.0991274 -0.00940488 0.0689689 0.0522809 0.0295905 0.106339 0.0101305 -0.0523397 -0.0386716 0.0943521 -0.124489 -0.0530848 -0.120993 -0.00785716 -0.0708432 -0.02116 0.0797105 0.0975631 -0.00881634 0.0730321 0.116543 0.0783301 0.108165 0.0204929 -0.078025 -0.0667085 -0.00903115 -0.0780288 0.116773 -0.0166276 0.0578541 -0.014091 0.0308756 0.0169482 0.0650315 0.0957935 0.0898677 0.0593538 -0.0212935 -0.0444771 0.077873 0.0365107 0.0401145 -0.0329535 0.0795373 0.0243654 -0.0903454 0.0750151 -0.0146694 -0.0200169 -0.0629814 0.0706136 0.00816817 -0.0363891 0.110825 -0.0252913 -0.0607284 0.116472 0.0501475 -0.0733527 0.0501699 -0.0199451 -0.0428749 -0.108298 -0.00487362 0.0389759 -0.0239951 0.024078 -0.114469 0.0274887 0.0536219 -0.0538574 0.0652648 -0.00167376 -0.0867314 -0.124615 0.0916243 0.0948574 -0.0826939 -0.0241788 0.116672 0.00286781 0.102465 0.124648 0.131787 -4.96865e-05 0.134601 0.0822035 -0.0165555 0.109529 0.0227239 -0.0440729 -0.0507598 -0.0725109 0.0312341 0.0941947 0.107482 0.0386775 -0.104764 -0.062087 -0.0547513 -0.0667296 -0.0167101 0.0456681 -0.0324802 -0.0477137 -0.0215815 0.0136961 0.0122424 0.0356953 0.109755 -0.0563048 0.128058 -0.0339933 0.0044205 -0.015455 0.0938734 -0.0367015 0.0572095 0.00354935 0.00320159 0.0285652 0.0441601 0.0379304 -0.0231051 -0.0836831 0.117645 0.121255 -0.0230852 -0.0534172 -0.0376761 -0.0895986 -0.0140749 -0.00896923 0.00189201 -0.0402612 -0.0929746 0.0529208 0.0511029 0.0614699 0.109818 0.0840105 0.0673369 -0.0648942 0.0853682 -0.0466004 0.0993594 0.106663 -0.0353213 0.0485818 0.160477 0.0223422 0.0292507 0.011764 0.094253 0.00611505 0.00995906 -0.02617 -0.0708274 0.113685 0.029442 0.0363712 -0.106372 0.0154627 -0.0440527 0.0212272 -0.0933598 0.100683 0.114977 -0.0510796 0.0616422 0.031925 0.0903333 0.0289773 0.120111 0.0516816 0.0268689 0.0763864 0.148988 -0.00160076 0.0335895 -0.0264989 0.115388 0.134491 -0.0841868 -0.0363691 0.0990726 0.00108597 0.0787875 -0.0373657 -0.077323 0.0770829 -0.105551 -0.0903571 -0.121293 -0.100438 0.0254303 -0.0969496 0.100261 -0.0594613 -0.0104168 0.0305257 0.0758921 0.0721936 -0.0466524 0.00816675 0.150219 0.128431 -0.0220489 0.134821 0.134812 -0.0747526 0.110909 0.0800714 -0.0661942 -0.0249784 0.0634645 -0.0448786 -0.0459904 -0.0533996 0.0515852 0.00307282 0.0615732 -0.00390581 -0.0563697 0.0798743 0.0709812 0.0727813 -0.0802777 0.0878032 0.0661944 0.0473751 0.0634092 0.0396619 0.0551362 0.0568962 -0.0287535 0.00444669 0.124369 0.065647 0.0401973 -0.0695896 -0.0528992 -0.0654479 0.0827956 0.117519 0.0997217 0.0617309 0.033397 -0.00208998 -0.0198864 0.0222651 0.00333805 0.116771 -0.0762073 -0.00758945 -0.056656 -0.0256844 0.0872773 0.00434034 0.0988516 0.129112 0.109428 -0.0616246 0.0132191 0.060579 0.0388862 0.113637 0.135346 0.0398789 -0.0668234 0.0663494 -0.019876 0.0916415 0.034825 0.125337 -0.0108093 -0.074852 0.00646858 -0.0677632 0.055397 -0.00304577 0.0977872 -0.0129116 0.0234201 0.00534404 0.0788203 -0.0240227 -0.0182214 -0.0781158 0.0690616 0.00607149 0.00328468 0.0734356 0.0216024 -0.0831179 0.050704 0.140004 -0.00985745 -0.0648774 -0.0255638 0.107686 0.057664 0.0132852 0.0854397 -0.0696717 0.109293 0.111925 0.0592362 0.0795395 0.0508979 0.0167814 -0.0705488 -0.0370019 0.0303264 -0.0133333 0.0849636 0.0853896 0.0130799 0.118857 0.0456151 -0.0738305 -0.0617016 -0.03147 0.109657 0.0995098 0.0835649 -0.0139312 -0.0251528 0.104695 0.0596823 -0.0505649 0.0754931 0.0660202 0.0331418 -0.0354085 -0.0215102 0.0847738 -0.0274577 0.112088 -0.0339145 -0.0434152 0.00325064 -0.0848 -0.0976182 -0.0452575 0.0963744 0.074374 -0.0298004 0.0283087 -0.107874 0.0225857 0.00650386 -0.0116083 0.0902901 -0.0809742 0.081475 -0.0809872 0.0932037 0.0377001 0.0353313 0.0340523 -0.10082 0.0218256 0.0213046 -0.074531 -0.0257757 0.0244581 -0.0995755 -0.0194855 0.0334681 0.0551921 -0.00984326 0.0576618 0.0767599 0.0365253 -0.0589157 0.0425741 -0.0603607 -0.103735 -0.0119847 -0.0954839 -0.0686701 0.0377683 -0.00213626 0.00405327 0.078945 -0.00507395 0.0535104 -0.110236 -0.074634 0.068484 -0.141306 -0.0962595 -0.00362894 -0.0906356 -0.0944267 0.0805917 -0.0124954 0.042651 -0.028827 0.106455 0.0724289 0.0481542 -0.0292276 -0.0505925 -0.0369459 0.052668 -0.072038 -0.0117545 0.0464207 0.0905284 0.0249974 -0.0176571 0.0165546 -0.106439 0.0400411 0.0581341 0.0363881 0.0405112 -0.0607611 -0.00132951 -0.0179151 -0.136858 0.0132641 -0.0920873 -0.0236139 -0.0101403 -0.068896 0.032616 0.0251148 0.0341774 -0.0245946 -0.0116894 0.0696928 -0.0543388 -0.0343104 0.0258757 -0.038902 -0.0416634 0.0527976 0.0296231 -0.110597 0.0841354 -0.108931 0.0721979 0.00544136 -0.081379 -0.0611158 0.0696926 0.0292979 -0.13798 0.0409482 -0.116518 0.0712261 -0.0544553 0.0424249 -0.0765058 -0.119055 0.0812566 0.0475608 -0.058909 0.0833728 0.0372543 0.0770997 -0.090532 -0.117116 0.0341059 0.0714823 0.0138915 0.0157186 -0.0122291 -0.00887313 -0.0582101 0.0060978 -0.0411125 -0.0193143 0.0119717 -0.0734938 0.0435886 -0.093155 -0.0756837 -0.0326266 0.00332294 -0.0611247 -0.0196841 -0.0117498 0.0222005 0.102238 0.00229814 -0.102874 -0.10323 -0.0664858 -0.0208469 0.0243237 -0.108317 -0.0404157 0.0682384 -0.0408432 0.0445278 -0.115864 -0.124054 -0.0264375 -0.020544 0.0257785 -0.102207 0.0380285 0.0371244 0.0609623 -0.0693066 -0.112904 -0.0127743 -0.0519103 -0.0482759 -0.012007 -0.0606697 -0.0595341 -0.0162071 0.072751 -0.0410971 -0.0943142 0.0213113 -0.095464 -0.0846578 -0.0233425 -0.124795 0.0792878 -0.0505429 0.0782767 0.0248253 -0.0808218 -0.0288661 -0.026619 0.0715682 0.101361 0.0822243 0.0576554 0.125267 0.0197335 0.0955941 -0.0654993 -0.00262406 -0.0535374 0.00359923 -0.0147154 0.0217373 -0.0452276 -0.0300744 -0.0537602 -0.128491 -0.036209 -0.000966325 0.0707425 -0.0264633 0.0533505 0.00460166 0.03125 0.0855906 -0.0670018 0.0887501 -0.00463773 -0.0692981 0.0225206 -0.0722015 -0.010594 0.00424516 -0.0369318 0.0671772 0.00423579 0.0495447 0.0315293 0.0924147 0.087258 0.00353101 -0.0572438 -0.0907779 -0.0963483 -0.0159309 -0.106088 0.0805034 -0.131059 -0.103219 0.0977895 0.104442 -0.0612734 -0.124008 -0.0450968 0.0100899 0.0156178 0.0716821 -0.0316647 -0.0399208 0.00749585 -0.0529302 0.104321 0.122406 0.091741 0.0121375 0.106169 0.00893326 0.0483652 -0.00149715 -0.0960226 -0.0475276 0.0681729 -0.0199226 -0.0356552 -0.00993596 0.0322722 -0.130632 0.0202387 0.0592562 0.00968957 -0.0850008 0.0271812 0.00675149 -0.0123563 -0.0789243 -0.0529005 0.00540558 0.0448796 0.00893439 0.0504276 -0.0214135 -0.0577778 0.00905025 -0.0287641 -0.00202765 -0.0347522 -0.0704405 0.0421307 0.00577127 0.00787051 0.0579799 0.126961 0.0889336 -0.0156585 0.0850108 -0.106901 0.0675139 -0.0866869 -0.0946638 0.00966736 0.0369927 -0.0161572 -0.0572998 -0.108588 0.0182136 0.0739337 0.0697978 0.0394631 0.0183332 0.0515488 -0.0734905 0.104515 0.0682618 0.0178255 -0.0461241 -0.0300165 0.0658875 0.0288408 0.00648291 0.0243541 0.00207729 -0.00964267 -0.0918663 -0.109095 0.080966 -0.0174187 -0.143313 -0.0143646 -0.133911 0.0646483 -0.107082 -0.125052 -0.0646866 0.0482734 -0.0163768 -0.11258 -0.0947609 0.118177 0.00655122 -0.0910921 0.0902659 0.063801 0.0225525 0.0174797 0.00998994 0.0318531 0.103688 0.0106034 -0.0844182 0.114619 0.0673545 0.0316939 -0.102056 -0.0493405 0.038021 -0.061748 0.0527916 0.0590858 -0.070424 -0.0950634 -0.102711 -0.0790043 0.00223151 -0.107779 -0.127498 -0.130421 -0.0176961 -0.103536 0.0921909 0.112323 0.113545 0.0422033 0.0640346 -0.0821123 0.122202 -0.0568339 -0.0368738 -0.0832054 0.120288 -0.0949543 -0.0376965 0.0448893 0.00772584 0.0424032 0.0177307 -0.113441 -0.0774678 -0.130743 -0.0880232 -0.0270475 0.0630321 -0.111106 -0.113119 -0.0321371 -0.0585224 -0.0316794 -0.137903 0.0712459 -0.0805998 -0.083104 -0.0806576 -0.0726623 -0.0172132 0.106468 -0.0507588 0.124921 -0.0116502 0.0277396 0.0998203 0.122249 -0.0727021 -0.115667 0.0220689 -0.059855 -0.0490254 -0.0668631 -0.102498 -0.145859 0.0131126 -0.00750366 0.0380552 -0.062327 -0.045315 -0.160636 -0.158866 -0.160869 -0.113093 -0.0379074 -0.0643077 0.076137 0.0777424 0.0290883 -0.0536701 0.0638302 -0.040693 0.0093359 0.113085 -0.0233828 -0.0208223 0.0412037 -0.0832484 -0.0574558 -0.0436277 0.0142488 0.0146215 -0.125541 0.0587459 -0.11336 -0.00792396 -0.0187285 -0.0065278 -0.0981527 0.0335593 -0.0932705 0.045683 -0.046151 -0.016798 -0.0901079 -0.164104 -0.0721343 -0.019611 -0.0138709 -0.0381705 -0.0521751 0.0237688 -0.0817807 -0.0214194 0.123679 0.125165 0.0262378 0.0327909 -0.01524 -0.0936567 -0.0315821 0.0514629 0.04942 0.0724685 0.0146295 -0.114535 -0.120309 -0.0666345 -0.00630864 0.0183581 -0.000838999 0.00639624 -0.0121416 0.0123589 0.0161434 -0.125248 -0.0751004 -0.0985857 0.0469247 -0.0579223 -0.0120668 0.0827656 0.021967 -0.0533657 0.00554266 0.0820512 0.102844 -0.0729287 -0.104153 0.0236213 0.0443777 -0.00454068 -0.00916846 -0.0748009 0.0697266 0.0794238 0.0494497 0.072222 -0.0959097 -0.0735594 0.0187754 -0.03091 -0.107622 -0.0260002 -0.0371409 -0.126529 -0.0110201 -0.116566 0.0973946 0.0944773 -0.0555604 -0.00763268 -0.0262819 0.0796214 0.0118563 0.0267632 0.0771138 0.0892257 0.0269887 0.0505052 0.093275 -0.0667476 0.018176 0.0101939 0.078411 -0.0575065 0.0688331 -0.0866029 -0.0800137 -0.0239246 -0.103683 -0.0241342 0.0204838 -0.0579747 -0.0213686 0.0321015 0.0734091 -0.0444263 -0.0845215 0.085499 0.0710541 0.10959 -0.000355625 -0.0559402 0.137632 0.0504172 -0.013498 -0.048399 -0.0134585 0.121512 0.0408235 -0.0189007 0.110598 0.0312375 -0.0455778 -0.00990693 -0.0977216 -0.00130437 0.0583554 -0.0343889 0.0432679 -0.132366 -0.0716859 -0.0068536 -0.0044036 -0.0200821 -0.0368875 0.0779496 0.0633343 -0.063691 0.118226 0.0834169 0.0395143 0.0206118 0.0724562 0.0273676 -0.0471165 -0.00569665 0.066167 0.0871876 0.128459 0.093449 -0.00552893 -0.0835439 -0.0565133 0.105784 -0.0540713 -0.0799118 -0.00290553 -0.0994054 -0.0703209 0.107242 -0.0777023 -0.05949 0.0283876 -0.03997 -0.0714451 0.127965 0.0360974 0.0546632 -0.0885672 -0.0912057 0.102286 0.000846257 0.0664178 0.102824 -0.0247075 0.0581538 0.0912717 0.0399749 0.0895876 -0.0764846 0.0826044 -0.0489483 -0.0667035 -0.0459203 -0.0548175 0.055749 0.113216 0.00591411 0.0884026 0.0293358 0.11741 0.113446 -0.0584052 -0.0172745 -0.0801984 0.0117915 -0.0182821 -0.0339775 0.102402 -0.0819524 -0.0562347 0.0483759 0.0474672 0.0684662 0.0482535 -0.0115293 0.0910442 0.0852512 -0.00765006 0.116246 -0.0540996 -0.0700046 0.0558098 -0.00166538 -0.0343846 -0.048896 0.0372914 0.14631 -0.0102874 0.0444323 -0.0178781 -0.0186271 -0.0509552 0.0910342 0.023582 -0.0713996 0.0117315 -0.0912191 0.00556949 -0.0957452 0.0220689 -0.0891552 -0.0421399 -0.0536465 0.10913 0.10061 -0.0721685 -0.00228415 0.0186374 -0.0564421 0.0484357 0.0631538 -0.11556 0.0697294 0.0880544 0.0364556 0.0707801 0.0665522 0.0208547 0.133013 -0.0523093 0.077536 -0.0122417 0.101055 -0.0419105 0.095667 0.0488769 -0.0600887 0.093932 0.0271789 0.0831968 -0.103383 -0.0580332 -0.103605 -0.0809049 0.0209244 -0.0703588 0.0292974 0.00631821 -0.0793452 0.0260178 0.0419643 0.00949388 -0.0206456 0.00342501 -0.0859089 0.0217444 0.0517839 0.0218986 -0.0152825 0.11717 0.0508293 -0.0738306 0.103814 0.0594496 -0.0602861 0.00264237 -0.122522 -0.030314 0.0567973 -0.0284682 -0.00132229 0.022975 -0.0892535 0.0167218 -0.0730356 0.0501147 0.106659 -0.0393139 -0.0611792 -0.063683 -0.082442 0.0341778 -0.0852961 -0.102007 -0.116702 0.0459289 0.0304467 -0.0400051 -0.0438225 0.0484264 0.107769 -0.0434116 0.0491341 -0.0833576 -0.0571334 0.0336467 0.0497201 -0.0779188 -0.158447 -0.0331597 -0.0201845 0.0445091 -0.128309 -0.0579613 0.0643334 0.00214407 -0.0501141 0.0274452 0.00677555 -0.098738 0.0325354 -0.0312673 -0.0751537 -0.106618 -0.0923602 -0.0178431 -0.0841078 -0.055437 0.115586 0.0253921 -0.000124836 -0.0725957 0.0290718 0.0570014 0.0484819 -0.135502 -0.0448495 -0.086584 0.028201 0.0229468 -0.16097 -0.136491 -0.115849 -0.025534 -0.0886442 -0.0567589 -0.00543761 -0.0605371 0.0102004 -0.0621858 -0.12109 -0.0833102 -0.0148737 -0.0899851 -0.0920733 -0.0217134 0.0593319 0.0958957 0.00749296 -0.0701652 -0.109135 -0.0920212 -0.103842 -0.0930754 0.0273504 0.0157643 -0.134201 0.00809977 -0.0936265 0.0140551 -0.113857 -0.0679709 -0.0896448 -0.102013 -0.0269102 -0.00696916 0.0434715 0.0671186 -0.0849838 -0.125654 -0.121063 -0.0306975 0.0691315 -0.0152448 -0.0330904 -0.0383669 0.074578 0.0994375 -0.0720418 0.0853732 0.0394907 0.0361538 -0.00885912 -0.0525779 0.0565413 -0.00140505 0.0734057 -0.107151 0.0164291 0.065368 -0.0194039 -0.0895557 -0.0954056 -0.062343 -0.0435746 0.0785937 0.0384146 -0.0321875 -0.0808956 0.0829571 -0.0130803 -0.0774955 0.0492058 -0.0570721 0.048459 0.0165856 0.0850493 -0.0740749 0.096194 0.0843527 -0.0354491 0.0614883 0.0665507 0.021197 -0.0244733 0.0712661 -0.0361357 0.000371979 -0.0624902 0.029843 -0.0916235 -0.0557932 0.0920829 -0.0078184 0.0492913 0.119427 -0.0956428 -0.0400047 0.0697183 0.031015 0.0915558 -0.0759254 0.0618288 -0.0413941 0.049507 0.0617676 0.0666965 0.0461318 -0.0621481 -0.00168906 -0.0157783 -0.113859 -0.0127018 -0.0781573 0.0971534 -0.111974 -0.110656 0.0385597 0.116959 -0.0684025 0.0696671 -0.0421548 0.0784199 -0.0256556 0.016718 0.0578458 -0.00585672 0.046678 0.0915642 0.0793907 -0.0592098 -0.0354402 -0.0451676 -0.0677543 -0.014115 0.0144038 0.0747964 0.0424113 0.110618 -0.0706758 0.0775437 0.0956159 0.0337459 0.00989208 -0.0676465 0.0894099 0.0351732 0.100506 -0.0294476 0.0564327 0.0689966 0.125361 0.17419 0.0388414 0.19146 0.00445398 0.0281741 -0.075381 0.10947 0.0600429 -0.0754639 -0.0093052 0.0555971 -0.0392649 0.0319952 0.0312605 -0.0754974 0.000745064 0.0320921 -0.093734 -0.0353992 0.0842203 0.0761596 0.111636 -0.0870756 -0.0751179 -0.0693274 -0.0226532 0.0722052 0.147949 0.158048 0.0314267 0.0148609 0.172712 0.0734391 0.165694 0.0480173 -0.050779 0.0728227 0.106216 -0.0460719 -0.0669849 0.0811771 0.0788729 -0.0579527 -0.0925349 -0.0318503 0.0298926 0.0230531 -0.0955628 -0.0570494 -0.0580657 0.0298213 -0.000998128 -0.0470827 0.121681 -0.0033914 -0.0134004 -0.0357206 -0.00185661 -0.0291665 0.162581 -0.0126125 -0.00507694 0.0960327 -0.0265596 0.0211669 0.108778 0.150278 -0.00204725 0.108174 0.0196089 0.0869006 -0.0366908 0.0820551 -0.0160348 -0.0654781 -0.0366914 0.0205473 0.00221982 0.114794 0.0871435 0.074285 -0.00195257 -0.0273983 0.0369701 0.0939624 0.0365732 0.126587 0.0361787 0.0983923 0.0174552 0.0494826 0.0603562 -0.0110456 0.0387898 0.08435 0.123962 0.115619 -0.0546335 -0.0473684 -0.015552 0.12247 -0.0608966 -0.0275586 -0.0564676 -0.034442 0.117691 -0.0191994 -0.036111 0.0673202 0.0567274 0.00459135 -0.0209502 -0.058392 0.124689 0.0353838 0.058061 0.109451 0.141758 0.110819 0.0207642 0.123398 -0.0289264 0.159113 0.086036 -0.00449286 0.0794344 0.0792556 0.134131 -0.0156466 -0.0197387 0.0252348 0.103029 -0.0166424 0.0584607 0.0441152 -0.0273315 0.0673268 -0.102081 -0.0622032 -0.0836378 -0.00530279 0.0594205 0.0152579 0.0143925 -0.0692944 0.107738 -0.0556116 0.112026 0.055003 -0.086938 -0.00131137 0.0533476 0.000698139 0.117561 0.0876665 -0.0260976 0.0646411 0.0213652 0.098922 0.12635 0.0392332 0.0908311 -0.0479137 0.0875723 -0.0279572 0.0168454 0.0408533 -0.0378152 0.0792365 -0.0279476 -0.112315 0.0691459 -0.0513978 0.0103691 -0.0324298 -0.0254357 -0.0943288 -0.0740877 -0.0771332 0.0558928 -0.0846545 -0.0122311 -0.0699639 0.0453676 0.0295701 0.0914725 -0.0202399 0.0303392 0.0288673 0.0920097 -0.0396657 0.0949595 0.0855311 0.0781264 -0.0780302 -0.0654757 -0.0849723 0.0645072 -0.0148573 -0.0653024 0.0621779 0.00982828 -0.00425805 -0.0130265 0.0470223 -0.0394495 -0.055416 0.0637282 0.0600854 -0.0190665 -0.0189577 -0.0304808 -0.0651748 -0.0107872 -0.0197798 0.0306937 -0.0748597 -0.0563379 0.0501932 -0.0642237 0.024927 0.0451014 0.0418565 0.111534 -0.0156034 -0.0510935 -0.104997 -0.0947004 0.00520396 -0.0251984 -0.093437 0.0257173 0.0998012 0.0791474 0.0682287 0.133731 0.0707439 -0.0184308 0.0546372 -0.0712065 0.00337528 0.00771776 -0.0474053 0.0220811 -0.0172242 0.0412466 0.0829854 0.135288 0.100202 -0.0509523 0.125645 -0.0682187 0.0582731 -0.00594399 0.0126218 0.0463092 -0.0457142 -0.0517 0.00823218 0.0346266 -0.0933241 0.0767882 0.0903409 -0.0352812 0.14074 0.151202 -0.0169843 0.12447 0.123407 -0.0627691 -0.0651641 0.14387 -0.048208 0.0674871 -0.0392574 0.0824478 -0.0855378 0.0326587 -0.040445 -0.0659878 -0.0693866 0.0818991 0.117985 -0.00571541 -0.0524546 0.0485262 -0.125789 0.0450487 -0.0712559 0.0907572 0.0226019 0.0915093 0.11593 0.129626 -0.0719148 -0.0470486 0.0498299 0.0842779 0.0955109 0.110923 -0.0563319 0.0623407 0.0174427 -0.00904271 0.0890893 0.110372 0.116286 -0.0521994 0.09331 0.0105238 -0.092688 -0.0980915 -0.0148273 -0.0175144 0.00236212 -0.00302203 0.0716507 0.0527833 0.0195255 0.00781717 0.1103 0.110523 -0.0483136 -0.0425613 0.0851964 0.103129 0.0491574 0.00544785 0.0782293 0.123113 -0.00796344 0.0878831 -0.0557084 -0.0698786 0.0447836 -0.0100397 0.00220564 0.0679813 0.0354297 0.0358341 0.0397322 -0.0256057 -0.114152 -0.0514746 0.0223769 0.099232 -0.110404 -0.114933 0.0184026 -0.00864943 0.11363 0.00329777 0.128401 0.075288 0.0187817 0.153652 0.140829 0.0978685 0.0966451 0.120688 -0.0357293 -0.0705526 0.0685185 0.0646456 0.0720648 -0.0424301 -0.0597593 -0.0216794 -0.0602241 -0.154162 -0.0538153 -0.0786223 -0.0308597 -0.107817 0.013736 -0.0599581 0.0956023 -0.0497228 0.0567693 0.113118 -0.0815475 0.111236 0.14286 0.0735016 -0.040598 0.0605777 -0.0178698 -0.0118759 0.0947471 -0.0737347 -0.0374916 -0.0374162 -0.0146264 0.102345 0.0518971 0.036879 0.0501513 0.0394462 0.0230284 -0.000981927 -0.105169 -0.136081 -0.00108133 -0.0917618 0.055838 -0.0951056 -0.0179084 0.0725834 0.00760511 -0.0063624 -0.0417113 0.120056 -0.0259315 0.0388413 -0.0220441 0.0459555 0.00837584 0.0890879 0.0668787 -0.0264456 0.124399 -0.0864968 -0.0450938 0.0577837 0.115652 -0.0292539 -0.0860735 0.0322767 -0.0379459 -0.0865901 -0.133714 0.0597998 0.0388489 0.0701146 -0.0623212 0.0561824 0.0114505 -0.0547297 0.0476894 0.0235457 -0.0912737 0.0557047 0.0803906 0.121277 0.087912 0.106404 -0.00138807 0.0149597 0.0533004 -0.0533725 0.0338197 -0.0537342 0.119144 0.0167857 -0.0724633 0.0381633 0.033811 -0.114327 -0.0777745 -0.105483 -0.0461679 0.0524656 -0.137371 -0.0607239 -0.0765692 0.0180911 -0.0917424 0.0819082 0.00488435 0.095229 0.0652386 0.0695546 0.0178456 -0.0141888 0.143344 -0.0539788 -0.00258363 0.0812718 -0.0735828 0.064294 -0.0147895 0.043574 0.097729 0.0882471 0.0482082 0.0427428 -0.0225084 0.0188801 -0.0947384 0.0140532 -0.14232 0.0296115 -0.129777 -0.018311 0.00220637 -0.0311547 -0.0804225 -0.0756948 0.0432261 0.00921711 -0.0399435 -0.00182541 0.136009 0.0183701 -0.0705047 0.09517 0.0474821 0.0965302 -0.0143884 -0.0559154 0.132079 0.0329731 0.0731087 0.0730827 -0.0604723 -0.0451758 -0.0125301 0.027489 0.0268369 -0.1048 -0.113247 -0.0587597 -0.117157 -0.0856937 -0.0415046 -0.0491077 0.00642525 0.0252366 -0.0425612 -0.0266635 -0.0491006 -0.0711489 0.0494644 -0.070045 -0.0345608 0.0484902 0.0735255 0.000653125 0.0746843 0.0752813 0.0787527 0.00520641 -0.0420433 0.0543434 -0.0508715 -0.0608678 -0.0293355 -0.0925522 -0.0576316 0.0482417 0.030858 0.0256185 0.0418297 0.074321 -0.0549452 -0.0709993 -0.0577793 0.0163178 -0.0191064 -0.0382027 0.120771 0.130376 0.134622 0.0216344 0.0147246 -0.0650705 0.0797898 0.119814 0.156437 0.0332452 0.0259625 0.049959 0.117335 0.0217077 -0.0742487 -0.0710225 0.083342 0.0696254 0.0428106 -0.0963679 -0.100369 0.05803 0.0553965 -0.108665 -0.104768 -0.032803 -0.0871719 -0.0781529 0.00344203 0.0861642 0.0225579 0.0872428 0.092621 -0.0251675 -0.0595816 0.00375297 0.135923 0.122347 0.0641644 0.0953057 0.0562131 0.0829503 0.123677 0.101564 0.0574028 0.087372 0.0944623 0.0258832 -0.0833668 -0.00775441 -0.0847803 -0.0838572 0.0369428 0.0276731 -0.0123275 -0.027544 -0.0032589 -0.123314 -0.0378511 0.0877519 0.0750637 0.064176 0.0571885 -0.0904927 -0.0341692 -0.0664256 -0.0705919 0.0867377 -0.0655163 0.104575 -0.051357 -0.0733534 -0.0505201 -0.041578 -0.0769335 0.0624368 0.00403303 0.0146681 0.0436194 0.0143694 -0.0388812 0.044283 -0.0854498 -0.129617 -0.105969 -0.0423017 0.0558044 0.0644601 0.0215936 -0.0101805 0.0222721 0.100474 -0.120493 -0.0705703 -0.00707778 -0.0616125 -0.0931663 0.0561921 0.104321 0.113178 0.0161336 -0.0191595 -0.0690866 0.105063 -0.0777653 -0.0132474 0.0968424 -0.0205483 0.0747679 -0.0753582 0.00258164 0.0208019 -0.0339736 -0.10975 -0.0513305 -0.123084 -0.0653504 -0.040941 0.0643181 0.0026058 -0.0792865 -0.0202966 -0.0100409 0.0606863 0.0193711 -0.0275596 -0.0399022 -0.0783415 -0.0795883 -0.0970436 0.0245588 0.0630639 -0.00678712 0.0978205 -0.100057 -0.0425365 -0.0294465 -0.00433697 0.0372894 0.0184234 -0.0341928 0.000473704 -0.00699214 -0.0174314 -0.0691411 -0.0557943 -0.106687 -0.0268463 0.0822441 -0.043175 0.0285674 0.0693512 0.00594265 -0.0584548 0.0271762 -0.0716056 0.0603857 -0.0474147 0.00699532 0.0340061 0.0028814 -0.0819686 -0.0975281 0.0801905 -0.0427676 0.0987391 0.116836 0.00143426 -0.115486 0.011557 0.0264624 -0.11006 -0.122871 -0.0172313 0.0827325 -0.132819 0.0214286 -0.0093674 -0.10829 -0.0599038 0.0196279 -0.0589401 -0.0748245 -0.0827781 -0.111876 0.0778895 0.0514267 0.0802669 -0.0596006 -0.0237589 -0.0343738 -0.0161655 -0.0846918 -0.0194383 0.0890926 -0.056063 0.0421099 -0.0899643 -0.0331816 -0.123482 0.0243034 -0.00426204 -0.0592078 -0.101345 -0.00533214 0.0592001 0.0277294 0.0536911 0.0107034 0.0070395 -0.0969328 -0.00114574 0.0369219 -0.00785697 0.00111941 0.0524728 -0.0463417 -0.048146 -0.0347465 0.0538262 0.01899 -0.0557447 -0.0944711 -0.0116688 0.0628443 -0.0930682 0.0789198 0.0761832 -0.0516716 0.0943524 -0.0810155 0.0523326 0.0619815 -0.0960638 0.00601468 -0.131826 -0.116129 0.0376288 -0.055551 0.0809789 -0.0242771 0.0568107 -0.0866409 -0.00410685 -0.0101507 -0.0536972 -5.26209e-05 -0.0451336 -0.0920344 -0.0548003 -0.110649 -0.0122248 0.0595342 0.0438636 0.0332248 -0.0356115 0.0145681 0.0928138 -0.0500675 -0.0358855 -0.00628591 -0.0438395 -0.0864533 -0.0953366 -0.0225345 0.0483062 -0.0726642 -0.107333 -0.0638796 -0.0631521 0.0639414 -0.00587899 -0.00913455 -0.0399128 -0.00984569 0.0131687 -0.130584 0.0354587 -0.130467 -0.065664 -0.050313 -0.0844306 -0.111372 0.0604254 -0.0250865 -0.0994257 -0.068866 0.0468737 -0.0684247 0.0939641 0.0532396 -0.0701026 -0.0393867 0.111902 0.133957 0.00110819 -0.0685433 -0.0870061 -0.10625 0.0281617 -0.116599 0.00154271 0.00405432 0.0476782 -0.071337 -0.0730199 -0.0294771 -0.021778 -0.0244035 -0.0219742 0.032406 -0.0759024 -0.0627149 -0.10362 0.11213 -0.0698182 0.00242596 0.126576 -0.0725372 -0.0412873 -0.0487568 0.034158 0.0192343 0.119231 0.0122063 -0.099826 -0.0672903 -0.0366286 -0.0727782 -0.017039 0.0371269 -0.0540406 0.077579 0.0508175 -0.0740332 0.00915021 -0.11004 -0.0757444 -0.0848171 0.0931385 -0.0371902 0.0465119 0.0778995 0.0299666 0.13132 0.0355772 0.0530069 -0.0709963 0.120586 0.00287278 0.00812849 -0.0204009 0.0584999 -0.0260747 -0.07435 -0.0564941 -0.0175296 -0.0499889 0.0547751 -0.0678669 -0.0677928 0.0356072 -0.031816 0.0959938 -0.09749 0.0813163 -0.0957965 0.0737015 -0.0941672 0.0234397 -0.00452749 0.0263363 0.0651198 0.0534113 0.00177348 0.0621651 -0.00495007 0.0656726 0.0102325 -0.0172185 0.0276429 -0.0256368 -0.0651686 0.058686 0.00895578 0.0595791 -0.00341738 -0.0499465 -0.0612233 0.0831001 0.0153203 -0.0461757 -0.0467151 -0.0473388 -0.118805 -0.0555673 -0.102684 0.0663039 -0.00973867 0.0947682 0.0985492 -0.0882215 0.0927623 0.0642208 -0.0303469 0.0897102 0.109207 0.0233495 0.0660832 0.0485379 0.0305588 0.0321816 -0.0237443 -0.0252469 -0.0688297 -0.0885421 -0.0555521 0.0277897 0.0625954 0.042515 0.0546266 0.0799012 -0.0193836 -0.0659855 -0.0772985 -0.133022 -0.0998597 -0.0308608 0.0729707 -0.117411 0.0672775 0.0883884 -0.066387 -0.0197037 0.0523819 -0.0433565 0.0709667 0.0906841 -0.0476176 0.0721529 0.042844 -0.0456735 0.0856369 -0.00992604 0.107648 0.0989659 0.0227078 -0.0824003 -0.0801431 -0.104301 -0.00446156 0.0571767 0.0697331 -0.0797199 -0.00969811 -0.0815867 -0.0829453 0.0698786 -0.0255322 -0.0921299 0.0817865 -0.107693 0.0935681 -0.0682934 -0.0654325 0.00885046 0.0196943 0.0155171 -0.0254443 0.0240449 0.0728279 0.0914626 -0.0797404 0.075988 0.118586 -0.0831724 -0.0952901 0.0992728 0.00100029 0.0110592 0.0100641 0.017417 -0.00342308 0.041686 0.042684 0.0360709 0.0494019 -0.113276 0.00835461 0.0141045 0.0349426 0.0763485 -0.0676788 -0.0223838 0.0837694 0.0770119 -0.0956164 -0.00959063 0.0610975 -0.0963166 0.088991 0.104239 0.0284773 0.104903 -0.0323883 0.0425188 0.0254095 -0.00998485 -0.0857259 0.0295344 -0.00346659 -0.0459402 0.0543608 0.0719209 0.0923642 0.0679132 -0.107294 0.0945151 -0.0852665 -0.12116 -0.103263 -0.0531648 0.0786653 -0.105599 -0.0777581 -0.0791769 0.0955422 0.103118 -0.0456437 -0.0658401 0.0698724 0.111972 -0.0685864 0.0141519 0.06183 0.0116585 0.114309 0.0187746 0.0873929 0.012865 0.0549374 0.0558506 0.0384913 0.0999959 0.0386525 -0.0610854 -0.0961394 -0.0925503 -0.0472918 0.0693933 -0.00315429 0.0307616 -0.10496 -0.0435321 0.0683549 0.0411774 -0.0783171 -0.0244018 -0.0105349 -0.0743061 0.101147 -0.090238 0.0447904 -0.0845811 0.0750375 0.0235866 0.00545709 0.0448603 -0.0910314 0.0124957 -0.106394 -0.0940738 -0.10675 -0.10968 0.01719 -0.0936974 -0.0239102 0.0950573 -0.109787 0.058322 0.0394727 0.0257875 0.051805 -0.0621629 0.0140734 0.0512895 0.0172319 0.0882343 -0.117252 -0.046588 0.0445465 0.0585357 -0.0886023 0.0908518 -0.114455 -0.0518017 0.0870529 -0.071954 0.0506926 0.0501502 0.0680246 0.10921 0.070579 -0.00281003 0.000486857 0.092297 0.0714768 0.0255894 0.0518329 0.0445793 -0.101287 0.0424808 0.00918814 -0.113021 -0.121876 0.0483748 -0.0116006 0.0181544 -0.0724292 -0.119397 -0.0051158 0.0826708 -0.0798871 -0.0979325 -0.0756873 0.0491051 -0.0408142 -0.071355 -0.0204409 0.022844 -0.101767 0.0422504 -0.10719 -0.00914865 0.0556067 0.0732075 0.0279176 -0.0972435 -0.0236413 -0.0872659 -0.112972 0.0839652 -0.0404342 0.0445503 -0.0578643 -0.0180049 -0.0129944 -0.0349611 0.0831573 0.0429894 0.00740306 -0.0111841 -0.0908533 -0.105754 -0.0777179 0.0478193 0.0353798 -0.0743799 -0.0603145 0.0778354 0.0159924 0.00243318 0.0926353 -0.0679831 0.10157 0.0585205 -0.0989895 -0.0751112 0.0919832 0.0838101 0.0086412 -0.117435 -0.0643315 -0.0986697 -0.0432849 -0.0109229 0.0116999 0.00228546 -0.0323895 -0.0129535 -0.115994 -0.00188888 -0.0467517 0.102368 0.0975852 0.05873 -0.0744916 0.035122 -0.113746 -0.0853104 0.0650311 0.0109898 0.0591503 0.0389399 -0.0978628 -0.0195914 -0.0314325 0.0775326 0.0178533 -0.0161931 -0.0695266 -0.0553512 0.100558 -0.0122981 0.0458482 -0.0864295 0.0855626 0.0269586 -0.0736501 -0.115915 0.0396415 -0.0148607 0.0273338 0.00387329 -0.0559087 -0.0957944 -0.0125459 -0.000954234 0.0747804 -0.0173652 -0.0797917 -0.0661209 0.0683798 -0.104318 -0.0493817 -0.01774 -0.104238 0.0507537 -0.0476442 -0.0534686 0.0524537 -0.0799188 -0.0526544 0.0834182 -0.0574004 -0.097182 -0.106951 0.00798299 0.0802771 -0.0802477 -0.0198292 0.0651245 0.0645394 0.108735 -0.0447564 -0.0676199 -0.00705828 -0.122175 0.0209829 -0.0890621 0.0805621 -0.0874995 -0.0173108 0.0968546 -0.106555 0.0585874 0.0441698 0.0514419 0.0929695 0.0675261 -0.0321722 -0.0395959 0.0365288 -0.0430106 -0.0554534 0.042523 -0.07981 -0.00724592 0.0528361 0.0319533 -0.107559 -0.0923642 -0.109535 0.0804681 -0.0666314 0.0909573 -0.0341045 0.0817977 0.0454448 0.0780447 0.0759646 0.0909564 0.0126062 -0.0127421 -0.0936028 -0.0999151 0.072753 0.074963 0.117598 0.020997 0.0584828 -0.0300206 0.107005 0.044056 0.0674701 0.0320268 -0.0861921 -0.0152904 0.097702 -0.0376198 0.0851066 -0.0867281 0.000190429 -0.0709965 0.0384288 0.0882337 0.0670547 -0.059956 0.0558317 0.0511421 0.0898572 -0.0342098 0.0782342 0.0165121 0.0682705 -0.0339318 0.0738832 0.00981542 0.0637834 0.0655413 0.123002 0.0567733 0.0736301 0.068494 -0.083533 -0.014094 -0.019845 0.0435314 0.030226 -0.0837926 -0.0531193 0.0172349 -0.0900036 0.0606804 -0.00783074 -0.0394454 0.0811381 0.0254817 0.0206232 0.0123374 0.0925599 0.0384195 0.053154 0.0941213 -0.0696253 -0.0279141 -0.0719853 0.0700607 0.00436828 0.0328881 -0.0155817 0.0520486 -0.00628386 0.0942299 0.0186408 -0.0467461 -0.00381728 0.0635152 -0.108743 0.0391799 -0.123155 -0.116939 -0.0352249 -0.0278736 -0.0558396 -0.097826 -0.00834933 -0.000149207 -0.0693354 0.075963 -0.0992694 0.0511126 -0.109861 -0.0718578 0.00650047 0.0252311 0.128946 -0.0103411 -0.0684571 -0.0690429 0.00420088 -0.0373956 0.059357 0.0667377 -0.104958 -0.0183705 -0.118135 0.084789 -0.119005 -0.0951923 0.0446626 0.0793745 0.0273449 0.0368809 0.116801 -0.0154313 0.105393 -0.0230652 -0.101252 0.0952511 0.0493124 -0.097833 -0.011571 -0.0370489 0.00835275 0.11824 -0.0692915 0.110799 0.0623031 -0.0119996 0.095137 0.107939 0.0772574 0.00409872 -0.0184624 -0.0144439 -0.0335376 0.00312117 -0.1054 0.0926834 -0.00140007 -0.0554889 0.0527236 -0.0333872 0.039751 -0.0493547 -0.0343602 -0.0175215 -0.0366837 -0.0528181 0.103003 -0.0663327 -0.0547901 -0.00658828 0.0715401 0.11708 -0.0561365 0.0618706 -0.00717745 0.0779911 0.0238266 0.110362 0.114711 0.0882106 -0.0216479 0.0137656 -0.0400495 -0.0241856 -0.104664 0.00248286 -0.0154516 0.100461 0.101883 -0.0566199 -0.0477758 0.132633 -0.0335814 -0.0666911 0.0514079 -0.0755972 0.0800513 -0.0335472 -0.0332464 0.0637861 -0.0973661 -0.0275542 -0.0460916 0.0153405 -0.0198183 0.0507145 0.119601 0.0559473 -0.0554622 0.0123093 0.0205865 -0.0864164 0.0287912 -0.0145931 -0.0767723 -0.11446 0.000262694 0.0718537 -0.000486541 0.0854571 -0.0116458 -0.020032 -0.0604332 0.0466518 -0.111134 0.0235176 -0.0539731 0.0259354 -0.0424036 0.0308673 -0.0369144 0.0784547 0.0751318 -0.0787784 -0.0137951 -0.0576475 0.117119 0.0151959 -0.0564481 -0.00525705 0.0433003 -0.0385045 -0.0361617 -0.123276 -0.044751 -0.03053 -0.0670505 0.0847756 0.045633 0.0734553 -0.0122709 -0.0435079 -0.0690325 0.0967592 -0.0655001 -0.0508768 0.0793767 0.0207557 -0.102627 0.0505554 0.0277389 0.0791496 0.0778289 0.0174029 -0.0103594 -0.102774 0.0225327 -0.0958874 -0.0425551 -0.101065 0.074473 -0.0739958 0.0169491 -0.0802427 0.0858641 0.0813349 -0.0253232 0.104323 -0.0654629 0.057336 0.0363766 -0.00114206 0.00313125 -0.0459959 0.0692197 0.0313179 -0.0929102 -0.0437498 0.0215401 0.00886563 0.0673226 -0.0228038 0.0206138 -0.0491855 -0.0259032 0.0753741 -0.00700335 0.064765 0.00545135 -0.0544299 0.0996889 -0.0371673 -0.0639512 -0.109295 -0.06329 0.041523 -0.0749359 0.0844996 0.0339502 -0.0178406 -0.0345048 -0.056436 0.0691781 -0.0370434 0.00513378 0.0996024 -0.0225448 0.0541989 0.108301 -0.0367544 0.0663768 -0.0228766 0.0824935 0.00045913 0.0551525 0.0137341 0.00222437 0.0286478 0.0515901 -0.0310415 -0.0188185 -0.000401665 0.0871544 0.0790001 -0.00409283 0.0519249 -0.0509428 0.0606416 -0.0524138 -0.044343 0.00608671 -0.0801641 0.065196 0.00990406 -0.0947741 0.0657677 0.120454 -0.0315133 -0.0688887 -0.0617067 -0.0971598 -0.0819856 0.0549586 0.00336798 0.11642 -0.0949174 -0.00603945 0.0711438 0.0765133 -0.0135298 0.0960301 0.0125179 0.0695551 -0.00295699 -0.108647 0.0652173 0.029209 0.00562399 0.093322 0.0359937 0.114007 0.0933193 -0.0937335 0.0959437 0.0455046 -0.0105916 -0.0321018 -0.0148096 -0.0385733 -0.0774786 -0.0826655 -0.0451687 -0.0879478 -0.00600931 -0.0512329 0.0504368 0.106645 -0.0523044 -0.0487616 0.059001 0.0742316 -0.0905704 0.0413399 -0.0460884 0.030917 -0.115594 0.0688053 0.028301 0.00813894 0.062233 -0.0220529 0.0839737 0.0292558 0.0817152 -0.11447 -0.0312172 -0.0171071 0.0476034 0.109268 -0.0373496 -0.0486096 -0.0377691 0.034364 -0.0221085 -0.0395227 -0.0316332 -0.0315737 0.104959 0.0202946 0.0170622 -0.0966671 0.0567328 -0.0561735 -0.0437928 -0.0894429 -0.00586059 -0.0892467 0.0782099 0.0477053 -0.0225755 0.00564018 -0.0617069 -0.0013739 -0.110107 -0.0724339 -0.0518156 0.0879276 0.00410667 0.044129 -0.0232881 -0.0791079 -0.0822325 0.0823753 0.047837 -0.00200199 0.0885328 -0.0879515 0.0605402 -0.068576 0.0554893 -0.0922787 -0.0107387 -0.0522036 -0.0630975 -0.0124484 0.0639011 -0.109198 0.00211171 0.0475181 0.074588 0.0456678 0.0668957 0.0534544 -0.0423137 -0.00374408 0.0485315 0.0476043 -0.0909861 0.0826423 -0.015231 0.0854355 -0.0306569 -0.0340557 -0.0824858 0.00374816 0.108902 0.138236 0.0176643 -0.0586652 0.127088 0.127535 -0.0445329 -0.047018 -0.0125996 0.0135453 0.0779528 -0.0107904 0.00818403 0.00388764 -0.00867177 -0.00587048 0.131645 -0.0957927 -0.00135599 0.0791069 -0.0878024 0.0843281 -0.0247817 -0.00339603 -0.0224876 0.0975837 0.0495116 0.0987902 0.00879371 -0.0486755 -0.0554504 0.135366 0.124353 0.134415 0.10785 0.0769988 0.0308624 0.093846 -0.0413106 -0.0670565 -0.0474468 -0.112034 0.0354187 0.0798534 -0.0907565 0.0600464 -0.0220446 -0.0459944 -0.0626909 0.0612078 0.0416953 0.0424735 -0.0447672 0.0499231 0.0655055 0.0883808 0.0452472 0.0532688 0.0160644 0.00716912 0.00346246 0.0483346 0.107772 -0.0658566 -0.0735205 0.0297 0.0306653 -0.0704715 -0.0114572 -0.0462809 0.0340737 0.0747435 -0.0441561 -0.10832 0.0253132 0.0765988 0.0139413 0.100546 0.0683637 0.112028 0.045643 -0.0834804 0.0111806 -0.0241157 -0.0273489 0.104159 -0.0589942 0.0855089 -0.0229845 -0.0763238 0.106777 -0.00239574 -0.0485232 0.0533582 0.0381319 -0.0111386 -0.0660009 0.0634812 0.00124383 -0.0958436 -0.0379996 -0.0787959 -0.118624 0.0305282 0.0174692 0.109393 0.079855 0.0885761 0.048386 -0.0140531 0.0348774 -0.0919011 0.0706324 0.111059 0.000773085 -0.0746805 -0.0216191 0.0804986 -0.0300305 -0.064078 -0.0535989 -0.005689 0.0299169 0.0552552 -0.0676677 0.067036 0.110055 -0.0405804 0.0380766 -0.0794729 0.051701 -0.122723 -0.0271226 -0.102963 -0.0594065 -0.014821 0.0526004 0.134733 -0.00192738 -0.0941217 0.0800338 0.0256409 -0.0650694 3.22456e-05 0.0430548 0.0325189 -0.0303115 0.0290002 0.0653726 0.0964641 0.00781437 0.0455463 -0.0486468 0.129845 0.056496 -0.0840121 -0.0440452 -0.0116053 0.0751052 0.0636398 0.109625 0.052335 -0.00669714 -0.0189626 -0.0621628 -0.00643 0.123297 0.0204916 0.101926 0.0829843 0.0293837 -0.0637145 -0.079013 0.100089 0.124123 0.0824353 0.0433309 -0.0227964 0.065435 0.0780525 0.1404 0.106128 -0.064118 -0.0473361 -0.0104248 -0.000842086 0.0819986 -0.0568255 0.0133861 0.0325667 0.119526 0.0389199 0.0170512 0.0389964 0.0467912 0.11779 0.0212832 0.0829598 -0.0429737 0.0492263 -0.106381 -0.0266435 0.10921 0.0908546 -0.0204555 0.121889 0.0246581 0.133682 0.0224222 -0.051356 0.0649344 -0.0535666 0.137982 -0.0207939 0.0241722 0.128149 0.130877 -0.046098 0.00736129 -0.0742644 0.137125 0.134626 0.0460649 -0.0462761 0.0400847 -0.0156538 0.0958735 0.0913147 0.00229385 -0.0882389 -0.0314749 -0.0662535 0.0168731 0.0520828 0.0121302 0.142581 -0.0278754 0.0613364 -0.00635374 0.0889702 -0.0320841 0.0861397 -0.0502651 0.116309 0.0836135 0.055756 0.147285 -0.00352871 0.13794 0.0811725 0.113805 0.0182574 0.126545 -0.0275124 0.0871243 0.082148 0.0542159 0.103551 0.0322344 -0.0398031 -0.0372727 -0.0620686 0.0133874 0.0177848 0.135491 0.05824 -0.0601002 -0.0508331 0.0398288 0.0162437 -0.0291063 0.152515 0.103228 -0.04363 0.0350387 -0.0321486 -0.0354343 0.0156812 0.0573958 0.0674699 -0.0938889 -0.0848395 -0.0532774 -0.0770363 -0.0519364 0.0933594 -0.00336403 0.122294 0.025525 -0.0441878 0.0316397 0.094147 0.0283412 -0.0480932 -0.016351 0.0366876 -0.00541355 0.0816147 -0.0361003 -0.0307839 -0.016503 0.032101 0.140033 0.0280495 0.136597 0.0510468 -0.00215834 0.0243504 -0.00333223 -0.016633 -0.105259 -0.128447 -0.0137919 0.00906928 0.0211107 0.067803 0.0429501 -0.0233615 -0.0306123 -0.0143686 0.00693636 -0.0537211 0.109042 -0.0552736 0.0864527 0.150603 -0.0161434 -0.0556903 0.139351 0.137898 0.0938801 0.109985 -0.0702555 -0.00442555 0.00135728 0.0614346 0.0474608 0.0197759 -0.124701 -0.111427 0.0393893 -0.0757959 -0.126134 -0.119335 0.0202455 0.0386273 -0.132381 -0.00706364 0.0329377 0.04035 0.114524 0.11117 -0.0660988 0.058322 0.12361 0.0391285 0.0948804 0.00886344 0.00422402 0.105063 -0.00287008 0.00116673 -0.0119023 0.0294478 0.0577509 -0.0512006 0.0551604 -0.051006 -0.0827128 -0.115595 -0.0193063 -0.0626774 -0.113266 0.00195597 -0.135611 -0.0144232 -0.126851 -0.11242 -0.00949219 0.0429233 -0.0810986 0.0458655 0.0390324 0.0193871 0.0920282 0.0204992 0.0564797 -0.0711203 -0.0906696 -0.0966681 -0.0950951 0.0216042 0.0674093 -0.0938477 -0.00509473 0.00782292 0.0736015 -0.140113 -0.0372992 0.0272873 -0.147411 0.0162454 0.00984289 -0.036574 -0.102442 -0.0149689 -0.0467521 0.0761134 0.0328995 -0.0625296 0.0847595 0.0551919 -0.0158213 -0.0774331 0.100349 -0.0471936 0.0663213 -0.0997971 0.00688261 0.0248274 -0.0131554 -0.00602583 -0.0399717 -0.0337748 0.00907149 -0.125586 0.0205611 -0.0578722 0.0319581 -0.163169 -0.03492 -0.125878 -0.00887312 0.0267842 0.0509187 -0.0168641 0.0207788 -0.0312234 -0.021868 0.0532607 0.101046 0.0272828 -0.0944579 0.109085 0.0125694 -0.1061 -0.0540639 -0.0385411 0.0725158 -0.0500602 0.0126559 -0.0773535 0.0446574 -0.049962 -0.0193298 0.091304 -0.038941 0.0601575 0.031735 -0.00302588 -0.0277456 -0.0867734 0.041394 -0.0314256 0.0594433 -0.0681526 0.00590857 0.0283829 -0.0975327 -0.066992 -0.0709399 0.0390544 0.0460259 0.0147284 0.0247497 -0.0824412 0.0864879 0.0590657 -0.0828431 -0.0947472 -0.0455564 -0.0811481 0.0365086 0.0114456 0.0697924 0.0643281 0.0267873 -0.0351164 0.0388737 0.0491081 -0.032092 -0.0360909 -0.046589 -0.0643568 -0.0208318 -0.087771 -0.100132 -0.113885 0.0627957 -0.113065 -0.0797577 -0.00982879 0.00715645 -0.039347 0.106921 -0.0603297 -0.077413 0.0218138 0.0811496 -0.0537046 -0.0375592 0.00553439 0.0795085 0.0392442 -0.0544092 -0.0271387 0.0699008 0.0800445 0.112132 0.0447221 0.0505162 -0.0109917 0.0201656 -0.0361176 -0.0886652 0.099611 0.0358179 -0.0290484 -0.0125145 0.0445673 -0.122265 -0.105114 0.0503061 -0.0752321 0.0444437 -0.0778797 -0.0250027 -0.0412708 -0.068918 -0.0535504 0.00265082 0.0560605 -0.0130344 -0.0439951 0.117729 -0.053362 -0.0176984 0.100488 0.00986811 -0.04642 0.0643331 0.0836809 -0.0142331 0.103605 -0.0755097 -0.00656307 0.0706957 0.0137436 0.0616192 -0.062971 -0.125791 -0.0216408 -0.032002 0.113639 -0.0446247 0.00780667 0.0297555 -0.026966 -0.0767623 -0.0760479 -0.0379089 0.0442249 0.112114 -0.0296333 -0.00994824 -0.0221228 0.0317747 -0.00259353 0.141246 0.0426734 0.108698 -0.00268799 -0.0415302 0.0619654 0.116907 0.0626764 0.102298 0.00473496 0.00601373 0.05606 -0.054413 0.0742149 -0.029557 -0.00870784 0.106357 0.0195846 -0.0566217 -0.0181296 0.0248202 -0.0558756 0.0679975 0.129962 0.0614462 0.0661255 0.118182 0.0862237 0.104591 -0.024322 0.0745955 0.0952014 0.100573 -0.0216705 -0.0337364 0.082191 0.00856621 -0.0069764 -0.0255145 0.121644 -0.119169 -0.0487404 -0.0425706 0.0706854 -0.096519 0.106181 0.0974987 0.113092 -0.0378744 0.0469308 0.06266 -0.0386795 0.0641131 0.140836 -0.00185094 0.0727168 0.112152 0.0931684 0.0485137 0.042483 -0.0374568 0.0625481 -0.0694786 -0.0417696 0.0237581 -0.0315284 -0.0144032 0.0462781 -0.0477334 -0.00289393 -0.107553 -0.00663839 -0.137174 0.0891228 -0.0271127 0.070255 -0.0942303 -0.00870603 -0.0423224 0.0903479 0.0521899 0.0889933 0.080738 0.0344336 0.052831 0.0829606 0.073963 -0.024582 -0.059936 -0.00170452 0.128027 -0.0351112 -0.0539713 0.114303 -0.0994622 0.0158484 -0.103114 -0.034404 0.116033 0.00377596 -0.156351 -0.134091 -0.112418 -0.0911332 -0.0987638 -0.127774 -0.0913024 0.0786157 -0.0964614 0.0586378 -0.0346587 0.119439 0.135573 -0.0137883 0.0582883 0.104019 0.129451 -0.0590768 0.0173635 0.0978178 0.00354178 0.117795 0.0881773 0.110733 -0.00669038 -0.109258 0.0231668 -0.0532019 -0.0970494 -0.0113669 -0.00634373 -0.152118 -0.0960187 -0.156 0.0392216 0.0262917 0.0700679 -0.0854898 -0.065452 0.102406 0.0568436 -0.00448558 -0.0353405 -0.0549031 -0.00716236 -0.0357334 0.0243079 0.0358765 -0.00736593 -0.0328168 0.0425199 0.0308181 -0.0199732 0.00583708 -0.107006 -0.124825 -0.10254 -0.0885632 -0.106955 -0.0349606 -0.12589 -0.0868239 0.0532778 0.0206883 -0.105587 0.0601536 -0.112214 0.0204223 0.0132444 0.0352495 -0.105467 -0.0594044 0.0289219 -0.0546608 -0.091326 -0.0664894 -0.0715983 -0.0457015 -0.081867 -0.0113248 -0.0831396 0.042211 -0.0495014 0.0710937 0.0418808 0.0448068 -0.00335226 0.0480326 -0.0130001 -0.0392635 -0.0120973 -0.0932339 -0.164971 -0.067204 -0.0342945 -0.139381 0.0415384 -0.147279 -0.0602862 -0.0980987 -0.0497275 -0.0522965 -0.0312979 -0.0809148 -0.0740797 -0.0647456 -0.0449915 0.073062 0.0637296 -0.00655689 -0.0224505 -0.0723826 0.0525131 -0.0632207 0.0452141 -0.111505 0.0658735 -0.0927317 0.059235 0.096537 -0.126404 -0.145103 -0.076112 -0.0237503 0.042426 -0.0999832 -0.140149 0.0226126 -0.0141594 -0.116707 -0.0951326 -0.105594 0.0852955 -0.0536124 -0.118946 -0.103532 -0.00429167 -0.0983895 -0.0667333 -0.109175 -0.0315607 -0.0180901 0.0194007 -0.125069 -0.0611739 -0.0609503 -0.0904486 0.0647085 0.062679 -0.0291363 -0.0882495 -0.0140624 -0.0633376 -0.00683941 -0.114019 -0.1137 -0.0338152 -0.0912553 -0.137993 -0.156374 -0.0425582 0.0587131 -0.0145054 -0.133233 -0.087356 -0.0887203 -0.0600077 -0.0966037 -0.0903454 0.0102254 0.0631168 -0.0999117 -0.09546 0.00108138 0.0265564 0.0010008 -0.0767462 -0.055684 -0.0827322 -0.0612975 -0.00431682 0.0755483 0.0356427 0.0180447 -0.0766376 -0.0262217 0.0527424 -0.171488 -0.0664577 -0.0300292 -0.0176176 0.0700158 0.0771808 0.0525428 0.0350958 0.0655573 0.0488693 0.0728677 -0.0184115 0.00339548 -0.0490865 -0.0962799 0.0143442 0.0462034 -0.0341549 -0.0863036 -0.0956447 0.024775 0.0404637 -0.0842732 -0.0474872 -0.0191707 0.063946 -0.125629 0.0292683 -0.0939717 0.0146115 -0.0894 -0.0555691 -0.121712 0.065201 -0.050191 -0.0421853 0.0448297 0.0968622 0.104743 -0.0931739 0.0424361 -0.0271411 -0.0698341 0.0309718 -0.0227964 -0.103185 -0.0809705 -0.00657577 -0.0180472 -0.0973732 -0.0409626 0.0839564 0.0220934 -0.0869639 -0.0898613 -0.00542284 -0.0893294 -0.0796287 -0.0527326 0.0739097 -0.137908 0.0659625 -0.113669 0.029366 0.0321132 0.0353801 0.0108217 -0.0135504 0.0862467 0.012939 -0.062689 0.0111614 0.043266 0.0149688 -0.0853312 0.0282856 0.0726704 -0.0182281 -0.102236 -0.0725561 -0.079604 0.0435997 -0.00514939 0.0823494 -0.0529718 0.0795488 -0.0528222 0.0284446 0.00952272 -0.105377 -0.113364 -0.114105 -0.10554 -0.0167211 0.086687 0.054226 0.0956052 -0.00715382 0.0561915 0.0232918 -0.00183981 0.107122 0.0611544 0.0171036 -0.0962299 0.015677 0.0185169 0.0855827 -0.0412808 -0.0581061 0.0332347 -0.0145704 0.0634079 -0.0566508 -0.109756 -0.0857306 0.0238161 0.0583946 -0.00934443 0.0701786 0.0330967 -0.1099 -0.0280179 -0.0434229 0.0954293 -0.000158514 0.107211 0.0546948 -0.0561267 0.0859049 -0.0558273 0.0718708 -0.0395857 0.0733033 0.0781742 0.0171446 0.0491916 0.052002 0.00311338 0.0866589 -0.00337318 -0.090378 -0.116471 -0.0955768 -0.0673808 0.105946 0.0784458 0.0362444 -0.0654407 -0.0848462 0.0117621 -0.0516439 0.0694468 -0.0525978 0.11752 0.0120414 0.125609 -0.0155966 0.0510739 -0.0160335 0.000410926 -0.0845101 -0.0398743 0.0343544 -0.0248473 -0.0566489 0.0791265 -0.0357859 -0.0715631 -0.054475 -0.00664166 0.0739072 0.0133405 0.0701632 -0.111898 -0.045013 0.00626897 -0.110947 -0.1356 0.0614812 0.0546521 0.0785214 -0.0205257 0.095706 -0.0655091 0.120397 0.0567217 0.00679911 -0.0254676 0.0764551 -0.0354747 0.107553 0.137732 -0.0617643 -0.0772675 -0.0798037 -0.0533468 0.0888123 -0.0873945 0.0309171 0.0158278 0.0464097 0.0115105 0.0796302 -0.107457 -0.155106 -0.0023466 0.0252937 -0.108393 -0.0786974 -0.122801 -0.122793 0.0923865 -0.0639109 -0.0902642 -0.0412755 -0.0308894 0.0598433 0.107927 -0.00223723 0.069423 -0.0537839 0.121693 0.028464 -0.0879816 0.0663323 -0.0745437 -0.103281 -0.00323414 -0.106729 -0.0781675 0.0639378 -0.0498293 -0.128689 -0.0548232 -0.0853766 -0.148174 -0.00976473 -0.0334303 -0.0508221 -0.0965914 -0.0436164 -0.0925744 -0.0752391 0.0306686 -0.0365348 0.13296 -0.00864544 -0.0393384 0.139486 -0.0377175 0.0327047 -0.0407325 -0.00978665 0.103921 -0.0198942 -0.0183923 -0.0914128 -0.105728 0.00490301 -0.11311 0.060161 0.00392605 -0.0241748 -0.0474709 -0.101209 0.0419569 -0.0693507 -0.0797262 -0.109367 -0.0162437 0.0288206 -0.0630404 0.0241528 -0.0276529 -0.0616139 0.0539369 0.0731099 0.126856 -0.0280836 0.0217261 0.0617007 0.0132033 0.156184 0.032803 0.101083 0.0228413 -0.00510169 0.0931019 0.00482016 0.0258265 0.0348211 -0.00306451 0.080454 0.0396961 -0.0238224 0.0421391 0.000205396 0.0594738 -0.0499663 -0.0896 0.0945425 -0.0110823 0.0675963 0.113331 -0.054937 -0.0130617 -0.00605284 -0.0479018 -0.0303173 0.1463 -0.036639 0.0593773 0.165478 0.0758654 0.0592681 0.00632476 0.0587543 -0.00725596 0.049873 0.000884519 0.11895 0.0808208 -0.0163756 -0.0954923 -0.139834 0.0484296 -0.0866389 -0.0328075 0.0554748 -0.0978187 0.0250264 -0.0580246 -0.0274179 0.103427 0.116587 0.137131 -0.041553 -0.00905685 0.138888 0.146472 0.142461 0.167966 0.104098 0.120155 0.0450205 0.0307785 0.0508459 -0.0568853 -0.0143244 -0.0736766 0.085707 0.105401 -0.0804572 0.0447149 -0.143032 -0.0506385 -0.0698734 0.0478986 -0.00334904 -0.0682126 -0.094997 0.0403963 -0.0332395 0.0262905 0.144921 0.0357591 -0.0214445 -0.058558 0.123253 -0.0538124 0.123097 0.0115509 -0.0231348 0.0265933 0.0473991 0.0737897 0.137753 0.0249981 0.0994108 0.118037 0.0841792 0.044624 0.0840268 -0.0181955 -0.120726 -0.124571 -0.0859979 -0.029667 0.0739086 0.0478232 -0.0963978 0.080133 -0.0425567 -0.0677007 0.0775694 0.0955689 -0.0553551 0.117659 0.0433483 0.0091848 -0.0546583 0.0751155 0.112699 0.131634 0.147244 0.0263109 0.0675121 0.125823 0.110066 0.0295061 -0.0285882 -0.0110972 -0.0100375 -0.104119 -0.0157532 -0.10453 -0.0502521 -0.0183459 -0.123008 0.0219287 0.0884641 -0.112583 -0.055538 -0.0634152 -0.0563059 0.0755724 0.0768026 -0.0873056 -0.0410273 -0.0927387 0.0163082 0.0564365 0.126903 -0.0587176 0.102709 -0.0675021 0.0277188 0.0640863 -0.0108798 0.07136 -0.0717425 -0.0222884 -0.00874142 -0.0202779 0.0426813 0.0255428 -0.0102022 -0.125709 0.0153952 0.0636815 -0.0450434 0.0293373 0.0780595 -0.0453096 -0.0584148 0.0228813 0.0434323 -0.0911763 -0.0383361 -0.0651392 -0.0164194 0.073027 0.056339 -0.0489601 -0.0494489 -0.0105613 0.00999245 -0.0370057 -0.0957909 -0.0229066 -0.0177152 -0.0388393 -0.0748683 -0.0695739 -0.105606 0.0576049 0.0638535 2.62695e-05 0.0545322 0.0172009 -0.0547103 -0.0986008 -0.076953 0.0784139 0.0671978 0.0242125 -0.0572439 0.0333336 -0.0800016 -0.0573613 -0.0281233 -0.0180634 0.0212958 -0.03627 -0.0404058 -0.0141851 -0.0488111 0.0567772 0.00640585 0.0444984 -0.0908096 0.0574883 0.0754628 0.0144765 -0.122303 -0.0938455 -0.0670997 0.0866711 -0.0474193 0.100566 -0.10693 0.105382 -0.0178755 0.00189933 -0.0625812 0.0829683 -0.108834 0.0319083 -0.0126861 -0.000721839 -0.0349414 0.0654105 0.0500132 -0.101327 0.0190587 -0.0218173 -0.0282071 0.0176278 0.0876771 0.0554909 -0.049474 0.0556787 -0.0956252 0.0426539 -0.121754 0.0539911 -0.0693977 -0.101494 -0.0857884 -0.0129633 0.0885633 -0.10556 -0.106945 -0.0162304 -0.0532963 -0.0585643 -0.00516809 0.0231254 -0.1036 -0.135718 0.0462962 -0.0598774 -0.0784107 0.00783204 0.0776949 -0.116977 0.02274 0.010542 -0.101216 0.105509 -0.0625249 0.0286172 -0.0304636 0.0641684 0.0671862 0.0050248 0.0107771 -0.0229121 0.0641578 -0.080529 0.0455898 -0.0553212 0.0205204 -0.0181995 -0.0949241 0.0168996 -0.0241037 0.0449117 -0.0253142 0.0661053 -0.0954036 -0.0254297 0.0470422 -0.11868 -0.0548233 0.00833235 0.0190469 -0.0204173 0.0387386 -0.00709912 0.0747146 -0.0814494 0.0701172 -0.122376 -0.0577894 -0.0590433 0.0410683 0.0247866 0.0289619 -0.0576409 -0.00787453 -0.0240679 0.0300001 -0.0520611 -0.000357533 -0.0597913 0.0324967 -0.0269014 -0.0759435 -0.00363404 -0.0580725 -0.02736 -0.0544596 0.00226397 0.0793755 0.0255009 0.0165348 -0.0586324 -0.0195883 0.0802628 0.0652173 0.0796739 -0.058467 0.105016 0.0220777 -0.0694487 0.0318738 -0.044359 -0.0368455 0.102006 0.100105 0.0107413 -0.0880997 -0.0279023 0.0836158 0.0670644 -0.0391787 -0.120351 0.0229182 -0.0114417 0.0751871 0.0866585 0.0779313 -0.0493364 0.0816587 0.108308 0.0601287 -0.0023063 0.0243486 0.0142996 -0.108747 -0.090524 0.00169036 0.0578883 -0.0351975 0.0618298 0.0626264 0.0841623 0.0104807 -0.0535685 -0.0678751 -0.0665248 0.0492025 0.0820095 0.0698874 -0.0926606 -0.117304 0.0124909 0.0152932 -0.036636 -0.0952413 0.046681 -0.0383225 -0.0433322 0.0990756 0.10837 0.138341 0.0540376 0.0628116 0.0599334 -0.0960939 -0.0419948 -0.0564611 0.110345 -0.0297538 -0.0235032 -0.0661702 -0.088221 -0.0764622 -0.080856 -0.0356016 0.0285341 0.0463139 0.0938977 0.058367 -0.0599776 -0.0860749 0.0415041 -0.0872314 0.0583821 0.0500193 0.0431456 0.0668244 -0.0663874 0.131847 -0.0746525 0.0291398 0.0891109 -0.0399768 -0.0413597 -0.044805 -0.102531 -0.117906 0.0274038 -0.0342725 0.0246679 0.118308 -0.064396 -0.00765421 -0.0867028 -0.0527513 0.123701 0.0719164 -0.0993612 0.0468697 -0.0464352 0.0610738 0.0390013 -0.0570297 -0.0776807 0.106157 -0.0280073 -0.0700132 0.0219392 0.0996427 0.0894691 0.144665 0.0143391 0.14125 0.0870291 0.107183 -0.0696465 0.0710358 0.0262925 -0.0165537 0.0694809 -0.0061296 -0.0171217 -0.0226354 0.128641 -0.0640543 -0.0827097 0.0542953 0.0844532 0.0875955 0.0234667 0.0445697 0.0413454 -0.0261183 -0.0700618 0.0230762 -0.0635984 0.0938105 0.102881 0.0495247 0.134546 0.117424 0.0072604 0.0987663 0.11474 0.0864293 0.089247 0.0224652 0.11458 0.125617 -0.0424964 0.0579263 0.0327154 0.112271 0.0090341 -0.029853 0.0248591 0.0770582 -0.0540167 -0.0351004 -0.0710669 0.0317395 -0.102755 -0.128187 -0.0865211 0.0695683 -0.080882 -0.026405 0.0338069 0.0490425 0.00502651 -0.0330423 0.108975 0.0730144 0.114152 -0.0188332 -0.0692176 0.0446487 0.115498 -0.0313475 -0.0654517 0.117847 -0.0867353 -0.0774751 0.0891103 0.0415611 0.119195 -0.00546953 0.107888 -0.00548108 -0.12466 0.0231623 -0.0574513 -0.112294 0.0282109 0.00380186 -0.0919107 0.0754969 -0.0750325 -0.0834613 0.107898 0.0717122 -0.0082267 -0.0760175 -0.093793 -0.0946929 -0.0112596 0.0552463 -0.0204127 